tree
version=v4
num_class=1
num_tree_per_iteration=1
label_index=0
max_feature_idx=44
objective=binary sigmoid:1
feature_names=venue race_no lane age weight class_i nat_win nat_in2 loc_win loc_in2 motor_in2 boat_in2 r_n365 r_win365 r_top2_365 r_top3_365 r_n90 r_win90 r_avg_st180 r_f365 r_lane_n365 r_lane_win365 r_venue_n365 r_venue_win365 r_avgpos10 r_makuri365 v_lane_win365 v_lane_top2_365 v_lane_top3_365 v_makuri365 v_water v_tide f_noryoku f_win f_lane_in2 f_lane_strank ex_time ex_rank ex_diff wind wave rt_class rel_nat_win rel_nat_rank rel_motor
feature_infos=-1:6:2:12:8:23:18:1:13:5:9:16:10:3:14:11:4:17:22:15:20:7:24:19:21 [1:12] -1:3:1:6:4:5:2 [16:77] [40:67] -1:2:4:3:1 [0:9.3800000000000008] [0:87.5] [0:9.8800000000000008] [0:94.120000000000005] [0:91.670000000000002] [0:100] [0:355] [0:1] [0:1] [0:1] [0:101] [0:1] [0.02:0.63] [0:4] [0:147] [0:1] [0:137] [0:1] [1:6] [0:1] [0:0.91666666666666663] [0:1] [0:1] [0.0625:0.5] -1:2:0:1 [0:1] [0:76] [0:9.3300000000000001] [0:100] [0:6] [6.3300000000000001:8.5399999999999991] [1:6] [0:1.0199999999999996] [0:18] [0:40] [0:4] [-5.375:4.0716666666666672] [1:6] [-48.248333333333335:72.916666666666671]
tree_sizes=6921 7005 7007 6991 7031 7066 7087 7119 7057 7033 7074 7049 7129 7140 7079 7091 7091 7147 7066 7089 7127 7085 7095 7145 7148 7148 7151 7150 7133 7135 7144 7151 7149 7150 7154 7085 7168 7108 7158 7191 7120 7066 7097 7159 7046 7070 7044 7134 7094 7115 7105 7085 7122 7079 7081 7082 7057 7138 7144 7082 7072 7042 7096 7103 7053 7087 7084 7152 7078 7060 7150 7072 7066 7080 7065 7075 7050 7085 7073 7068 7067 7105 7102 7032 7151 7070 7125 7062 7026 7065 7073 7044 7049 7072 7017 7056 7066 7082 7040 7071 7050 7076 7147 7056 7062 7035 7062 7027 7012 7063 7046 7054 7055 7021 7089 7102 7031 7052 7020 7020 7075 7081 7069 6995 7078 7062 7064 7044 7045 7063 7022 7042 7039 7033 7030 7034 7022 7098 7062 7045 7024 7016 7038 7057 7075 7006 7017 7051 6997 7025 7048 6979 6998 7030 7029 7052 7096 7058 7015 6999 7014 7003 7099 7074 6951 7011 7005 7061 7037 7033 7070 7112 6963 6998 7028 7009 7023 6979 7019 7049 7016 7025 7001 7020 6972 7024 7038 7000 7002 6957 6964 6947 6922 7006 6988 7006 7069 6977 7012 7023 6970 7023 6983 6968 6975 6998 6947 6973 6944 6979 7006 6954 6967 6877 6972 6971 6974 6898 6939 6959 6965 6969 6908 6978 6988 6976 6951 6953 6909 6979 6993 6989 7006 6973 6955 7003 7045 6984 6878 6925 6953 6926 6923 6923 6978 6940 6962 6898 6982 6988 6947 6966 6879 6990 6966 6910 6905 6953 6871 6976 6985 7055 7037 6999 6927 6913 6966 6965 7008 6853 6910 6958 7012 6892 6870 6932 6925 6853 6898 6987 6873 7025 6933 6957 7051 6943 6952 6895 6896 6940 6915 6972 6923 6900 6924 6912 6977 6943 6932 6889 6935 6961 6845 7027 6969 6902 6958 6891 6917 6966 6947 6979 6878 6888 6921 6891 6932 6923 6983 6868 6873 6927 6882 6915 6964 6953 6913 6939 6928 6888 6932 6913 6877 6944 6887 6969 6914 7040 7040 6933 6955 6857 6947 6893 6937 6939 7010 6899 6878 6957 6970 6882 6975 6904 6927 6966 6913 7033 6983 6920 6872 7004 6848 6862 6923 6902 6982 6990 6862 6973 7063 6920 6919 6911 6971 6901 6893 6915 6944 6878 6856 6884 6872 6876 6967 6906 6950 6975 6854 6864 6970 6929 6951 6901 6975 6899 6864 6945 6862 6855 6906 6955 6895 6949 6914 6974 6960 7009 6950 6907

Tree=0
num_leaves=63
num_cat=8
split_feature=2 42 2 2 14 42 42 42 42 2 43 2 42 42 42 2 27 2 42 13 37 28 42 2 13 42 43 42 27 42 15 27 42 24 28 32 42 37 42 27 43 42 13 28 28 37 14 42 37 42 18 42 42 37 42 42 29 37 32 42 42 23
split_gain=130675 39250.6 14619.5 13270.6 9005.72 4725.07 4724.15 2853.45 1720.55 1463.52 1216.02 1140.61 1114.94 1070.46 840.872 654.523 583.002 564.491 468.134 457.726 403.962 399.386 391.213 357.858 301.758 270.823 257.544 254.667 234.713 232.999 227.261 209.927 185.246 184.41 183.399 180.082 172.9 167.456 162.684 159.309 154.408 146.176 143.407 127.928 120.51 117.289 115.544 112.44 110.305 109.93 104.719 102.233 102.113 100.863 95.2215 94.9058 91.629 91.3238 89.4618 88.8591 87.8184 84.3513
threshold=0 0.32500000000000068 1 2 0.31767769607843138 -0.44833333333333297 1.0658333333333332 1.3158333333333332 -0.56249999999999989 3 2.5000000000000004 4 -0.50499999999999956 -1.1491666666666667 1.5166666666666671 5 0.31377617836029126 6 1.8966666666666669 0.077283706631532736 2.5000000000000004 0.51431689646631451 0.23333333333333386 7 0.10829175193727152 0.84833333333333416 1.5000000000000002 -1.5508333333333331 0.37275571206689401 0.86333333333333273 0.14438717067583048 0.31178764501913608 0.65833333333333355 5.9500000000000011 0.30087491363664748 51.500000000000007 0.57500000000000051 2.5000000000000004 -1.5508333333333331 0.14354649064599126 2.5000000000000004 -0.058333333333333341 0.080306627971740999 0.76548381356366602 0.52724121313870886 2.5000000000000004 0.22747798140878303 2.289166666666667 2.5000000000000004 -0.084166666666666487 1.0000000180025095e-35 -0.033333333333332764 1.9525000000000003 2.5000000000000004 1.4075 -0.38250000000000023 0.28449804857542177 3.5000000000000004 61.500000000000007 0.74333333333333373 0.019166666666666558 0.11726508785332317
decision_type=1 2 1 1 10 2 2 2 2 1 2 1 2 2 2 1 10 1 2 10 8 8 2 1 8 2 2 2 8 2 8 8 2 10 10 8 2 8 2 10 2 2 8 8 10 8 8 2 8 2 10 2 2 8 2 2 10 8 10 2 2 8
left_child=4 2 5 6 8 13 11 15 19 20 26 36 27 30 21 25 53 57 39 38 51 -8 42 40 -22 -5 54 -4 49 -17 -2 52 48 -24 -29 55 -3 -18 -1 -9 59 -11 50 -28 -32 -23 -39 -33 -25 -26 -10 -7 -16 -15 -6 -12 -44 -14 -20 -13 -30 -42
right_child=1 3 12 7 10 9 14 18 22 41 35 23 17 16 31 29 37 -19 58 -21 24 45 33 32 28 -27 43 34 60 -31 44 47 -34 -35 -36 -37 -38 46 -40 -41 61 -43 56 -45 -46 -47 -48 -49 -50 -51 -52 -53 -54 -55 -56 -57 -58 -59 -60 -61 -62 -63
leaf_value=-0.72357093398054573 -0.77535571971733752 -0.69177753004597764 -0.78403153115198876 -0.73883894801810979 -0.60123224131768893 -0.70946009814164479 -0.68700931071087634 -0.72067974751126962 -0.78734080612206836 -0.74267362983142082 -0.65309160891585794 -0.69936095434276313 -0.74679515729848744 -0.739635399183878 -0.66971717577820999 -0.75794031450279298 -0.72362366325142191 -0.77039319511832738 -0.68819710911525522 -0.67013746997746082 -0.72863379012963081 -0.65073536318375025 -0.631013878065529 -0.7022930828883126 -0.72592517042605742 -0.72049671684749572 -0.62499986742391889 -0.77927360029181258 -0.71232619685622545 -0.74072933526746709 -0.76368098585942112 -0.64708898519511637 -0.70488482167855981 -0.77838586125014309 -0.76897358701784746 -0.61941839799773979 -0.67785977580771717 -0.74446305995844497 -0.69256801331328821 -0.70126781044109887 -0.7188233991438715 -0.73161318086473848 -0.64476574418968435 -0.60669441321642248 -0.75139569912891313 -0.66886481049604884 -0.73420980484510312 -0.62513387422974187 -0.72351664436301533 -0.71514185358912241 -0.66699696746318715 -0.694208185835819 -0.6492513608028283 -0.75527212166213209 -0.59063839744072677 -0.63108986983106818 -0.6599815624295623 -0.75714680693271852 -0.66346632958201757 -0.68714117283086185 -0.6994191774467543 -0.70131082527498445
leaf_weight=538.33443473279476 2446.2128431200981 3767.2383507192135 9212.3334730267525 5740.3961497992277 5105.9069368839264 2262.0632105916739 3353.2876198738813 2265.3712878227234 18.304694011807442 5916.8269354552031 578.91351543366909 3296.1681530177593 2743.9397939145565 1207.4481893330812 1550.8266059160233 5575.4333652108908 2234.0548233687878 11659.42847007513 1404.1685153394938 2934.9261193871498 5612.9249071627855 1143.2714910507202 2752.7613331973553 735.93691466748714 4085.9164573103189 3098.7862115651369 1167.9718010425568 8056.491288498044 2990.501816868782 3037.9175905138254 4276.0206288546324 3804.2888157069683 3823.9167406111956 21.39223276078701 9322.823252543807 4203.2429297715425 5473.9856634587049 4817.0015253722668 1977.3480302393436 1981.3177229166031 1094.753024995327 6033.2712539881468 2683.291711345315 5220.3664090782404 3743.8612716197968 4061.2161473184824 6396.0570569932461 688.74167950451374 3641.3108774572611 5606.5292911827564 1451.1432120203972 2136.3562758117914 1004.1117088645697 7068.919965788722 3628.5196454972029 3196.2642206400633 1567.3669920712709 9532.1142720282078 494.4472768008709 2711.520637050271 2356.2331424355507 1848.7740951925516
leaf_count=2441 11092 17082 41772 26029 23152 10257 15205 10272 83 26829 2625 14946 12442 5475 7032 25281 10130 52868 6367 13308 25451 5184 12482 3337 18527 14051 5296 36531 13560 13775 19389 17250 17339 97 42273 19059 24821 21842 8966 8984 4964 27357 12167 23671 16976 18415 29002 3123 16511 25422 6580 9687 4553 32053 16453 14493 7107 43222 2242 12295 10684 8383
internal_value=-0.715635 -0.732774 -0.749808 -0.701688 -0.629921 -0.734867 -0.684835 -0.731689 -0.661627 -0.722683 -0.610744 -0.697722 -0.770253 -0.748879 -0.66302 -0.742013 -0.74255 -0.762436 -0.702396 -0.683552 -0.71581 -0.673553 -0.647558 -0.705373 -0.718741 -0.73239 -0.602412 -0.777311 -0.715048 -0.751828 -0.762015 -0.650231 -0.712928 -0.63215 -0.773748 -0.626537 -0.683568 -0.736124 -0.699202 -0.711623 -0.698462 -0.737072 -0.655031 -0.610041 -0.757946 -0.664882 -0.738614 -0.643723 -0.719948 -0.719688 -0.668496 -0.702052 -0.661674 -0.752991 -0.596831 -0.634464 -0.650376 -0.754801 -0.681757 -0.693846 -0.706638 -0.707824
internal_weight=222361 185315 119717 65597.2 37046.1 69190.2 41999.3 23597.8 13944.9 37000.6 23101.2 26393.6 50527.1 32189.6 15605.7 17452.5 21723.5 23935.5 6145.3 5450.61 25050.5 8557.78 8494.26 17152.4 20652.1 8839.18 15122.8 26591.6 15039.2 8613.35 10466.1 7047.97 8201.16 2774.15 17379.3 7978.42 9241.22 13447.1 2515.68 4246.69 8951.22 11950.1 5720.11 6388.34 8019.88 5204.49 11213.1 4493.03 4377.25 9692.45 1469.45 4398.42 2554.94 8276.37 8734.43 3775.18 4250.66 12276.1 1898.62 6007.69 5346.73 2943.53
internal_count=1008262 840282 542841 297441 167980 313733 190440 107001 63231 167774 104749 119678 229108 145959 70762 79136 98502 108532 27865 24715 113588 38804 38516 77775 93644 40080 68572 120576 68193 39056 47457 31958 37187 12579 78804 36177 41903 60974 11407 19256 40588 54186 25937 28967 36365 23599 50844 20373 19848 43949 6663 19944 11585 37528 39605 17118 19274 55664 8609 27241 24244 13347
cat_boundaries=0 1 2 3 4 5 6 7 8
cat_threshold=2 28 28 12 4 32 32 8
is_linear=0
shrinkage=1


Tree=1
num_leaves=63
num_cat=9
split_feature=2 42 2 2 14 42 42 42 42 27 2 43 42 42 2 42 2 42 42 42 14 27 28 18 42 21 42 21 2 42 42 42 2 38 34 26 27 27 42 21 26 21 13 44 14 15 42 13 38 38 42 2 38 42 38 13 38 38 27 42 42 38
split_gain=116206 35705.4 12741.3 12604.5 7452.42 4533.04 3826.89 2826.17 1452.97 1367.12 1175.13 1099.07 959.477 607.269 605.31 594.95 584.011 520.2 503.048 436.789 397.133 314.397 309.966 283.518 281.461 239.75 235.429 229.953 216.799 212.138 209.22 205.637 203.308 178.633 174.685 173.847 171.793 153.261 150.718 146.033 135.746 134.446 127.573 124.582 123.077 120.306 116.1 101.793 100.959 99.8681 97.0918 92.0846 90.894 90.5456 89.107 84.7358 81.8723 81.1343 80.9507 76.5725 75.7975 74.6446
threshold=0 0.25416666666666649 1 2 0.30828553597432323 1.1174999999999999 -0.70166666666666566 1.2116666666666664 -0.5741666666666666 0.31377617836029126 3 2.5000000000000004 -0.86249999999999993 1.6083333333333341 4 -1.4208333333333332 5 1.9525000000000003 -0.18333333333333332 0.67000000000000026 0.17782169521299959 0.31569056962666003 0.51431689646631451 1.0000000180025095e-35 0.25416666666666649 0.53390804597701158 0.65833333333333355 0.55646630236794181 6 0.7191666666666664 -0.18333333333333332 0.78166666666666662 7 0.044999999999999936 35.050000000000004 0.46819742312600343 0.38043961352657013 0.31178764501913608 -0.25083333333333341 0.30583900226757377 0.50279477233084291 0.38529014844804327 0.12633479004370132 0.84500000000000075 0.067994187966448724 0.19320926657883183 -2.1808333333333323 0.18574251835121405 1.0000000180025095e-35 1.0000000180025095e-35 1.3600000000000001 8 0.034999999999999705 2.289166666666667 0.044999999999999936 0.16638418079096048 0.044999999999999936 0.015000000000000126 0.15656824922738685 -0.18333333333333332 1.5775000000000001 0.039999999999999598
decision_type=1 2 1 1 8 2 2 2 2 8 1 2 2 2 1 2 1 2 2 2 10 8 8 10 2 10 2 8 1 2 2 2 1 8 10 8 8 10 2 8 8 10 8 2 8 10 2 8 8 8 2 1 8 2 8 10 8 8 10 2 2 8
left_child=4 2 6 5 8 10 15 14 20 30 19 27 46 22 29 44 38 28 33 32 45 -17 56 -10 39 59 49 -6 60 -5 -8 -16 -3 -11 -20 -29 48 -15 -14 -25 -27 -22 -23 55 -2 -1 -4 -24 -21 -12 61 -36 -34 -39 -28 -35 -7 -32 -48 -13 -9 -37
right_child=1 3 12 7 11 13 9 17 23 18 26 25 16 37 31 21 -18 -19 34 36 41 42 47 24 -26 40 54 35 -30 -31 57 -33 52 43 51 50 -38 53 -40 -41 -42 -43 -44 -45 -46 -47 58 -49 -50 -51 -52 -53 -54 -55 -56 -57 -58 -59 -60 -61 -62 -63
leaf_value=-0.012106644664939116 -0.058605829932989878 0.022897323374408744 -0.068655161825878594 -0.024808307637450493 0.091356590111154323 0.043989482803440318 -0.028261757310777898 0.0054051900401730054 -0.07034847533625406 0.0003204932268415085 0.017612238235691191 0.057418503652171909 -0.045977172326171378 0.051769812300114897 -0.042658751823437001 -0.040014452671876449 -0.055392109692597308 0.033142935954287793 -0.003539884510980096 0.045742812145283356 0.030757235798960711 -0.028756627572959173 0.035707941705197511 0.045359477293099956 0.077886061661254807 0.071830299734237615 0.024494133344236398 0.090462438830365921 -0.0076992837420262784 -0.0093185558682512843 -0.0015655535234155673 -0.02668256771969283 0.023430234095163982 -0.021787468174347464 0.012212001062943612 0.11334728756142907 0.041158846011379688 0.064706563995596475 -0.036070517939617068 0.062745728486407776 0.091009316372467119 0.050788857040180505 -0.015034282431146982 -0.0074318246550270292 -0.044098071289139229 0.017457133907472108 -0.063304936095151282 0.052701771124990693 0.024364449145161643 -0.0071205969509398996 0.11547712969199064 0.0008428033336455496 0.0071083328241975142 0.084618700682507597 0.0068297808199017374 -0.008715022271247222 0.025441868312342603 -0.018469537399927127 -0.05492211016382588 0.075108290919190385 0.022539692787489206 0.10244906946514343
leaf_weight=465.0318308621645 2332.7218831628561 6222.5712049305439 5703.4378859996796 5483.8192761540413 3129.2024477571249 772.10176339745522 8016.2311281561852 1699.6283885538578 39.831688433885574 2802.6144375056028 444.44758193194866 872.08344739675522 7971.6715679317713 2185.4700833708048 5697.0818713903427 6275.8459552377462 14456.527469560504 1729.5327454656363 6263.0641037672758 610.89278495311737 2102.0434982329607 7439.6859116852283 1117.4231154918671 1759.9245758056641 2355.5482027232647 1142.1934218853712 908.31783670186996 1497.9843101799488 2907.3139819204807 3702.9659995883703 789.97688609361649 3115.7105606943369 1031.5109594166279 4685.1468736380339 4556.1141657084227 2176.8943975418806 2866.1442646235228 3067.7515004724264 7406.2446507662535 3849.4500708281994 4798.8295622318983 1392.5545208156109 2192.9690020084381 4458.7383611649275 3916.0300606936216 1323.4628878086805 7297.6436762958765 4168.3753205686808 5753.0865074694157 4997.4952628612518 3523.489323630929 2935.0928524881601 4927.9901319146156 701.45786048471928 3336.0100452005863 1685.6319424510002 2593.5697655677795 6998.4143589437008 4757.3269209116697 2049.1847204566002 1040.6022477000952 5646.789319217205
leaf_count=2105 10797 27988 26503 25093 13704 3464 36738 7689 185 12727 2010 3862 36752 9729 26240 28862 66894 7753 28409 2741 9419 34056 4980 7838 10392 5031 4101 6563 13214 16853 3600 14271 4656 21359 20612 9528 12829 13601 34049 17093 21133 6221 10015 20315 18029 5957 33847 18569 25834 22722 15371 13305 22270 3089 15063 7669 11636 31922 22016 9037 4695 24717
internal_value=4.73274e-05 -0.0164137 -0.033887 0.0113473 0.0794863 0.0270329 -0.0195448 -0.0169071 0.0492842 -0.0108814 0.0162473 0.0956766 -0.0535645 0.0500154 -0.027596 -0.0364411 -0.0480985 0.00915027 -0.00412369 0.0227796 0.0289325 -0.0313062 0.0415572 0.0627162 0.0633817 0.0815553 0.00178164 0.103511 0.00180263 -0.0185446 -0.0225913 -0.0369685 0.0165742 -0.0109305 0.00262268 0.106472 0.0309944 0.0623042 -0.0411792 0.0572908 0.087322 0.0387396 -0.0256326 -0.0138422 -0.049514 0.00977017 -0.0627776 0.0491093 0.0264166 -0.00510065 0.108585 0.00777492 0.0099168 0.0684123 0.0106101 -0.0183287 0.0296968 -0.016755 -0.0599968 0.0698274 0.0118687 0.105481
internal_weight=222147 184022 112941 71081.3 38124.5 45704.6 65348.3 25376.7 13287.8 43191 31098.5 24836.7 47592.9 14606.1 17999.6 22157.3 29834.4 7377.08 27386.4 21412.2 5283.09 15908.5 8651.47 8004.75 7964.92 8862.29 9686.27 15974.4 5647.54 9186.79 15804.6 8812.79 12182.1 13632.1 13754.3 12845.2 9230.12 5954.68 15377.9 5609.37 5941.02 3494.6 9632.65 10829.5 6248.75 1788.49 17758.4 5285.8 6363.98 5441.94 11347.2 7491.21 5959.5 3769.21 4244.33 6370.78 3365.67 7788.39 12055 2921.27 2740.23 7823.68
internal_count=1007722 839566 518476 321090 168156 205282 298415 115808 59210 196656 140214 108946 220061 65068 82457 101759 137695 33351 124396 96318 23702 72933 38649 35508 35323 39063 43896 69883 25598 41946 72260 40511 54914 62070 62326 56179 41404 26419 70801 24931 26164 15640 44071 49343 28826 8062 82366 23549 28575 24732 49616 33917 26926 16690 19164 29028 15100 35522 55863 12899 12384 34245
cat_boundaries=0 1 2 3 4 5 6 7 8 9
cat_threshold=2 28 28 12 32 32 32 4 20
is_linear=0
shrinkage=0.05


Tree=2
num_leaves=63
num_cat=8
split_feature=2 42 2 2 14 42 42 42 2 43 42 42 27 42 28 2 2 42 42 14 42 42 28 13 21 42 33 2 18 42 14 14 27 42 42 42 38 37 37 37 27 42 27 37 37 15 37 2 21 37 24 32 32 44 43 43 37 38 33 27 42 27
split_gain=102445 32519.2 12944.4 10782.9 6399.37 3963.31 3719.99 2442.37 1263.77 1112.42 1095.52 1008.6 1006.43 788.791 589.837 514.271 443.027 442.664 433.785 394.766 344.729 328.443 297.724 289.917 262.664 250.54 246.055 242.182 194.958 177.775 167.567 159.753 158.537 155.921 153.578 144.848 142.619 139.771 129.853 129.804 123.014 120.222 119.881 117.5 115.589 114.46 111.222 107.039 106.928 106.789 103.448 102.188 96.9563 94.3422 89.1385 87.2734 85.3746 81.9744 81.0771 80.9411 80.1665 78.9543
threshold=0 0.31583333333333302 1 2 0.29349680961567004 -0.53833333333333366 1.2116666666666664 1.2116666666666664 3 2.5000000000000004 -0.67499999999999927 -0.86249999999999993 0.33291770315091218 -1.2816666666666654 0.30595525649873484 4 5 1.8041666666666669 1.9525000000000003 0.28397530864197534 0.83583333333333354 0.75666666666666671 0.4945784224556139 0.068227455275648066 0.52041666666666686 0.028333333333333547 6.0950000000000006 6 1.0000000180025095e-35 -0.25083333333333341 0.22243923611111113 0.067994187966448724 0.13834388423220714 -0.049999999999999371 0.75666666666666671 0.79500000000000048 0.029999999999999808 2.5000000000000004 2.5000000000000004 2.5000000000000004 0.72011459080741158 -2.1808333333333323 0.28997207847636858 2.5000000000000004 2.5000000000000004 0.19320926657883183 1.5000000000000002 7 0.25962962962962971 4.5000000000000009 3.3166666666666669 59.500000000000007 54.500000000000007 1.3891666666666647 2.5000000000000004 1.5000000000000002 2.5000000000000004 0.029999999999999808 6.1950000000000012 0.68187391680528886 -0.13750000000000015 0.15465856141796322
decision_type=1 2 1 1 8 2 2 2 1 2 2 2 8 2 10 1 1 2 2 8 2 2 8 10 10 2 10 1 10 2 8 8 10 2 2 2 8 8 8 8 8 2 10 8 8 10 8 1 8 10 8 10 10 2 2 2 8 8 8 8 2 10
left_child=4 2 5 6 10 13 12 15 19 26 23 41 20 31 60 34 30 32 22 39 38 37 58 45 -11 48 55 36 -27 -16 -15 -2 -9 -10 -5 -17 -21 -14 -3 -7 -26 -4 -40 -32 -23 -1 -24 -41 -12 53 -39 -19 -48 -29 -30 -6 -18 -22 -8 -28 -13 -43
right_child=1 3 11 7 9 8 18 17 33 24 25 14 21 16 29 35 56 51 -20 27 57 44 46 -25 40 28 59 49 54 -31 43 -33 -34 -35 -36 -37 -38 50 42 47 -42 61 -44 -45 -46 -47 52 -49 -50 -51 -52 -53 -54 -55 -56 -57 -58 -59 -60 -61 -62 -63
leaf_value=-0.013423148015118595 -0.056173446819779017 0.015170411373231253 -0.067210319337716443 -0.022797545318218544 0.094728653197084914 0.0032567651112247204 0.021389445480727826 -0.008872237455300842 -0.025407200808243866 0.063003507329220249 0.034740594973042847 -0.056312655484711344 0.032638099008870672 -0.027687207255285923 -0.044815876013024412 -0.040324122679479088 -0.02371820568859492 0.018703998741400683 0.067005984596943791 0.023771524785617892 0.034245478761225676 0.047533413477581811 0.06783261801728474 0.0343971714478577 0.074028857287615615 -0.069452537926870866 0.09082345271135317 -0.0049588838182539905 0.079056096067003354 -0.034309482357365723 -0.0020516751249287906 -0.040737228414198981 0.009050292601133117 -0.01427491496535096 -0.0089492681616410701 -0.026359412612295071 0.0063583980024419159 0.022645842720565901 -0.0052186639628220904 -0.0060388286175269527 0.087709774343814648 -0.061667344026276716 0.0070835205361079318 -0.019140466776242093 0.031259193759436726 0.015659222562011042 0.042104198832351301 -0.017223513076845082 0.052154383054097045 -0.016164753252548996 0.010976892339217885 0.040189842132298002 0.054932471232208097 0.0068075727238068153 0.060986161341493664 0.082410643004286049 -0.03962563776308551 0.01619548603305529 0.038063029510711666 0.10192237691902616 -0.048849058522751933 -0.053327854024795535
leaf_weight=448.82586386799812 2400.7045570462942 1698.8464381545782 5544.6017423272133 4941.932475104928 2343.7928142547607 1763.317279830575 1131.440053075552 2428.794172540307 7149.3072080016136 3452.6724796295166 1179.6680893003941 8776.250397503376 1802.6229783296585 5830.6413366943598 7876.357392296195 4959.3811016827822 988.97656807303429 1551.467974498868 2805.8739161789417 1411.169743090868 748.32715280354023 1379.7640550285578 830.01762294769287 2653.6810950785875 3772.8425772637129 26.216032728552818 2031.6754249185324 4363.5723811835051 1067.2115707695484 8236.8366786837578 1205.0724712610245 5553.4822560548782 2507.9821243435144 5616.3504085540771 3365.4748772978783 2968.2939622551203 7052.3972541987896 4037.536001548171 4695.6383869200945 4331.8678546845913 2910.7461140155792 6987.5909898579121 3424.443810120225 6085.9874060750008 5214.7838877141476 1374.1651159226894 3057.3337559998035 4291.1439303010702 3488.2271439135075 1257.3536118268967 3586.4103082716465 860.22569224238396 2842.1983037441969 2794.5480072498322 1893.169351786375 3720.5112238377333 5732.7889546900988 3945.3709719330072 2050.2447620928288 8578.917494609952 6097.4110192209482 4779.4256899058819
leaf_count=2041 11356 7630 26460 22787 9971 7975 5014 11076 33035 14966 5201 41481 8042 26955 36953 23189 4586 6927 12186 6359 3331 6092 3625 11732 16237 125 8661 19834 4609 38386 5517 25952 11305 25741 15360 13725 31902 18043 21330 19750 12504 33209 15415 28011 23105 6148 13408 19615 15245 5723 16039 3818 12436 12693 8215 15894 26724 17658 9069 36443 28750 22587
internal_value=-1.50799e-05 -0.0156894 -0.0316819 0.0120958 0.073612 -0.0175863 0.0269224 -0.0151002 -0.00751733 0.0872649 0.0434985 -0.0514628 0.0174652 -0.0320929 -0.0460729 -0.025932 -0.0267603 0.00881001 0.0496502 -0.00143387 0.00792747 0.0261049 0.0447368 0.0238509 0.074202 0.0549892 0.0952055 0.00328505 0.0662982 -0.0394452 -0.0213525 -0.0453961 0.00023277 -0.0204934 -0.0171667 -0.0350512 0.00925084 0.0201171 0.00259951 -0.00910407 0.079987 -0.0611403 -3.0522e-05 -0.016316 0.0346642 0.00849906 0.0506955 -0.0116317 0.0477536 -0.0027226 0.0171566 0.0263678 0.0482844 -0.00036523 0.0675003 0.0871714 -0.0372298 0.0190732 0.0321337 0.0997972 -0.053253 -0.0582801
internal_weight=221904 182962 116127 66834.4 38942.3 67828.7 43250.9 23583.6 40031 26811.2 12131.2 48298.5 30533.7 27797.7 30986.9 16235.1 19843.5 7348.47 12717.1 27265.4 14512.6 16021.1 9911.23 4476.67 10136.3 7654.49 16674.9 16879 2986.6 16113.2 13121.7 7954.19 4936.78 12765.7 8307.41 7927.68 8463.57 9426.57 9818.93 10386.3 6683.59 17311.6 8120.08 7291.06 6594.55 1822.99 6729.55 8623.01 4667.9 8415.47 7623.95 2411.69 5899.53 7158.12 2960.38 6064.3 6721.77 4693.7 3181.68 10610.6 14873.7 11767
internal_count=1008156 840164 539554 300610 167992 311728 192423 108187 182627 114676 53316 227826 136685 129101 145570 75061 91793 33126 55738 123851 65364 71321 43552 19921 43707 33395 70969 76511 12949 75339 60483 37308 22381 58776 38147 36914 38261 42124 44375 47340 28741 82256 36745 33528 29197 8189 29469 39365 20446 38250 34082 10745 25844 32527 12824 25865 31310 20989 14083 45104 70231 55796
cat_boundaries=0 1 2 3 4 5 6 7 8
cat_threshold=2 28 28 12 32 12 4 4
is_linear=0
shrinkage=0.05


Tree=3
num_leaves=63
num_cat=9
split_feature=2 42 2 2 6 42 42 42 2 42 42 2 42 42 42 2 2 42 2 2 14 27 42 21 42 15 21 21 42 42 27 42 42 15 23 37 37 44 42 27 42 42 15 26 42 24 24 27 23 28 27 13 37 37 33 1 37 21 18 28 28 33
split_gain=91084 29783.4 11507.8 9912.39 5616.97 3405.32 3349.39 2352.89 1125.26 977.867 941.414 865.169 763.337 688.56 552.815 500.618 495.33 425.533 377.939 356.992 310.828 303.642 287.195 264.159 229.947 209.321 203.114 201.493 176.802 171.718 164.622 160.36 152.857 149.752 148.954 141.617 136.761 134.952 127.493 124.483 123.515 121.453 118.902 116.684 114.056 113.527 110.811 107.585 107.339 104.785 98.9032 95.7098 95.1307 87.9083 85.5346 78.9436 73.9942 70.8924 69.514 66.9602 66.4311 66.2849
threshold=0 0.27333333333333393 1 2 5.1150000000000011 -0.56249999999999989 1.0658333333333332 1.1916666666666669 3 -0.67499999999999927 -0.74166666666666681 4 0.59833333333333416 -1.2816666666666654 1.5775000000000001 5 6 1.9525000000000003 7 8 0.19483849483849489 0.28997207847636858 0.57500000000000051 0.53907203907203916 0.019166666666666558 0.47489465982616669 0.62593283582089565 0.10840188014101058 0.69499999999999973 -0.22250000000000011 0.38371311977419192 -1.8683333333333327 0.7191666666666664 0.14438717067583048 0.1180340557275542 2.5000000000000004 2.5000000000000004 -1.2933333333333346 -0.075833333333333627 0.16160251404326961 2.1850000000000005 -0.16499999999999979 0.19320926657883183 0.50279477233084291 0.61000000000000087 5.9500000000000011 4.0500000000000007 0.36140776099322608 0.072077922077922088 0.30087491363664748 0.34675083880506402 0.18117204463970107 3.5000000000000004 2.5000000000000004 6.2750000000000012 8.5000000000000018 2.5000000000000004 0.40175438596491236 0.21000000000000046 0.54487848616241108 0.52724121313870886 6.3650000000000011
decision_type=1 2 1 1 2 2 2 2 1 2 2 1 2 2 2 1 1 2 1 1 10 8 2 10 2 8 8 10 2 2 8 2 2 8 10 8 8 2 2 10 2 2 8 8 2 10 10 10 8 10 8 8 8 8 10 2 8 8 8 8 10 8
left_child=4 2 5 6 9 13 11 16 19 20 31 22 23 33 21 41 28 27 37 25 42 54 36 45 34 -7 58 39 -5 -21 51 -4 -18 -2 -11 -13 -3 -15 56 -9 50 -12 -1 -25 -37 -6 -39 -38 -31 -33 -16 -24 -27 -23 -8 -45 -10 -22 -14 -55 -35 -30
right_child=1 3 10 7 12 8 14 17 38 24 15 35 26 18 40 -17 32 -19 -20 29 57 53 30 43 -26 52 -28 -29 61 48 -32 49 -34 60 -36 44 47 46 -40 -41 -42 -43 -44 55 -46 -47 -48 -49 -50 -51 -52 -53 -54 59 -56 -57 -58 -59 -60 -61 -62 -63
leaf_value=-0.012073605218263908 -0.05492848346304148 0.026113825842964396 -0.064870675178527806 -0.023541981737460169 0.062061006633150777 -0.0034614384542427574 0.011698147908131288 -0.009917032791725568 -0.012720074558982778 0.04038575094744587 -0.041701451170849529 0.014999047094659809 0.082475904220633264 -0.027250120488987735 0.04413828111109052 -0.051309198352957455 -0.04029027631021706 0.029693322076711479 -0.036182786013962374 -0.015629949237829534 0.02899523785915702 0.050868017187307484 0.014385960445135302 0.065107126213152414 0.063410395802204353 0.018168500362258037 0.09420339125271103 0.016480783406429451 -0.013514195767257929 -0.013118069018710819 0.034964763738329012 -0.060182792742811034 -0.02644502285066774 -0.044647664159831298 0.058001313368340114 -0.0076130702981352565 0.0047391235816285609 -0.011630957906430794 -0.014889997464060915 0.0086013790966519236 0.065843751025090852 -0.032314010540043389 0.016486187773657183 0.074241173348849512 0.004742222019327687 -0.056313212941965722 -0.02429629611231094 0.016760388093268946 -0.00030771394079452392 -0.051046578857818471 0.058563412053488119 0.025767782864966095 0.0054989191410465439 0.031861505496681299 0.029601169103013303 0.085491295417880378 -0.027259176277721887 0.04543872746069811 0.0029696954117211269 0.042862844018322646 -0.033730185773772639 0.00083052863642510118
leaf_weight=461.24019892513752 2207.1071905493736 1713.6254177540541 6721.8399986922741 4864.8034131973982 3672.2371828705072 6091.3210815191269 1355.1810408830643 2953.1864800006151 1026.3100867271423 3581.4787580668926 7656.8744462579489 1556.5139701664448 5528.9816787093878 5179.1190885454416 3030.4846840500832 12968.860174179077 4748.2483619600534 1729.1327915787697 6342.7993925958872 4910.2698158621788 1579.7984827905893 1540.3133018016815 2968.6158700734377 1504.707511946559 3083.3709020018578 2069.5340237319469 9136.2641247361898 1621.6350871622562 2651.0932401418686 2251.4553790688515 3170.7908515036106 5882.6129500567913 3436.2017262279987 2984.0277164727449 1804.770923897624 3824.4086817204952 3917.2180927842855 4340.8404839783907 5416.7197090685368 1310.068431943655 1578.3360259979963 6264.40982401371 1736.364697471261 2761.3218659162521 3651.1757788062096 20.36707529425621 2868.0179160386324 3545.9971930980682 5974.3505481481552 6727.5208760946989 1954.6996682137251 4888.6892665624619 5215.4598786383867 2766.1796740889549 1314.0864151716232 3582.3161784559488 5940.0136757940054 1120.2789971083403 27.629628553986549 2766.378093585372 2613.9283097982407 1156.6916841715574
leaf_count=2106 10680 7603 32941 22658 15596 27753 5990 13458 4780 15462 36479 6967 23131 24083 13077 62573 22576 7607 29976 22543 6928 6651 13160 6352 13113 9292 38016 7316 12164 10271 13911 28655 16093 14216 7758 17472 17583 20134 24978 5880 6720 29574 7698 11600 16445 98 13352 15780 27179 32456 8377 21626 23568 12079 5786 15014 27737 4857 122 12017 12373 5303
internal_value=-9.89071e-05 -0.0150775 -0.0311098 0.0104877 0.0686006 -0.0176089 0.0242753 -0.0151759 -0.00819004 0.0422378 -0.0502068 0.0141545 0.0820597 -0.0314215 0.0424375 -0.0441673 -0.0256019 0.0078869 -0.0262223 -0.00237254 0.024454 0.0348808 0.0199006 0.0724363 0.0525215 0.00337621 0.0896187 0.00147961 -0.0172061 -0.00822454 0.0253483 -0.0586334 -0.0344353 -0.0438986 0.0462882 0.00127685 0.0133756 -0.0210762 -0.0206269 -0.00422645 0.0536538 -0.0374503 0.010492 0.077625 -0.00157858 0.0614081 -0.0166698 0.0104508 -0.00381399 -0.0553086 0.0497944 0.0214675 0.00909812 0.0403036 0.0205118 0.0805942 -0.0251172 0.0358177 0.0820806 0.0373624 -0.0395498 -0.0091567
internal_weight=221268 181667 111653 70013.8 39601.1 65431.3 45542.7 24471.1 38895.4 13367.3 46222.1 29237 26233.8 26535.8 16305.7 26890.1 16857 7614.02 18730.8 26512.4 4897.68 9742.14 20204.9 11540.9 8469.62 13376.3 14692.9 5884.89 8672.59 13136.1 11028.1 19332 8184.45 7805.06 5386.25 9032.1 9176.84 12388 12383 4263.25 6563.52 13921.3 2197.6 7848.35 7475.58 3692.6 7208.86 7463.22 8225.81 12610.1 4985.18 7857.31 7284.99 7072.87 2669.27 6343.64 6966.32 2700.08 5556.61 5532.56 5597.96 3807.78
internal_count=1007743 839892 525593 314299 167851 302915 201244 113055 178101 57922 222678 130547 109929 124814 70697 128626 78794 34261 87545 120606 21589 42523 89663 48660 36333 60613 61269 26654 40125 59993 48697 94052 38669 37269 23220 40884 40966 57569 57495 19338 28174 66053 9804 32966 33917 15694 33486 33363 37450 61111 21454 34786 32860 30747 11776 26614 32517 11785 23253 24096 26589 17467
cat_boundaries=0 1 2 3 4 5 6 7 8 9
cat_threshold=2 28 28 12 12 32 32 12 4
is_linear=0
shrinkage=0.05


Tree=4
num_leaves=63
num_cat=8
split_feature=2 42 2 2 6 42 42 42 2 42 42 27 43 42 2 28 42 42 42 13 21 27 27 2 42 2 37 42 42 37 42 42 37 26 23 42 42 32 37 15 13 42 23 29 38 27 44 0 15 14 33 21 15 44 42 27 21 37 20 38 27 42
split_gain=81061 27744.2 10629.9 9219.02 4991.87 3287.96 3044.62 2219.39 1093.34 872.654 852.1 816.888 684.121 594.861 502.712 502.289 472.668 467.749 444.463 393.269 338.602 337.431 269.46 211.147 205.226 189.747 184.361 177.006 146.903 136.287 136.058 135.913 133.913 129.785 127.594 114.861 111.602 111.274 110.278 107.625 106.183 101.582 101.076 97.9385 96.5925 96.2837 94.0181 90.7927 90.6748 89.4028 87.4159 81.3178 78.8824 78.3486 77.946 77.2212 75.7772 75.3367 75.2735 73.9646 73.621 73.4058
threshold=0 0.24416666666666667 1 2 5.1150000000000011 0.98333333333333373 -0.71416666666666695 1.0658333333333332 3 -0.86249999999999993 -0.35166666666666629 0.33291770315091218 1.5000000000000002 1.6083333333333341 4 0.30595525649873484 1.8041666666666669 -1.4633333333333325 -0.26166666666666644 0.094913609904832316 0.53907203907203916 0.28997207847636858 0.31178764501913608 5 -1.3474999999999999 6 2.5000000000000004 0.5633333333333338 0.61000000000000087 2.5000000000000004 0.57500000000000051 -0.26166666666666644 3.5000000000000004 0.46819742312600343 0.059262510974539072 -0.20333333333333267 -2.1808333333333323 52.500000000000007 2.5000000000000004 0.14438717067583048 0.12520096463022509 0.63500000000000012 0.089087301587301604 0.27755989945128845 0.055000000000000167 0.27647718697462942 0.71166666666666256 7 1.0000000180025095e-35 0.24619250096637035 6.3650000000000011 0.10566188197767147 0.43276082362769674 3.9850000000000017 2.1850000000000005 0.15465856141796322 0.077677224736048281 3.5000000000000004 1.5000000000000002 0.050000000000000273 0.68187391680528886 -0.14666666666666603
decision_type=1 2 1 1 2 2 2 2 1 2 2 10 2 2 1 8 2 2 2 10 10 8 8 1 2 1 8 2 2 8 2 2 8 8 10 2 2 8 8 8 10 2 10 10 8 8 2 1 8 8 10 8 10 2 2 10 10 8 2 8 8 2
left_child=4 2 6 5 10 11 17 15 18 36 19 27 60 21 31 41 25 39 32 24 48 -7 -19 42 -1 50 -13 53 -17 -10 52 -11 -8 -22 -12 -31 -4 -23 -15 -2 57 -5 -20 -36 -35 -29 -34 -26 58 -25 -9 -18 -28 -3 -40 -38 -27 -24 -14 -44 -6 -16
right_child=1 3 9 7 12 13 8 16 29 14 34 26 20 38 61 28 51 22 23 -21 33 37 40 49 47 56 30 45 -30 35 -32 -33 46 44 43 -37 55 -39 54 -41 -42 -43 59 -45 -46 -47 -48 -49 -50 -51 -52 -53 -54 -55 -56 -57 -58 -59 -60 -61 -62 -63
leaf_value=-0.001384416211188467 -0.054643860812387174 -0.0057053928327178644 -0.06428362743872694 -0.040626857325311259 0.078532615531552719 0.019182217869897 -0.0024723527196060984 -0.0015476994545872787 -0.0094820602758056115 -0.041977051344566051 0.045193074809032209 0.031234262825621303 0.075920763410606329 0.063459011353450043 -0.053751436312514389 -0.023932236652290662 0.015750496667530926 -0.037004529137184231 -0.00022130363551400484 0.041819924235294507 0.061201773608586363 0.030962582032264874 -0.017411486195170675 -0.014742268414243016 0.014940364686413488 -0.015274469177471035 -0.0011313348631345709 0.0025877573386604296 -0.010589717404768955 -0.02845737859244532 0.022743558668011764 -0.032325466059447132 -0.018779796361903477 0.084296586907307236 0.067540579381531296 -0.018486670210573028 -0.058881550124533694 0.042268466132277832 0.044096618118996227 -0.040102739503965146 -0.013585931422927966 -0.028976618087010034 0.020941568380687468 0.050303014210195188 0.073918030879976615 0.014515624004545168 -0.0084566026139604837 0.031650932842361618 0.060648287754579679 -0.0018943368906195674 0.01469334783355662 0.034178386854082296 0.014511037726584235 0.0065389122791382447 0.058752444149789119 -0.050441492247821684 0.0013049431959775101 -0.029052371014406317 -0.069742509513888773 0.0074443222282506473 0.089301397939147681 -0.046144282070336357
leaf_weight=982.77742755413055 2025.2770088911057 5105.5092121511698 5247.3747879266739 4262.4793986231089 1983.8244895786047 3417.4730575531721 3133.6527698785067 1717.8735379576683 2070.2140479236841 7431.762412622571 2501.1260081082582 2934.0485716462135 13.964331015944479 1464.0737153589725 8318.2324319630861 4427.5449994504452 1449.5487209260464 5768.4445054084063 3274.4845670461655 3175.9578058719635 1412.8931591063738 3686.4513377994299 1847.9418603628874 1703.2300131917 1506.9021098315716 2425.2832969129086 950.83369651436806 3238.7203989028931 3862.8184292763472 5709.0840172171593 5845.3095098137856 7163.5019677579403 5273.9475492537022 3365.4525853395462 1911.2662085294724 5846.265176281333 6668.6394576579332 5312.7162145078182 3601.6490290313959 3423.5301092863083 2163.9783650040627 3334.9779629707336 1373.5689093917608 1448.5640866011381 6715.0046159178019 3542.3567920178175 3790.9847263544798 1952.6599735170603 5231.3622422069311 6604.0529320240021 1600.3643980920315 1019.836683049798 5289.7770072072744 1755.7785047143698 1212.6857400685549 4565.4947903007269 962.78663903474808 5607.0075114220381 24.30759584903717 3888.4091631770134 7936.7000555843115 5125.0942745506763
leaf_count=4399 10038 23184 26503 20598 8143 15023 14335 7764 9656 36126 10579 12834 59 6191 41133 20872 6377 27717 14818 13587 5873 15934 8690 7824 6570 11211 4248 14573 17899 27069 25597 34295 24435 13875 8039 27231 33354 22860 15303 16555 10089 15842 6144 6111 27706 15754 17477 8506 21836 30088 7195 4466 23522 7966 5086 22543 4424 26490 120 17546 32476 25210
internal_value=-3.74916e-05 -0.0143372 -0.0303909 0.00960686 0.0641964 0.0225822 -0.0172489 -0.0149129 -0.00960105 -0.049122 0.0394109 0.0119468 0.076741 0.0388998 -0.043766 -0.026226 0.00465958 -0.0329183 -0.00411269 0.0283844 0.070582 0.0325577 -0.0284604 0.00114979 0.018779 -0.00222665 0.0199914 0.00308982 -0.0177154 -0.0212806 0.017262 -0.0372145 -0.0113825 0.0753938 0.0537436 -0.0234128 -0.0582635 0.0376371 0.0514426 -0.0455076 -0.0233365 -0.0355129 0.00666786 0.0601087 0.077383 0.00881874 -0.0144626 0.0245069 0.0600873 -0.00452308 0.00626637 0.0233611 0.0121277 -0.00257212 0.0477883 -0.0554516 -0.010532 -0.0261668 -0.0165941 0.0109676 0.0871479 -0.0508135
internal_weight=220608 180445 108024 72420.9 40162.8 47357.4 63504.1 25063.5 42667.9 44520.1 13479.3 28662.3 26683.5 18695 28038.6 15887.8 9175.69 20836.2 29042.3 7618.3 16763 12416.6 15387.4 16843.7 4442.34 6706.31 15020 13642.4 8290.36 13625.6 12085.9 14595.3 12198.6 11493.4 5860.96 11555.3 16481.5 8999.17 6278.41 5448.81 9618.93 7597.46 8536.46 3359.83 10080.5 6781.08 9064.93 3459.56 5269.63 8307.28 3318.24 2469.39 6240.61 6861.29 4814.33 11234.1 3388.07 7454.95 38.2719 5261.98 9920.52 13443.3
internal_count=1007968 840089 515366 324723 167879 208075 296202 116648 196623 219164 57791 127678 110088 80397 136764 75211 41437 99579 132667 33062 69469 53817 72986 76420 19475 30594 66201 61477 38771 63956 53367 70421 56247 47454 24729 54300 82400 38794 26580 26593 45269 36440 38508 14150 41581 30327 41912 15076 22015 37912 14959 10843 27770 31150 20389 55897 15635 35180 179 23690 40619 66343
cat_boundaries=0 1 2 3 4 5 6 7 8
cat_threshold=2 28 28 12 32 4 32 3164382
is_linear=0
shrinkage=0.05


Tree=5
num_leaves=63
num_cat=5
split_feature=2 34 43 43 14 2 27 2 28 43 43 43 14 43 14 43 43 27 43 14 27 43 43 28 27 15 26 27 1 33 37 26 35 27 38 2 43 1 32 27 0 43 43 33 6 38 41 43 44 8 33 23 38 37 37 27 1 26 44 27 44 14
split_gain=72687 24957.6 8634.4 5091.43 4458.89 2744.29 2000.32 1972.4 1608.92 1082.58 904.689 702.649 651.831 651.331 473.986 409.223 402.785 372.248 346.057 339.805 324.333 275.36 274.896 238.393 219.828 215.226 205.728 205.248 179.296 174.789 165.122 156.73 150.305 149.595 146.899 139.391 132.605 132.415 131.528 128.741 126.318 126.02 124.578 120.256 110.136 109.766 106.231 103.58 102.854 99.3372 98.8201 98.5155 94.8596 92.9797 91.4549 89.1071 88.2303 83.3769 82.7026 80.9079 80.0012 77.8469
threshold=0 23.550000000000004 2.5000000000000004 3.5000000000000004 0.30528644620400563 1 0.28195231740134091 2 0.37044436438715711 1.5000000000000002 3.5000000000000004 1.5000000000000002 0.20037878787878791 2.5000000000000004 0.08896499238964993 1.5000000000000002 5.5000000000000009 0.21267164718451484 2.5000000000000004 0.28242507774950526 0.34192686024872249 2.5000000000000004 3.5000000000000004 0.2983485159651979 0.18993822609155964 0.19320926657883183 0.069794896867211201 0.15011601177882936 9.5000000000000018 5.9350000000000014 2.5000000000000004 0.50944593976943786 1.8500000000000003 0.30009235382002014 0.044999999999999936 3 4.5000000000000009 9.5000000000000018 54.500000000000007 0.37730189803824854 4 1.5000000000000002 4.5000000000000009 6.455000000000001 2.1050000000000004 0.034999999999999705 2.5000000000000004 2.5000000000000004 0.51666666666666761 5.6950000000000012 6.1950000000000012 1.0000000180025095e-35 0.010000000000000233 2.5000000000000004 3.5000000000000004 0.36140776099322608 9.5000000000000018 0.048081014729950904 -0.19166666666666818 0.12711527909898737 0.45416666666666577 0.24173220144784127
decision_type=1 10 2 2 10 1 8 1 8 2 2 2 8 2 8 2 2 8 2 8 10 2 2 8 10 10 10 10 2 10 8 8 8 10 8 1 2 2 10 10 1 2 2 8 2 8 2 2 2 2 10 10 8 8 8 8 2 10 2 10 2 10
left_child=4 3 6 8 12 14 15 10 9 32 34 28 25 29 -5 24 23 57 41 48 36 -14 -19 -7 56 -1 -17 47 38 -6 -13 -15 -2 -20 -4 54 -16 50 -8 58 -23 -10 -27 59 -18 -28 -30 -11 -12 -33 -26 -42 -22 -24 -21 -36 -3 -9 -32 -34 -38 -54
right_child=1 2 7 5 13 16 11 17 18 27 19 30 21 31 20 26 44 22 33 35 52 40 53 -25 37 42 45 -29 46 -31 39 49 43 -35 55 -37 60 -39 -40 -41 51 -43 -44 -45 -46 -47 -48 -49 -50 -51 -52 -53 61 -55 -56 -57 -58 -59 -60 -61 -62 -63
leaf_value=-0.0068422905784831988 0.032075942071993366 0.0088208938981653023 0.020332920229637879 -0.045954237494635286 0.070084277893138175 -0.051666012341898084 0.035791783012156693 -0.040821244850414516 0.019119590924361191 -0.030653381078510369 -0.019787104327486222 0.03342423070522927 0.066595615723180276 0.049960995752335279 -0.022860029014109405 -0.013446969746459023 -0.063517340550478293 -0.0066734092068142228 -0.01738818264119852 0.012175095024509778 0.0004573955975295691 0.031213132084170266 -0.0099134351603484341 -0.040466048432807822 0.012318550592337168 0.038284292619516963 0.022936115693713247 -0.023235921233920029 0.037418009430950201 0.081253267916544802 0.010086437927443098 0.059102996877604785 -0.022104697696127173 -0.0006568578951652406 0.0015238610459880151 -0.0080313055518903519 -0.037404683176977239 0.0065361771846150791 0.0475313296407976 0.027301136944583915 0.037498410051487116 0.0029177342119154235 0.018991138487342695 -0.00046986075495278595 -0.054010677370965425 0.00096025801268816201 0.019433293271478025 -0.04087842172320208 -0.0092827966085614871 0.070633566025185168 0.031045905315894313 0.05087232642426015 -0.022071057880578105 -0.025890491513834036 -0.0011192419850359567 0.011646966746000291 -0.011424636899834757 -0.02859668141281348 0.020944209941178543 -0.0065061149238555653 -0.028217067017601606 -0.0091517769691619368
leaf_weight=593.88449490070343 237.75298278033733 2676.6184969097376 2457.0598274022341 3325.8256084620953 4903.2054091542959 9069.7728755176067 4473.248048633337 2224.0146752595901 1841.8093310594559 4812.3182093203068 5239.0442736744881 2586.8575130701065 1233.2039202004671 2158.2657417804003 4494.012795701623 2526.6610769480467 4341.6916235685349 3758.1165115982294 2822.1710319966078 1792.5953547358513 726.88788394629955 2463.9334807544947 1075.8853171765804 9978.219130858779 955.97446100413799 1269.5802153199911 692.8059508651495 4706.0880721658468 1659.0778385996819 12265.457891270518 3555.7968189269304 3503.704277575016 1766.8846717178822 2536.9076016694307 4433.0970785915852 5949.6958776563406 5266.6145423799753 1132.4176250398159 5113.1636002808809 3395.9500423967838 2297.4232003390789 3445.2424330711365 2454.0012558102608 2630.8686319291592 10213.2825550735 3159.7714491188526 1625.5714080482721 5103.2674276232719 4197.4334037452936 4000.7682304680347 2676.999905705452 3436.9348589032888 4424.7343496233225 5927.9548032879829 4647.6704038828611 4265.4354767948389 673.56931331753731 3741.1147882342339 3460.6564409434795 1569.9583819210529 4307.0014160573483 1583.2339550405741
leaf_count=2697 1076 12067 10876 16586 19965 45923 19117 10996 8076 23244 24585 11195 5081 8919 21088 11862 22572 17339 13162 8069 3370 10413 5081 49311 4207 5352 3089 22364 7120 49700 15655 14447 8292 11456 19967 27399 25405 5024 21644 14755 9715 15490 10679 12018 52079 14282 7026 25261 19626 16393 11605 14464 20895 28385 21195 18957 3106 18233 15223 7210 20744 7325
internal_value=-7.85736e-05 -0.0137572 0.00480731 -0.0325042 0.0603402 -0.041324 0.0219864 -0.00914258 -0.0163259 -0.0244085 -0.00204523 0.0303179 0.0372018 0.0722192 -0.0284159 0.00711642 -0.0505691 -0.0231219 -0.000513977 -0.00796605 -0.0256256 0.0445677 -0.0175826 -0.045799 0.0145649 0.0211109 -0.00235944 -0.0318348 0.038599 0.0780635 0.0221184 0.0618352 -0.00691016 -0.00946782 0.00953728 -0.00252148 -0.0299454 0.0214647 0.0420534 0.0193096 0.0412542 0.00856185 0.0255693 -0.00846337 -0.0568465 0.00491216 0.0285174 -0.0359159 -0.0151147 0.0652501 0.026118 0.0454349 -0.0166025 -0.0234362 0.00257713 0.00648785 0.00475045 -0.0331544 0.0154417 -0.0147657 -0.0332713 -0.0186665
internal_weight=219859 179279 90074.3 89204.5 40580.4 57731.3 40365.1 49709.1 31473.3 20827.1 32982 25870.3 13749 26831.4 24128.3 14494.8 33603 16727.1 10646.1 21826.4 20802.5 9431.5 10762 19048 8115.58 4317.47 6379.24 14621.7 12871.1 17168.7 12999.3 9662.74 6205.46 5359.08 11155.6 12390 14067.6 4765.39 9586.41 10412.4 8198.29 5287.05 3723.58 5967.71 14555 3852.58 3284.65 9915.59 9436.48 7504.47 3632.97 5734.36 6734.86 7003.84 6440.27 8698.53 3350.19 5965.13 7016.45 3336.84 9573.62 6007.97
internal_count=1008457 840632 407685 432947 167825 285298 176977 230708 147649 99465 150674 111735 58401 109424 115413 65242 169885 80034 48184 100874 98827 39673 50805 95234 36009 18728 29233 70869 54907 69665 56828 39759 28596 24618 49800 56663 67237 20836 40761 45633 34592 23566 16031 27520 74651 17371 14146 48505 44211 30840 15812 24179 31590 33466 29264 38924 15173 29229 30878 15502 46149 28220
cat_boundaries=0 1 2 3 4 5
cat_threshold=2 28 12 4 2114590
is_linear=0
shrinkage=0.05


Tree=6
num_leaves=63
num_cat=4
split_feature=21 34 21 42 42 2 27 26 42 27 42 28 42 42 42 42 42 27 2 42 42 42 28 42 42 13 42 27 2 28 27 27 42 27 26 42 27 27 33 28 28 28 44 2 27 27 44 44 24 42 42 42 42 42 27 37 37 24 28 24 28 37
split_gain=65830.6 17387.9 9431.4 5903.93 4452.05 2449.75 1943.46 1405.12 1295.27 1237.59 1216.08 1721.98 1168.89 941.905 665.967 642.713 559.204 550.064 434.423 427.913 425.287 392.991 390.592 321.645 285.892 247.794 238.206 230.669 228.682 226.904 217.773 208.499 206.167 199.206 190.892 180.589 179.878 172.245 171.516 168.784 161.512 157.769 133.377 116.71 108.88 107.353 107.266 105.487 97.022 85.6133 85.3563 83.7281 82.4232 81.0592 80.214 79.5962 78.8229 77.9349 77.7986 77.133 74.4904 73.2109
threshold=0.20169491525423733 22.350000000000005 0.41763565891472876 0.47000000000000003 -0.058333333333333341 0 0.28997207847636858 0.059154321438127912 1.0166666666666671 0.27085819411296747 0.98333333333333373 0.6024233663107913 0.38583333333333331 -0.22250000000000011 1.3158333333333332 -0.98166666666666702 1.3383333333333334 0.42433615674056929 1 0.15416666666666681 0.73000000000000098 -1.0008333333333332 0.65138888888888902 -0.60999999999999999 -0.31083333333333346 0.16330595983413287 -0.86249999999999993 0.33654620339402957 2 0.30595525649873484 0.18993822609155964 0.12263292427245015 1.8491666666666668 0.28195231740134091 0.099754198067418823 1.6816666666666673 0.35538548822626587 0.37730189803824854 6.2250000000000005 0.52562030643193702 0.55664720957258751 0.4796518273944344 1.8783333333333323 3 0.14354649064599126 0.667799556469311 0.51666666666666761 -0.1283333333333356 3.683333333333334 -2.3058333333333323 0.57500000000000051 -0.092500000000000235 0.52833333333333365 -0.45833333333333365 0.1945035134175235 3.5000000000000004 2.5000000000000004 5.9500000000000011 0.45923426055789313 5.2361111111111116 0.65138888888888902 2.5000000000000004
decision_type=10 10 10 2 2 1 8 8 2 8 2 10 2 2 2 2 2 8 1 2 2 2 10 2 2 10 2 8 1 10 10 10 2 10 10 2 8 8 8 8 10 10 2 1 10 8 2 2 8 2 2 2 2 2 10 8 8 10 10 8 10 8
left_child=1 4 10 6 5 21 24 8 31 16 11 19 17 18 37 39 30 -4 -8 41 33 59 -14 -13 54 53 -20 56 55 -23 -5 50 -10 -9 -21 40 47 42 -24 49 -12 -2 -11 57 -18 -27 -28 -15 -45 -7 -6 -25 -33 -19 -3 -26 -17 -38 -22 -1 -29 -36
right_child=2 3 12 9 7 15 13 20 32 14 35 23 22 36 -16 27 44 25 26 34 58 29 38 51 28 45 46 60 -30 -31 -32 52 -34 -35 61 -37 43 -39 -40 -41 -42 -43 -44 48 -46 -47 -48 -49 -50 -51 -52 -53 -54 -55 -56 -57 -58 -59 -60 -61 -62 -63
leaf_value=-0.054610427111939967 -0.020902929563632575 -0.040956487375496807 -0.01175005974556338 -0.012589579275625196 -0.043409829879031359 -0.058021656874496619 0.014971499129478767 -0.016851768409746521 -0.008996417746298389 0.012454482358186036 0.028662606861983631 0.021540652259576076 0.031588514928084677 -0.0059910555495609474 0.042758322925749437 -0.014429233621536875 0.0044313197468160417 0.03690036485388079 -0.024084624755097421 -0.0027822231468628529 0.004017290010101455 -0.051067869161646642 0.068067232575875589 0.035530738824442264 -0.001946192654925115 0.046331106957603549 -0.014674467830208107 -0.013633247268669536 -0.027898336416792874 -0.03977188707431914 0.0048088818226689548 -0.031496656168913499 0.017030701454883772 -0.0017836934113388174 0.029107068662510151 0.051569522658762662 0.038466396511139471 0.029373888800617028 0.077857171546139067 -0.030534196121684176 0.047501456343632641 -4.1056380822822863e-05 0.025102075793640911 0.013518319981031418 0.025430074933047789 0.06306142340370384 -0.0043424682557367906 0.0059039633629191339 0.0020459951060199772 -0.041497669169642738 -0.031740508214355173 0.047882795169264761 -0.01995004556083298 0.05018972024196601 -0.0288646990550686 -0.015907230212555686 -0.028408848671822376 -0.057069397078075214 0.019413970717899052 -0.062986524579275435 0.01729700413587227 0.015208958145064714
leaf_weight=8893.2080928981304 1164.6476407498121 2105.2362860590219 327.72799082100391 3206.9925677478313 4942.1390160769224 961.98778840899467 1387.407242551446 4847.0647827535868 4010.811279296875 5863.8976545482874 3112.4434484988451 2735.2868673801422 576.56880740821362 3749.3954150676727 4663.13317450881 1184.7108734846115 782.16056257486343 1765.37817928195 4331.293787419796 1354.8172015845776 1817.7172706872225 9418.0109101831913 8221.5398472547531 2440.3736038506031 1340.8690583854914 1157.4941665828228 5653.8686607778072 4398.6826075017452 4358.0651368647814 8420.3653485924006 4095.2401170581579 4518.4645595699549 938.99365395307541 4006.5192245692015 1191.9412100613117 2742.3825894445181 487.68602572381496 4023.991652905941 9814.6823635399342 3655.6204977184534 1793.2185509502888 4084.8863588571548 3234.2137606441975 4759.4383733719587 2928.8252009749413 5586.8037813007832 4520.6313048750162 3706.2058594971895 3007.4529272317886 4233.9551453590393 2294.6412498354912 3133.5628690570593 2349.0252938270569 3278.1951902657747 3935.4585153758526 4278.7653937488794 6772.653123497963 22.324337720870972 1495.4664946198463 3977.9036501646042 203.67170439660549 4621.4705889821053
leaf_count=46749 5638 10697 1531 15038 25025 4978 6004 22884 18617 25564 13335 11768 2475 17051 19513 5633 3495 7427 20841 6215 8166 48867 33250 10224 6225 4743 26440 20628 21443 42415 18381 22285 4102 18136 5164 11415 2030 17215 39471 17823 7493 18693 14076 21178 12678 22678 20962 16800 13495 21179 11223 12949 11219 13504 19283 20089 32735 110 6476 21282 883 20320
internal_value=-4.67762e-05 -0.0167236 0.0450384 0.000498664 -0.0325202 -0.0414642 -0.0103046 -0.0175887 -0.0260648 0.0183715 0.0242532 0.0179656 0.0642317 -0.00311764 0.0265279 -0.0284334 0.00519967 0.0521447 -0.0117028 0.00617664 -0.00431444 -0.0505239 0.0720995 0.0355836 -0.0244939 0.0539211 -0.0142545 -0.0211743 -0.0192965 -0.0457358 -0.00283217 -0.0337877 -0.00405899 -0.010033 0.0141196 0.0412935 0.00555517 0.0207602 0.0733946 -0.0387657 0.035549 -0.00466942 0.0169505 0.0106294 0.0210042 0.0601901 -0.0100839 -7.79994e-05 0.0090644 -0.044557 -0.0397097 0.0424748 -0.0275471 0.0455381 -0.0330788 -0.0125537 -0.0263275 0.0336253 0.0109669 -0.0571991 -0.0122645 0.0180585
internal_weight=218888 159784 59103.4 76442.6 83341.6 52120.8 47644.1 31220.8 19054.1 28798.5 28375 20727 30728.4 31625.7 17785.2 21411.3 11013.2 12115.6 15893.2 12417.8 12166.8 30709.5 18612.8 8309.22 16018.4 11787.9 14505.8 12559.7 9977.7 17838.4 7302.23 14104.3 4949.8 8853.58 7168.23 7648.04 15732.5 13122.1 18036.2 8851.56 4905.66 5249.53 9098.11 8276.9 3710.99 6744.3 10174.5 7455.6 7766.89 5195.94 7236.78 5573.94 6867.49 5043.57 6040.69 5619.63 7957.36 510.01 3313.18 12871.1 4602.35 5813.41
internal_count=1008206 759913 248293 348608 411305 263172 222648 148133 92471 125960 123214 90971 125079 144911 76368 103859 49592 49883 74247 56030 55662 159313 75196 34941 77737 48352 68243 59879 47757 91282 33419 69752 22719 41020 31699 32243 70664 56855 72721 43980 20828 24331 39640 36813 16173 27421 47402 33851 34673 26157 36248 23173 33504 20931 29980 26314 38368 2140 14642 68031 21511 25484
cat_boundaries=0 1 2 3 4
cat_threshold=96 2 28 2
is_linear=0
shrinkage=0.05


Tree=7
num_leaves=63
num_cat=1
split_feature=21 34 21 42 42 42 27 27 27 27 28 42 42 42 42 42 27 42 27 42 42 28 42 26 27 42 33 27 28 32 27 27 42 27 42 42 27 42 28 27 28 42 27 42 26 44 42 0 27 24 42 37 6 27 44 37 42 21 18 26 37 23
split_gain=59708.8 13270.2 12012.7 4611.34 3408.66 1941.3 1855.51 1765.39 1708.46 1127.13 1117.74 1092.03 1029.81 678.332 609.254 500.823 476.735 458.57 449.589 393.991 384.409 331.544 327.013 266.713 258.593 257.629 244.96 235.972 226.173 221.846 220.004 210.808 201.391 197.219 182.02 178.242 171.755 171.062 169.84 164.141 160.072 153.566 152.208 148.105 122.416 111.737 110.35 109.085 102.032 99.0988 97.242 97.0729 95.5168 91.5009 90.8262 89.272 88.8083 85.705 85.6859 85.4883 82.7403 79.1874
threshold=0.16823899371069184 20.200000000000003 0.40175438596491236 0.38583333333333331 -0.14666666666666603 0.90500000000000014 0.23582049584894652 0.38371311977419192 0.27276527533316575 0.2520289511199002 0.34986033216842333 0.24416666666666667 1.0000000000000004 -0.36166666666666608 1.2733333333333339 1.4075 0.42433615674056929 0.15416666666666681 0.42971813780900625 -0.94666666666666599 0.7191666666666664 0.74194269721276485 -1.3474999999999999 0.4025250455373407 0.27477247421067652 -0.35166666666666629 5.955000000000001 0.1652372616228038 0.2983485159651979 51.500000000000007 0.30289288944357418 0.33654620339402957 -0.42666666666666647 0.37411583587465225 -1.0825000000000002 0.1066666666666667 0.30009235382002014 1.6816666666666673 0.49139848964371891 0.34006183773676119 0.30595525649873484 -2.0674999999999986 0.1635673927430524 2.0958333333333341 0.4025250455373407 0.51666666666666761 1.8491666666666668 0 0.60986848809953964 3.4722222222222228 0.5633333333333338 3.5000000000000004 6.7250000000000005 0.34675083880506402 2.0883333333333369 2.5000000000000004 0.84833333333333416 0.081356867071152791 1.0000000180025095e-35 0.46819742312600343 2.5000000000000004 0.100561797752809
decision_type=10 10 10 2 2 2 10 10 8 8 8 2 2 2 2 2 8 2 8 2 2 10 2 10 10 2 10 10 8 8 10 8 2 8 2 2 10 2 10 10 10 2 10 2 10 2 2 1 10 10 2 8 2 8 2 8 2 10 10 8 8 10
left_child=1 4 5 8 6 7 22 17 27 15 12 16 40 23 31 42 -4 38 -13 41 36 35 -1 34 46 -23 -20 -3 -24 47 52 54 -29 45 -10 -9 -12 48 -2 -21 50 -8 -5 57 -43 -15 -7 -18 -26 -33 -6 -36 -19 -16 -11 -34 -44 -14 -51 -28 -40 -49
right_child=2 3 11 9 10 24 19 21 13 14 20 18 43 33 53 -17 29 30 26 39 -22 25 28 -25 37 -27 59 32 -30 -31 -32 49 55 -35 51 -37 -38 -39 60 -41 -42 44 56 -45 -46 -47 -48 61 -50 58 -52 -53 -54 -55 -56 -57 -58 -59 -60 -61 -62 -63
leaf_value=-0.05751363657155132 -0.019606012981584792 -0.038947357518170973 -0.015168875533543636 -0.018623446034293639 -0.041214789742893318 0.016641058131687526 -0.050321533680108846 0.0082238580879567726 -0.027735548250882494 0.0041446070582105135 -0.01837638072751208 0.027449157864080666 -0.013513110330700545 -0.0077560474078836985 0.030729542690499739 0.017364881603209252 0.030424306389061535 0.0042160785706374972 0.060883147882041778 -0.026412756782707561 0.0079443513754576065 0.023979115699447121 -0.051665889676446808 0.012130490969758252 0.034014726710345659 0.04352401499209578 0.061147425678273415 -0.03315754962759937 -0.040760959715956113 0.058820745079685238 0.01454111746291558 0.025747222760293082 -0.0055108960584756969 0.0085020289235229057 -0.0045838328024108109 0.025611551925708045 -0.00396186277537138 0.050611587128652082 0.010617678443098924 -0.012105335482571138 -0.026098196990503114 -0.034598128395609176 -0.0092340172112805041 0.021953730018857198 0.002551933433716702 0.002588689735429492 0.038561815024020132 0.040550899793001548 0.060678070780654826 -0.07481035484895103 -0.030185137764485278 -0.016157849366456766 -0.014790719587679128 0.045560366440745813 0.016592997097776507 -0.021207375657097471 0.0048550941771094511 0.0044681010246070381 0.014766262179472118 0.07376410853323033 -0.0063766871909253153 0.052986418305793308
leaf_weight=9081.8009564578533 2383.1140590310097 3402.5012255460024 298.46205069124699 2320.2334249168634 6960.5848595052958 2049.1836379766464 1662.4287800788879 2900.0001803934574 2798.1513564735651 4239.3240363299847 5716.8220227062702 700.46756674349308 3133.4012617468834 6034.4083825349808 2744.7679498791695 2657.3334276676178 1444.7298404425383 1846.5723521411419 7344.9726828485727 5854.9662356823683 2840.7636790424585 3541.7165893465281 9126.0252526849508 869.73470053076744 6027.1442485749722 3217.952054515481 1519.373648032546 3756.6998819559813 9926.9248085319996 3651.712583899498 5383.8687945604324 4271.8633770346642 1070.947747156024 5331.300564661622 2420.2089337706566 2997.174185782671 3236.5460143089294 2697.1713307052851 875.64440701901913 3048.3300902545452 3930.3746433854103 6133.7841524481773 2474.9678194522858 407.13563771545887 230.06414054334164 4600.353964805603 797.57538263499737 2445.8115551769733 381.50779692828655 26.932213693857193 2803.0985475033522 7204.5613099634647 1029.5338736027479 1674.4646937400103 2239.2911571115255 5875.5560034960508 2040.6962759494781 840.43090209364891 3054.8113623857498 11541.907998293638 3933.9107831716537 2686.1269222795963
leaf_count=49627 11643 17454 1408 11076 35988 8981 8688 12903 13770 18736 27330 2998 14604 27708 11497 11615 5958 8489 29595 28555 12590 15056 48818 3769 25364 13198 6106 18918 51323 14738 23570 18310 5108 23783 11337 12885 14689 11065 3976 14335 19293 30821 11534 1759 1044 20988 3350 10087 1542 124 13886 34272 4762 6937 9857 28422 9175 3851 13156 46244 18149 10984
internal_value=-0.000125922 -0.0184714 0.0372434 -0.00299943 -0.0331537 0.0190568 -0.0418357 0.0118796 -0.013184 0.0129189 -0.020055 0.0602756 -0.027868 -0.00629315 0.0201871 -0.00105471 0.0471211 0.000539315 0.0668364 -0.0287564 -0.00808107 0.025725 -0.0497059 -0.0146368 0.0359358 0.0332835 0.0681884 -0.0274774 -0.0459842 0.0489387 0.00857693 0.0150235 -0.0238312 0.000653424 -0.0165108 0.017061 -0.0131657 0.0400479 -0.00869098 -0.0215142 -0.0346184 -0.0367899 -0.008215 -0.00676762 -0.0332551 -0.00328115 0.0227826 0.0434517 0.035602 0.0208173 -0.0380482 -0.0132475 -0.00258761 0.036349 0.00844731 -0.0187874 -0.00286694 -0.00971024 0.0139834 0.0722965 -0.00328263 0.0469683
internal_weight=217738 146043 71695.6 71109.1 74933.5 40062.1 45064.3 28109.5 43364.4 27744.7 29869.2 31633.6 18075 29258.7 18251.5 9493.23 10526.8 15452.6 21106.7 16929.6 11794.1 12656.8 28134.8 13292.7 11952.6 6759.67 20406.3 14105.7 19053 10228.4 8259.98 13832.2 10703.2 15966.1 12422.9 5897.17 8953.37 9105.82 7192.67 8903.3 13694.1 8026.28 6835.9 4380.97 6363.85 10634.8 2846.76 6576.67 6408.65 7353.61 9763.68 9624.77 2876.11 4419.23 6478.62 6946.5 4515.66 3973.83 3081.74 13061.3 4809.56 5131.94
internal_count=1007798 704747 303051 327546 377201 174933 233211 124631 205529 122017 143990 128118 89381 135627 78617 43400 43175 70589 84943 83443 54609 54042 149768 63148 50302 28254 81945 69902 100141 41767 36821 60183 52448 72479 59379 25788 42019 37971 33768 42890 69167 40553 31785 20214 31865 48696 12331 27029 26906 31590 49874 45609 13251 18434 28593 33530 20709 18455 13280 52350 22125 21071
cat_boundaries=0 1
cat_threshold=16414
is_linear=0
shrinkage=0.05


Tree=8
num_leaves=63
num_cat=5
split_feature=34 21 42 2 2 42 42 2 42 42 42 27 42 42 26 27 42 27 2 28 27 27 26 42 21 37 42 42 27 42 42 26 27 21 42 38 27 42 42 27 24 27 26 2 27 44 24 43 24 37 27 37 44 34 37 27 24 28 28 24 38 42
split_gain=53827.1 13583 9625.77 5831.62 3446.07 2582.38 1733.14 1669.94 1279.21 1009.31 1002.36 681.72 628.26 608.25 460.914 445.797 430.526 395.421 347.497 336.095 311.612 301.009 296.873 272.459 267.485 248.904 243.666 230.675 205.499 176.296 164.058 153.898 151.761 151.097 149.887 131.119 124.41 123.835 120.972 118.775 115.003 111.465 110.769 110.145 103.119 101.436 97.4266 97.2809 95.5446 84.2575 83.5058 80.2691 80.0508 79.2281 78.3049 76.8594 75.7321 73.3588 72.076 71.9981 68.1741 67.6903
threshold=39.150000000000013 0.38529014844804327 0.096666666666667136 0 1 0.64666666666666683 1.1916666666666669 2 -0.94666666666666599 0.34500000000000003 1.0000000000000004 0.36140776099322608 -0.033333333333332764 -0.86249999999999993 0.4025250455373407 0.15011601177882936 1.4075 0.33053652164390424 3 0.65138888888888902 0.28997207847636858 0.34192686024872249 0.4577882902092239 2.0166666666666675 0.52041666666666686 2.5000000000000004 -0.63499999999999945 -1.6008333333333329 0.2970822519704342 -0.38250000000000023 0.63500000000000012 0.4577882902092239 0.31178764501913608 0.62593283582089565 1.9525000000000003 0.044999999999999936 0.42971813780900625 0.68333333333333302 -0.84666666666666635 0.60451797770450633 5.1833333333333345 0.13834388423220714 0.47885053622066076 4 0.2970822519704342 1.8050000000000053 3.683333333333334 2.5000000000000004 3.683333333333334 3.5000000000000004 0.31377617836029126 3.5000000000000004 2.0183333333333366 68.15000000000002 2.5000000000000004 0.34559418604977693 3.7888888888888892 0.37354123718961901 0.30087491363664748 5.9500000000000011 0.010000000000000233 1.488333333333334
decision_type=10 10 2 1 1 2 2 1 2 2 2 10 2 2 10 10 2 8 1 10 8 8 8 2 10 8 2 2 8 2 2 8 8 10 2 8 10 2 2 10 8 10 8 1 8 2 10 2 10 8 10 8 2 10 8 8 10 10 10 10 8 2
left_child=2 5 3 13 6 7 15 26 14 24 17 25 28 40 27 30 21 35 51 48 -14 57 53 41 39 -10 -2 -5 -9 50 -4 54 -18 -24 55 -6 52 -17 -30 -3 58 -8 -26 -22 -29 -31 -44 -37 -13 -40 -27 -15 -19 -11 -23 -12 -41 -7 -1 -28 -46 -35
right_child=1 9 4 8 10 16 23 12 11 22 34 19 20 18 -16 37 32 36 -20 -21 43 31 33 -25 42 29 59 44 38 45 -32 -33 -34 61 -36 47 -38 -39 49 56 -42 -43 46 -45 60 -47 -48 -49 -50 -51 -52 -53 -54 -55 -56 -57 -58 -59 -60 -61 -62 -63
leaf_value=-0.05481226446767315 0.016521674707950785 0.0047166287117487672 -0.035351520400298347 -0.04428569238664453 0.0081060919632638864 -0.0015594631486769474 -0.0061071266515433879 -0.022162958493514726 -0.0052340115426751429 0.034573394624216519 0.019454502653399534 0.0011193894420792184 -0.0073944645908241447 -0.025860754203738824 0.0012290196890593721 -0.019511111935062653 0.029313713193033428 0.0062922108091763452 -0.046697960213009447 0.021884083544518415 0.0054111596617246877 0.039449136868278639 0.060663341959810414 0.026134989547429995 0.037887485468192851 -0.029184188363954661 0.037199358751938354 -0.036930080616496525 -0.019282100216574255 -0.019012633736766708 -0.02294053949467758 0.056435163590143868 0.044966515229034637 0.067918252159068201 0.045662911340049468 -0.00014614060269624586 0.034147937145204164 -0.0068628524268897753 0.0063186771331683739 0.044710629394411908 -0.060202570973710914 0.0080575948433495859 0.058889621032044898 0.015687771263066329 -0.0082069397018549994 -0.0080366713328294762 0.045165017830943066 -0.010730302561361212 -0.0099012506207666121 -0.0058837970265665012 -0.019482811605562707 -0.036086113345700131 0.016353420921161106 0.05390488865022134 0.025990741156322807 0.031865959222804045 0.03221284802260823 0.017474793253801246 -0.046504316585083312 -0.043548057675291386 -0.027187562893373714 0.077207601264019501
leaf_weight=4948.354162812233 2409.2303425967693 266.78633964061737 6544.0577926784754 3791.4334543198347 2205.1068089902401 562.54967138171196 2882.4984689950943 2234.720140337944 3372.5746014416218 755.75236713886261 4363.1656833738089 3323.4081846177578 2779.9346525222063 2453.2214638292789 1002.3260622918606 5495.231639534235 2335.3782235085964 5665.7370333522558 10499.181840613484 1310.148176908493 4536.4597191363573 1386.9254897981882 6767.9008646905422 1300.929263561964 1156.2606779038906 5123.4973799437284 3982.8332378864288 2981.9722117483616 1279.1501990705729 6000.8861057013273 4489.4305686950684 554.7270028591156 4595.9539643526077 7766.4315756261349 828.73811297118664 4255.1044900268316 558.45416088402271 2987.1196838617325 1937.1404646337032 2642.5976911634207 4223.738120123744 2680.3236021697521 4293.9221679568291 6239.7234675586224 522.93420515954494 3242.2919551730156 1850.2296506166458 4432.4140773266554 4817.4964403510094 5245.0047482252121 3911.6297663003206 8817.5867432206869 3036.5682284235954 1774.4546423256397 4896.499377399683 1746.7165898829699 2239.2958188205957 5053.3020084947348 5525.9657457619905 27.798686653375626 4962.7494056522846 2623.5506775677204
leaf_count=27663 10285 1179 33858 20010 9911 2598 13286 11106 15923 3129 18569 15315 13081 12608 4442 26963 9811 24895 56858 5518 20261 5792 27137 5573 4709 25623 16368 15314 6206 28552 22027 2245 18813 31080 3391 19157 2308 13933 8794 10776 24021 11923 17261 27237 2564 15355 7486 20484 22534 24236 18766 45525 13302 7134 20654 7273 9203 21804 30154 138 24647 10498
internal_value=-0.000163102 0.0317057 -0.0196671 -0.0305543 -0.0032092 0.0154196 -0.0160691 0.00639115 -0.0183637 0.0570732 0.00931506 -0.0128238 0.00038235 -0.0453666 -0.0313704 -0.0236757 0.0297046 0.00367532 -0.0400731 -0.00161968 0.0075309 0.0241457 0.0641192 0.0055353 0.0459299 -0.0177146 0.0290446 -0.0340358 -0.00867735 -0.0200174 -0.0303016 0.0311901 0.0396926 0.066477 0.0257092 -0.00278245 0.011271 -0.0150569 -0.00511566 0.0372027 -0.0532378 0.000717833 0.0520849 0.0113812 -0.0294463 -0.0151625 0.0547566 -0.00554623 -0.00540223 -0.00259259 -0.0249841 -0.0338304 0.00980295 0.0481307 0.0289614 0.0230027 0.038978 0.0155681 -0.0504292 0.0366397 -0.0253782 0.0702639
internal_weight=216498 82194.5 134303 80831.4 53471.6 50057.3 26379.6 30672 44363.3 32137.2 27092 31101.9 24252.1 36468 13261.4 19515.8 19385.3 20153.4 21770 9451.05 13556.1 12454 19688.1 6863.75 12449.1 21650.9 6419.86 12259.1 10696 18278.3 11033.5 6838.15 6931.33 17157.9 6938.62 10892.6 9260.76 8482.35 8461.3 5148.68 14698.1 5562.82 7300.41 10776.2 8467.66 9243.18 6144.15 8687.52 8140.9 7182.15 9035.13 11270.8 8702.31 2530.21 6283.42 6109.88 4881.89 5615.85 10474.3 4010.63 5485.68 10390
internal_count=1007266 349021 658245 411392 246853 219429 127563 137712 214563 129592 119290 147586 110921 196829 66977 96781 81717 90057 114991 43367 60579 53093 78978 30782 50614 104219 26791 62535 50342 88296 55885 28691 28624 68715 29233 49552 40505 40896 39236 21158 81838 25209 29456 47498 42525 43907 24747 39641 37849 33030 44389 58133 38197 10263 26446 25842 19979 24402 57817 16506 27211 41578
cat_boundaries=0 1 2 3 4 5
cat_threshold=96 96 2 32 24
is_linear=0
shrinkage=0.05


Tree=9
num_leaves=63
num_cat=7
split_feature=34 21 42 2 27 42 2 42 42 42 43 42 42 27 2 28 2 27 42 42 28 27 2 2 42 42 42 27 44 42 27 27 28 42 28 37 43 23 37 37 37 27 42 27 28 42 2 27 21 27 37 37 27 27 37 42 44 27 44 15 8 44
split_gain=48903.7 13148.7 8233.08 5252.65 2783.25 2528.42 1591.91 1422.7 1091.55 963.844 942.887 648.724 605.698 498.155 451.85 406.179 369.307 364.482 358.523 310.525 298.521 277.528 271.98 257.873 254.718 246.172 234.321 218.169 197.956 176.071 166.704 155.892 142.627 132.702 126.007 121.149 117.315 113.36 109.612 105.393 104.401 104.129 95.5403 94.9755 89.2609 89.1944 88.8383 85.0408 84.4216 83.3931 82.46 81.4214 80.2712 77.8052 77.105 75.9816 75.8907 70.6102 66.0491 65.557 62.7353 62.374
threshold=37.650000000000006 0.38529014844804327 0.096666666666667136 0 0.1880153321461531 0.69499999999999973 1 1.0316666666666667 -0.86249999999999993 0.98333333333333373 2.5000000000000004 -0.040833333333333492 -1.0008333333333332 0.37411583587465225 2 0.48366245172311356 3 0.28997207847636858 1.3383333333333334 1.7600000000000002 0.30350404949115728 0.64656722897544039 4 5 -0.37166666666666676 -1.8683333333333327 -0.82999999999999974 0.45674603174603179 2.0883333333333369 1.6083333333333341 0.28997207847636858 0.65602513330227274 0.49731968747261451 -0.86249999999999993 0.52283751882293894 1.5000000000000002 1.5000000000000002 0.15643825301204822 4.5000000000000009 2.5000000000000004 2.5000000000000004 0.6216861392199392 0.63500000000000012 0.38213956853459624 0.37044436438715711 -2.1808333333333323 6 0.42002166718988537 0.073350071736011491 0.36000821018062401 2.5000000000000004 3.5000000000000004 0.68559368213228045 0.21267164718451484 4.5000000000000009 0.028333333333333547 7.4058333333333346 0.42433615674056929 2.2308333333333334 0.19320926657883183 6.8250000000000011 -1.617500000000003
decision_type=10 10 2 1 10 2 1 2 2 2 2 2 2 10 1 10 1 8 2 2 8 8 1 1 2 2 2 10 2 2 8 10 10 2 8 8 2 10 10 8 8 8 2 10 8 2 1 10 8 10 8 8 8 10 10 2 2 10 2 10 2 2
left_child=2 5 3 12 7 6 26 20 14 15 21 23 45 28 59 40 51 53 22 48 42 47 41 33 52 -16 -2 -15 38 32 -20 57 -11 -8 -27 -17 -23 -33 46 -19 -6 -7 -4 61 -24 -1 -10 -3 -9 -41 -30 -14 -12 -13 -46 -28 -35 -26 -42 -5 -32 -37
right_child=1 10 4 8 9 18 11 19 13 29 24 17 16 27 25 35 -18 39 30 -21 -22 36 44 -25 31 34 55 -29 50 -31 60 37 -34 56 -36 43 -38 -39 -40 49 58 -43 -44 -45 54 -47 -48 -49 -50 -51 -52 -53 -54 -55 -56 -57 -58 -59 -60 -61 -62 -63
leaf_value=-0.058644566133986366 0.01206877429324887 0.03036826588448871 -0.036158488091842682 -0.01488527277257738 0.0051049778407728213 0.028595643210908264 -0.01900743062767599 -0.010532838906338547 -0.022086787242256191 0.0097019003084548167 0.020409000718464704 -0.020294762735887178 -0.025379261013517569 -0.0042627405349062756 -0.046145227943614836 0.022890377183455518 -0.045898718213365261 0.02034717764864543 0.024859440094692698 0.016972221482185263 -0.018166283812223755 0.068016298432764105 -0.0037239453292499548 -0.022422556656712698 0.0049989089009533864 -0.033681651778590137 0.028915955022756897 0.019739923034717666 0.0018582593783989421 0.034321643046564862 0.036653535190279557 0.045580651690402652 0.025995983209594328 -0.0039747797714708511 -0.023129488805989189 -0.0025201023120808856 0.059273959451779434 0.057030627420705637 -0.028970954242220143 0.003873023400546289 -0.012848079177253289 0.052892683575489874 -0.024817739502453168 0.013585040061954996 0.019389599929784951 -0.049789855974635783 -0.013113187497276024 0.051637138206502897 0.002152925291662174 0.012950249487407282 -0.011758646606661437 -0.035301258794739797 0.037436657310956079 -0.003047110225820378 0.0020001695428050244 0.042157090439994618 0.010547084371016011 0.038151627429031498 -0.0028144474667312399 0.011552920457545475 0.047362239922534716 0.0064431107545613892
leaf_weight=4485.401737600565 1773.8439880162477 613.68201233446598 5426.1453542411327 352.30465531349182 1459.9366462528706 4770.8145161569118 1351.8457532078028 3375.3573616594076 5282.3302169144154 2928.6912988424301 929.74397154152393 878.09177315235138 2648.9992315918207 5312.4149264097214 2351.4440324306488 1096.0005744844675 11225.609209135175 2398.8651865124702 2404.0983928740025 2103.5540652275085 6868.9450905025005 8879.8354560881853 562.32208731770515 2586.3391506224871 179.41424830257893 5615.9944866448641 3292.5819131880999 1151.9995527565479 1355.4455094188452 2069.7859767228365 3856.8809572458267 4411.2799229323864 2480.5141157507896 6730.3469365686178 5701.1063541918993 3333.0478834658861 6757.7814069986343 4238.8630396425724 2451.9241382926702 4762.8784363269806 4951.8261835426092 485.87480413913727 2823.4933085590601 2675.6258409768343 4965.1138959079981 7771.6594664156437 6083.7091287821531 2007.0384494364262 2144.8438359647989 5397.8057533949614 6185.141972258687 9421.882817491889 2708.250646173954 2560.6058954447508 731.35541875660419 1614.7585829049349 1038.4905246198177 1532.2865455746651 2452.5173008292913 701.063646286726 2119.0964666754007 4647.194661334157
leaf_count=26432 7563 2565 28744 1630 6674 19949 6619 15809 26126 12726 3838 4334 13855 24685 12836 4740 62444 10381 10111 9112 33739 35587 2604 12991 804 29157 13626 4833 6375 8557 15747 17759 10365 31042 28510 14844 27054 17001 11952 21244 23140 1956 14187 11535 21261 44090 28805 8040 9792 23503 29856 49704 11043 11877 3145 6553 4761 6192 11428 3028 8625 20602
internal_value=-0.000127509 0.0289475 -0.0196423 -0.0298361 -0.00398221 0.0139232 0.00571493 -0.0169855 -0.0179679 0.00654362 0.0542294 0.000426711 -0.0440206 -0.0121464 -0.0289821 0.000965657 -0.0392992 0.00697181 0.0281099 0.000625358 -0.025866 0.0617147 0.0223841 -0.00851713 0.0444672 -0.0314016 0.027602 1.46859e-05 -0.0158271 0.0219195 0.035978 0.0484634 0.0171739 -0.00454443 -0.0283659 0.00706093 0.0642383 0.0511915 -0.019383 0.0109208 -0.00711518 0.0307829 -0.032277 0.0054328 0.0152566 -0.0530302 -0.0173146 0.0466567 -0.00560385 0.00869525 -0.00931096 -0.0330964 0.033085 -0.0074514 0.017157 0.0332729 -0.00203359 0.0346767 -0.00952467 0.00268504 0.0404509 0.00269951
internal_weight=215476 86540.2 128936 78098.4 50837.5 54282 34386.5 22742.3 42544.9 28095.1 32258.2 27705.3 35553.6 27823 14721.9 20616.1 23296.5 15998.2 19895.6 7623.76 15118.6 18258.3 11515.5 11707 13999.8 13668.5 6681.18 6464.41 21358.6 7478.99 8380.08 10361.8 5409.21 9120.68 11317.1 11751.9 15637.6 8650.14 13818 12559.5 8864.28 5256.69 8249.64 10655.9 6258.79 12257.1 11366 2620.72 5520.2 10160.7 7540.59 12070.9 3637.99 3438.7 5696.47 4907.34 7768.84 1711.7 7404.34 1053.37 5975.98 7980.24
internal_count=1008087 367775 640312 404318 235994 237892 154494 111383 207793 124611 129883 126752 196525 132632 75161 92963 126003 71339 83398 34713 76670 73246 48915 55413 56637 70503 27742 29518 103114 31648 34483 41756 23091 42422 57667 51721 62641 34760 66883 55128 41242 21905 42931 46981 27010 70522 54931 10605 25601 44747 36231 63559 14881 16211 24406 20179 35803 6996 34568 4658 24372 35446
cat_boundaries=0 1 2 3 4 5 6 7
cat_threshold=96 2 2 32 6 12 16
is_linear=0
shrinkage=0.05


Tree=10
num_leaves=63
num_cat=6
split_feature=34 21 42 2 42 2 28 42 42 42 42 42 42 2 42 28 27 28 42 27 28 26 21 27 28 27 42 42 27 28 32 2 42 24 44 43 42 42 27 2 21 28 8 44 38 23 38 27 27 23 42 38 27 28 2 24 26 14 27 44 44 28
split_gain=44542.8 12625.6 7250.1 4604.69 2618.07 2437.77 1516.98 1464.99 966.672 837.357 714.263 595.808 533.491 492.429 415.857 350.557 350.088 341.686 317.211 315.814 296.834 280.85 263.853 256.163 228.991 228.517 181.585 175.586 152.123 150.055 139.232 132.118 128.051 124.108 116.519 115.792 114.447 114.156 113.01 111.579 107.453 102.026 99.5795 96.977 95.1972 92.0564 91.3023 91.1781 90.2117 84.4506 82.8733 82.3458 79.5504 75.8396 71.0016 70.456 67.9725 66.4477 63.1563 60.4087 60.095 59.2382
threshold=35.850000000000009 0.38529014844804327 0.057500000000000114 0 0.64666666666666683 1 0.59635569672933808 0.98333333333333373 -0.98166666666666702 0.42833333333333307 1.0000000000000004 -0.033333333333332764 -0.86249999999999993 2 1.5166666666666671 0.30087491363664748 0.28997207847636858 0.55568391270853701 1.8041666666666669 0.38213956853459624 0.30595525649873484 0.4577882902092239 0.53907203907203916 0.33131865391930387 0.47771480212480572 0.45674603174603179 -0.38250000000000023 -0.60999999999999999 0.42002166718988537 0.4452820716829583 53.500000000000007 3 -1.8683333333333327 5.154761904761906 -2.0649999999999991 2.5000000000000004 1.4075 -0.86249999999999993 0.27999118165784836 4 0.085960591133004943 0.74194269721276485 5.3550000000000013 3.8974999999999977 1.0000000180025095e-35 0.11566332218506133 0.044999999999999936 0.28997207847636858 0.21267164718451484 0.100561797752809 0.63500000000000012 0.050000000000000273 0.60986848809953964 0.30087491363664748 5 5.9500000000000011 0.50944593976943786 0.18469903024043152 0.68187391680528886 0.45416666666666577 0.51666666666666761 0.55341596852868591
decision_type=10 10 2 1 2 1 8 2 2 2 2 2 2 1 2 10 10 10 2 8 10 8 10 8 10 8 2 2 10 10 10 1 2 8 2 2 2 2 8 1 10 10 2 2 8 10 8 10 10 10 2 8 8 10 1 10 8 10 10 2 2 10
left_child=2 4 3 12 6 7 11 15 17 22 23 24 33 25 19 50 48 32 40 29 -14 61 28 35 -2 45 47 58 -3 -6 -23 55 -5 53 -31 59 -12 -26 -16 -19 -9 57 -24 -39 -18 -10 -17 -15 -13 -30 -4 -28 -21 -1 -46 -29 -44 -25 -8 -7 -53 -11
right_child=1 9 5 8 14 10 27 18 13 21 36 16 20 26 38 46 44 39 -20 52 -22 30 42 41 37 -27 51 31 49 34 -32 -33 -34 -35 -36 -37 -38 43 -40 -41 -42 -43 56 -45 54 -47 -48 -49 -50 -51 -52 60 -54 -55 -56 -57 -58 -59 -60 -61 -62 -63
leaf_value=-0.052695255496509247 -0.021936495186586937 -0.0071689866903603561 -0.035221143777813733 -0.046874066056822997 0.0048882642092621413 -0.0027812796208409444 0.0024843474135984112 -0.0086204709646661767 -0.010648974649600539 0.024158455203545773 0.016124281997164869 -0.020530041469635746 -0.044646236719458492 -0.027291656309885639 0.026265171222441597 -0.0071540106094564078 0.023466235026168954 -0.00057314784196095265 0.017907666970954247 0.030104905736088657 -0.032357669631604663 0.055967770179198198 0.039618668144376055 -0.0097258044189368186 -0.018228848099254319 0.018014284350670994 -0.003253125984831743 0.033256896997707938 0.029801071667208343 0.012987910860245392 0.065293155374262501 0.014317960073359094 -0.032220277815930384 -0.058528767429434796 0.02423372922014945 -0.0083987231001589838 0.030772700418111407 -0.0065587402243803272 0.040624272500198358 -0.021907277652665716 0.0049418477303091977 0.036696252673428076 0.041497458312573919 0.0056090900810749 0.0038128090983568044 0.00088253824099063585 -0.019948433083814766 -0.017760565927881108 -0.003168901852405918 0.041667234147925829 -0.024150996842983528 -0.018929134826985092 0.048760627297551096 -0.043911725352556399 0.011962705008088343 -0.047797996296799351 0.055046891052674234 0.0086418782953537037 0.018160677436255143 0.0086713821735064263 -0.0095369840743607312 0.045816577161539196
leaf_weight=4659.1508975923061 2754.2816214114428 212.38419064879417 5590.2575930058956 1927.8233435302973 2025.1691821962595 2589.7799040824175 951.39460869133472 4730.8878642320633 4592.1298117339611 372.96324655413628 3096.7936002016068 1027.2994203418493 9450.8743626624346 4717.287391141057 1934.4173662513494 1721.3917926847935 1117.9850427210331 842.60362493991852 2069.185521453619 3747.236489996314 10237.248531714082 7830.4150640964508 2315.1023017466068 529.18205228447914 1533.5252492129803 1111.8806040734053 1920.9676894694567 4126.2641708850861 2922.3616011291742 3772.7127904593945 8188.1014792025089 1358.3620693385601 6576.6314591318369 3973.772108912468 5913.8990522176027 5502.8303486853838 2341.6720961332321 6333.8459701240063 4698.3576321005821 2324.0031847953796 2112.6455231308937 308.48932620882988 1190.612864151597 2208.4648120105267 5080.3741756379604 2777.4888345301151 7339.936972618103 5360.8434797674417 2754.6195210665464 3079.4159319996834 2423.5725658684969 4014.5919966995716 674.2399760633707 5200.6889156848192 5705.0221435576677 26.985502451658249 4158.7505816668272 7082.5900125950575 1978.8245130777359 2073.0836982578039 2958.0381461828947 2056.9914365708828
leaf_count=27598 14030 962 30247 10828 9067 11677 4169 22161 21681 1552 13099 5137 53746 24133 8072 8507 4816 3752 8875 15518 54718 31394 9321 2356 7599 4667 9107 16790 11866 15960 32935 5978 34444 24144 24960 25545 9642 29419 19016 11954 9597 1250 4797 10158 22674 12947 36424 26219 12830 12435 12353 19481 2713 29848 24780 135 16652 30993 8368 9287 14182 8267
internal_value=-8.29315e-05 0.0261828 -0.019875 -0.0299312 0.0125591 -0.00512033 0.00434264 -0.0156724 -0.0182631 0.0513521 0.00654066 -0.00116909 -0.0435309 -0.0131433 0.0258972 -0.0242552 0.00536751 -0.0303217 0.000753101 0.0215643 -0.0382565 0.0583318 0.0420742 0.00176587 -0.00916034 -0.00311141 -0.0176173 0.0229606 0.0344178 0.017266 0.0607346 0.0282184 -0.0355421 -0.0510688 0.0198537 -0.00348654 0.0224315 -0.00566791 0.0364365 -0.0163015 -0.00443369 0.00850737 0.0482819 -0.00341296 0.00957801 -0.00630294 -0.0175179 -0.0222218 -0.00788479 0.0358894 -0.0318733 -0.0124193 0.0329498 -0.0480623 0.00813839 0.0326516 0.0520312 0.00736493 0.0130708 0.00231051 -0.0149446 0.0424924
internal_weight=214209 92050.4 122158 72646 59723.3 49512.3 36957.2 25987.9 39124.3 32327.1 23524.4 28515.4 33521.7 27453.2 22766 17075.2 15685.3 11671.1 8912.72 16133.3 19688.1 18448.5 13878.6 18086 12830.1 8481.5 18971.7 8441.83 6214.16 11711.8 16018.5 5511.61 8504.45 13833.6 9686.61 10165.7 5438.47 10075.8 6632.77 3166.61 6843.53 7920.26 7664.47 8542.31 11903.4 7369.62 9061.33 10078.1 3781.92 6001.78 8013.83 8893.6 4421.48 9859.84 10785.4 4153.25 5349.36 7611.77 2930.22 4662.86 6972.63 2429.95
internal_count=1007832 392370 615462 383449 262189 232013 166883 128164 193395 130181 103849 131443 190054 132417 95306 87531 70237 60978 40633 68218 108464 74148 56033 81108 61206 39295 93122 35440 25263 49987 64329 22903 45272 81590 40920 46509 22741 47176 27088 15706 31758 34599 30770 39577 52270 34628 44931 50352 17967 24301 42600 42770 18231 57446 47454 16925 21449 33349 12537 20964 33663 9819
cat_boundaries=0 1 2 3 4 5 6
cat_threshold=96 96 6 2 2 24
is_linear=0
shrinkage=0.05


Tree=11
num_leaves=63
num_cat=6
split_feature=34 21 42 2 2 42 42 21 27 42 42 42 42 27 28 43 28 42 42 27 2 28 2 2 27 42 42 27 37 28 42 42 27 42 27 42 44 28 42 23 44 24 44 42 37 42 27 21 44 42 27 42 0 42 28 32 37 27 37 37 24 33
split_gain=40459.6 11500.2 6602.58 3979.42 2534.02 2346.02 1551.3 1059.1 1007.35 752.774 685.623 465.435 447.704 431.897 419.754 408.972 364.895 309.894 309.412 281.797 268.884 257.91 253.54 226.654 200.542 191.05 173.134 157.569 148.609 147.815 128.164 109.97 105.727 103.947 103.479 103.201 102.853 100.221 99.795 98.5071 97.3047 93.0788 92.7181 92.3532 89.7832 86.5939 90.9689 85.5191 83.773 80.9566 80.2802 79.4696 75.0285 74.2328 73.9037 70.7697 67.6763 65.001 64.9686 63.3185 62.6866 62.6212
threshold=35.850000000000009 0.35067567567567576 -0.058333333333333341 0 1 0.52833333333333365 0.95000000000000073 0.52041666666666686 0.40027831708526113 -1.0825000000000002 0.78166666666666662 1.3158333333333332 -1.0008333333333332 0.33654620339402957 0.48366245172311356 2.5000000000000004 0.30087491363664748 -0.26166666666666644 1.5466666666666666 0.34559418604977693 2 0.58270499796652875 3 4 0.67576669640811715 1.2941666666666667 -0.13750000000000015 0.31178764501913608 2.5000000000000004 0.73232239358697904 -1.8683333333333327 -0.37166666666666676 0.16160251404326961 0.1066666666666667 0.65602513330227274 1.1716666666666675 1.8050000000000053 0.37044436438715711 -0.67499999999999927 0.028991596638655467 2.0883333333333369 5.0500000000000007 3.8974999999999977 -0.45833333333333365 2.5000000000000004 0.59833333333333416 0.40501696484242017 0.11647286821705428 1.7350000000000014 2.289166666666667 0.68187391680528886 0.54000000000000037 5 -0.058333333333333341 0.51584646548068136 61.500000000000007 2.5000000000000004 0.42971813780900625 3.5000000000000004 2.5000000000000004 5.9500000000000011 6.5450000000000008
decision_type=10 10 2 1 1 2 2 10 8 2 2 2 2 10 10 2 10 2 2 8 1 10 1 1 10 2 2 8 8 8 2 2 8 2 8 2 2 10 2 10 2 8 2 2 8 2 10 8 2 2 10 2 1 2 8 10 8 10 8 8 10 10
left_child=2 5 3 12 6 8 16 24 14 21 19 22 41 28 33 35 51 58 32 36 -14 30 34 -15 45 54 -26 55 -11 53 -5 -17 -8 -2 -7 50 -6 -24 -31 -25 -39 -1 -19 -30 -21 46 -3 -23 -18 -20 -9 -4 -33 -10 -12 -13 -29 -46 -16 -41 -40 -27
right_child=1 7 4 9 10 11 18 15 29 13 25 27 20 23 17 31 48 42 49 44 -22 47 37 39 26 61 -28 56 43 38 -32 52 -34 -35 -36 -37 -38 40 60 59 -42 -43 -44 -45 57 -47 -48 -49 -50 -51 -52 -53 -54 -55 -56 -57 -58 -59 -60 -61 -62 -63
leaf_value=-0.04762806078124162 -0.019739054984929592 -0.0010057281827159606 -0.035685720221685112 -0.044424945710390185 -0.0084465504329309694 0.022917940946638578 -0.011968335519920659 0.045552057100388281 0.0028770390413001001 -0.0078464450056554939 0.0053277600250648677 0.019595066195447874 -0.032536954024841643 0.014863124016031138 0.00024299016772078263 0.032752417761138762 -0.02193596585160712 0.0028903127516096967 0.0081739520271966442 0.020358544258534266 -0.044828147662095141 -0.021087151266308182 -0.0041927010052629898 -0.015147527266602604 0.030195800927639339 0.02270545799679995 0.045554595011054688 0.046382555595928028 -0.026018172034766102 0.01390991983230864 -0.030153285887565631 0.053558361013824433 0.0022829457621910037 -0.0063788134300385574 0.046526903411495693 0.063450333715916893 0.0010236202888896206 0.0096256386659055657 0.029445380127380124 0.0054786014329038226 0.021225499680713293 -0.056968431397487335 0.012993710095447307 -0.017252499390250631 0.0034042927758744716 0.034670138982994807 0.024126129241638816 0.0041555683837239702 -0.012552662378172624 0.028412970228157333 0.057422793677456341 -0.025686292149498892 0.041739581944906241 0.01683258814089527 0.017380930906775605 0.038493372055022346 0.0336055576898492 0.024043403070452708 -0.011640243847528851 -0.0075655473177688275 -0.050865568495354396 0.039507144320825152
leaf_weight=7336.7245426625013 3639.6655713915825 460.68147997558117 5934.4739946722984 2113.9858001172543 7892.6498701870441 6503.4394415915012 3871.5857139378786 1776.4175043702126 1964.823607608676 2168.8105771094561 2733.68101118505 2760.5781143009663 9661.8672008663416 1076.9630928486586 1561.6496421247721 1568.5600397735834 6521.2661680132151 8847.1839817613363 2930.1651547253132 1193.2487502843142 8928.6142626702785 793.81140984594822 880.64501939713955 4141.3623814731836 3039.8727444559336 2230.6447681039572 4628.932594075799 1353.1406943202019 6648.6653083264828 1874.9103030413389 6148.2728306502104 3146.6798910945654 1960.4104693084955 2426.4478252381086 499.79987087845802 6225.126168936491 4502.7912862598896 5312.5468400865793 2831.743494361639 1133.5166631340981 2740.4616485536098 4190.7902497500181 3054.8126741498709 5482.7532291412354 4625.7810845226049 1401.9157094061375 1648.6418976783752 581.18706357479095 3744.4725639522076 594.31445054709911 7184.8164590597153 2987.1015816777945 3511.1676486879587 1850.1758630275726 2378.0754457563162 603.72111396491528 4427.2030824571848 415.77429121732712 4365.6022776812315 5190.1472297310829 24.507980197668076 738.06202264130116
leaf_count=44093 18498 2073 33058 12123 36568 27071 18481 7142 8876 10578 11898 11500 52961 4507 7314 6321 32901 39389 12929 5160 52406 3977 4133 19895 12361 9203 18568 5457 34262 7939 32694 12614 8914 11525 2009 25181 20638 22842 11526 5279 11724 26308 13514 27068 20507 5710 6703 2649 18868 2504 28967 15592 14074 7951 10004 2499 17922 1717 20911 24783 125 3016
internal_value=-0.000148154 0.0248141 -0.0191749 -0.0299009 -0.00644103 0.0111138 -0.0167957 0.0475957 0.00223531 -0.0185366 0.00462879 0.0225977 -0.0432678 -0.0140943 -0.00303382 0.0536413 -0.0249413 0.000831626 -0.000109406 -0.000645164 -0.0384818 -0.030468 0.0174383 -0.00689933 0.0349352 0.0167941 0.0394665 0.0315894 -0.0199014 0.016968 -0.0338048 0.0446626 -0.0071778 -0.014395 0.0245678 0.058505 -0.0050064 0.0118086 0.0228728 -0.00914438 0.0135731 -0.0510237 0.00548349 -0.0220566 0.00802542 0.0250386 0.0186373 -0.0104175 -0.0185134 0.0115868 0.0550696 -0.0323377 0.0474686 0.00964512 0.0109351 0.0229864 0.0365966 0.00510639 -0.00850938 -0.00522738 0.0287563 0.0268826
internal_weight=212968 92115.9 120852 65597.5 55254.5 57523.1 28543.8 34592.8 32441.5 35479.5 26710.7 25081.5 30118 25842.2 23895.4 23412.8 19187.3 17829.2 9356.48 18630.2 18590.5 9637.26 15936.9 11542 11180 8080.46 7668.81 9144.64 14300.2 8546.16 8262.26 8226.41 5832 6066.11 7003.24 15186.4 12395.4 8933.65 4731.16 10465 8053.01 11527.5 11902 12131.4 6234.8 3511.24 2109.32 1375 10265.7 3524.48 8961.23 8921.58 6657.85 3815 5111.76 3364.3 5780.34 5041.56 5927.25 6323.66 2856.25 2968.71
internal_count=1007980 392439 615541 353583 261958 252725 143247 139714 147568 177815 118711 105157 175768 126372 111151 94299 100419 81128 42828 84590 105367 51443 67779 54464 45415 34121 30929 37378 71908 36417 44817 33009 27395 30023 29080 61290 57206 38699 19590 49957 34566 70401 52903 61330 27384 14486 8776 6626 51769 15433 36109 48650 26688 16827 21902 13999 23379 22224 28225 30062 11651 12219
cat_boundaries=0 1 2 3 4 5 6
cat_threshold=96 96 32 6 2 19902752
is_linear=0
shrinkage=0.05


Tree=12
num_leaves=63
num_cat=1
split_feature=21 34 21 43 43 26 27 2 27 43 26 43 43 43 43 43 26 43 28 26 24 14 1 24 38 27 27 43 26 13 43 27 28 24 27 27 26 37 28 26 37 14 27 43 37 44 28 24 38 44 26 44 28 44 43 26 28 28 44 1 37 21
split_gain=36888 9234.89 7160.41 2711.34 2219.7 1167.69 1150.87 980.233 850.628 993.563 748.077 683.519 665.219 408.451 386.7 300.736 293.77 264.887 256.125 248.725 235.055 198.927 194.746 189.259 183.031 179.44 178.181 172.87 170.44 162.386 153.625 150.108 139.182 134.607 122.87 122.131 121.176 109.178 106.197 104.221 104.09 101.497 100.236 94.6917 92.5572 92.4549 91.3237 84.9417 79.3127 78.036 74.7323 73.4138 71.5819 71.4133 71.2068 70.8064 70.0841 66.6494 65.183 62.2929 60.9473 60.7703
threshold=0.16823899371069184 18.750000000000004 0.42997198879551829 3.5000000000000004 4.5000000000000009 0.073478909546762727 0.26356971770089616 0 0.38043961352657013 2.5000000000000004 0.058421578514866283 2.5000000000000004 2.5000000000000004 1.5000000000000002 1.5000000000000002 2.5000000000000004 0.18344316630922211 2.5000000000000004 0.74194269721276485 0.44446780674703307 4.8660714285714297 0.34864142852121344 9.5000000000000018 5.154761904761906 0.039999999999999598 0.18368184019696218 0.41620725663221958 1.5000000000000002 0.051031036319279806 0.13657462125282049 1.5000000000000002 0.26902221235709983 0.30350404949115728 5.9500000000000011 0.36140776099322608 0.34006183773676119 0.082072779667986512 3.5000000000000004 0.34452083401091699 0.09047198755936621 3.5000000000000004 0.21927479125621543 0.667799556469311 1.5000000000000002 3.5000000000000004 3.5633333333333348 0.78861426679676627 2.9500000000000006 0.044999999999999936 2.5316666666666685 0.037740356444212066 -2.6608333333333323 0.462632852789786 -5.333333333333333 3.5000000000000004 0.089636234506644888 0.65138888888888902 0.53401759577599239 3.0641666666666691 2.5000000000000004 2.5000000000000004 0.054158809972763469
decision_type=10 10 10 2 2 10 8 1 10 2 10 2 2 2 2 2 8 2 10 10 10 10 2 10 8 8 8 2 10 8 2 10 8 10 8 10 10 8 10 10 8 10 10 2 10 2 8 10 8 2 8 2 10 2 2 10 10 8 2 2 8 10
left_child=1 4 8 6 10 23 13 26 9 22 12 19 27 38 49 42 -13 61 58 57 35 46 30 32 -16 -9 29 47 -15 40 39 -19 -6 34 53 -7 -11 -30 -3 -2 -5 59 -10 -21 54 -27 -18 -1 -24 -8 -14 -42 -50 -26 -38 -32 -37 -4 -17 -20 -33 -12
right_child=2 3 11 7 5 20 14 25 15 36 17 16 50 28 24 18 21 31 41 43 -22 -23 48 -25 33 45 -28 -29 37 -31 55 60 -34 -35 -36 56 44 -39 -40 -41 51 -43 -44 -45 -46 -47 -48 -49 52 -51 -52 -53 -54 -55 -56 -57 -58 -59 -60 -61 -62 -63
leaf_value=-0.0010154230791723274 0.014680342809489639 -0.0021425907389966393 0.013637493706664795 -0.0041159416014846517 -0.048444210928293985 -0.027351071229219894 0.018712402480393808 -0.033444217823134302 0.029872379084817071 -0.019369782083575166 -0.0055023801071805703 -0.010345808567195278 -0.037779445510376153 -0.021320135501498475 0.018731759612104201 0.0061790782654429334 0.025163721536004852 -0.021569148997565474 0.029073674766472699 0.059437960567333373 -0.040729587459820873 0.045824820883921973 0.021263785670019745 -0.056642018986341885 -0.005372333220930994 -0.023921804815912613 0.0060969825316915735 -0.022302946957324991 0.0037030906396513527 -0.0022003028120263983 -0.0017067824082986579 0.0035161716029173638 -0.038835619162154382 -0.062593067707624156 0.011933947764087979 -0.017876159516825373 0.0078637940235827593 -0.010626579507748122 0.010916813565901733 0.029699443138848192 -0.020946180917781637 0.029886807051213979 0.046319902549805801 0.051556752591816093 -0.010746807622335664 -0.012335171076314712 0.038147618908659885 -0.015318846870290651 -0.0072222300274265199 0.030482661727282763 -0.02943315261455412 -0.011507850545925865 0.009486522375714063 0.0050871871951469749 -0.0026065133304791935 0.016579346652310173 0.0090878124276464189 0.04062359335318199 0.019167655515209533 0.013211636032981167 -0.011373583704893837 0.0076362510057380109
leaf_weight=2017.3141915798187 1507.1334749311209 2861.7260175198317 266.92834557592869 3031.5430499762297 8039.5543839037418 6981.6835739314556 4442.0351557582617 4080.0242512971163 4867.2002937048674 1007.1881388872862 1723.1672010570765 298.06713192164898 6272.950189486146 2979.4905655831099 3448.888838082552 3235.1908108741045 2232.6816141158342 4420.208704456687 880.50673808157444 8927.6334136724472 2465.1662597358227 6558.0729829668999 982.13296197354794 3637.3211681693792 2095.8499888330698 6211.6657210588455 2271.702325746417 4802.7054028064013 1765.7746513038874 6240.4167708009481 634.16819785535336 826.47255671024323 7094.6306480765343 71.202116087079048 5964.5042089670897 3161.6318069845438 2772.5218154489994 5376.7750075757504 3413.5902954488993 4944.6947107613087 3175.1169678866863 4411.1519160121679 1144.0605872869492 6650.2595858573914 1910.3075226992369 2381.8770743757486 3442.3427409082651 2138.0384214669466 870.70925877988338 2061.8284887075424 4685.1677015423775 5867.8424168527126 2429.6423607766628 7372.0893758535385 3919.3737173825502 3203.8169263452291 260.86985151469707 1601.7716573178768 1377.1108574569225 2083.7189539968967 4080.0093114823103 1798.8511199206114
leaf_count=9484 6512 13163 1132 14475 49584 37482 18431 22986 20000 5261 7899 1411 36399 15419 14842 14128 9003 22594 3624 36363 13958 26301 4185 23629 9403 32226 10112 25031 8285 29047 2927 3800 41502 333 25605 16049 12361 25712 14890 20274 15602 17880 4586 26856 8944 12275 13843 10326 3952 8521 25549 28585 10337 32826 18581 13650 1172 6458 5979 8689 19417 8050
internal_value=-9.9582e-05 -0.0151103 0.0289239 -0.00319866 -0.0290023 -0.038448 0.00526965 -0.013855 0.0156457 0.00951988 -0.0198806 0.0476071 -0.0259489 -0.005061 0.011924 0.0238758 0.0386986 -0.0104745 0.019299 0.0540057 -0.0268474 0.0398936 0.01775 -0.0464011 0.00831396 -0.0247902 -0.00710751 -0.0158422 -0.0112745 -0.00874922 0.021479 -0.0148861 -0.0439399 0.00599646 0.00631291 -0.0235582 -0.00296086 -0.00708401 0.00496135 0.026191 -0.0121339 0.0250786 0.0330027 0.0560734 -0.00103963 -0.0207103 0.0330395 -0.00837491 0.00879028 0.0224438 -0.034211 -0.0148218 0.00507837 0.00277184 0.00173144 0.0135578 -0.0158209 0.0367689 0.0100571 0.0179234 -0.00886548 0.0012081
internal_weight=211678 139520 72158.4 75113.9 64405.7 31640.9 41853.8 33260.2 42180.6 24181.7 32764.9 29977.8 19916.2 16397.4 25456.4 17998.9 12531.2 12848.7 11987.7 17446.6 12869.4 12233.1 14572.3 18771.5 18952.5 12673.6 20586.6 8958.06 10122 18314.9 10289.8 9326.69 15134.2 15503.6 15432.4 10404.2 9609.39 7142.55 6275.32 6451.83 12074.5 7375.38 6011.26 15577.9 8602.2 8593.54 5675.02 4155.35 4282.48 6503.86 10958.1 9042.96 3300.35 9467.94 6691.9 3837.99 3422.5 1868.7 4612.3 2964.23 4906.48 3522.02
internal_count=1007900 704663 303237 352738 351925 183376 187430 165308 181870 106984 168549 121367 106789 77469 109961 74886 50558 61760 50300 70809 68661 49147 61837 114715 83009 67487 97821 44841 49416 87709 43363 45811 91086 68167 67834 54703 45147 33997 28053 26786 58662 30193 24586 63219 39886 44501 22846 19810 18474 26952 61948 44187 14289 42229 30942 16577 17221 7590 20107 12313 23217 15949
cat_boundaries=0 1
cat_threshold=14
is_linear=0
shrinkage=0.05


Tree=13
num_leaves=63
num_cat=0
split_feature=21 21 34 42 42 42 27 26 27 27 26 42 43 42 42 42 42 26 26 42 42 33 28 27 27 42 26 27 42 27 42 27 27 42 27 27 28 27 38 42 24 42 18 42 42 42 38 38 10 27 32 42 37 44 38 37 42 7 44 28 15 37
split_gain=33382.5 8025.82 7297.42 2334.26 2297.93 1505.84 1280.25 1176.68 824.173 785.745 717.542 712.419 711.54 424.257 416.925 372.283 296.01 276.377 258.096 226.45 224.876 206.016 197.46 192.585 185.095 182.4 175.012 173.866 170.813 150.604 136.881 134.095 133.367 125.577 116.755 115.153 113.275 106.358 104.17 103.925 99.0833 96.7617 94.6402 93.5707 91.5044 86.9659 79.5865 77.1983 75.9551 75.644 74.8222 74.6508 72.3965 72.2638 70.2373 66.7579 66.7059 65.3372 64.1758 63.3315 62.7133 62.0993
threshold=0.14670014347202298 0.41763565891472876 18.750000000000004 -0.26166666666666644 0.096666666666667136 0.90500000000000014 0.40027831708526113 0.067983322931835524 0.28651564368322452 0.2508179492355358 0.05782777591911082 0.92000000000000026 2.5000000000000004 1.1366666666666667 0.22333333333333297 1.0658333333333332 -1.6008333333333329 0.18344316630922211 0.44446780674703307 -1.5508333333333331 -0.50499999999999956 5.5150000000000006 0.49139848964371891 0.3055730699173323 0.36000821018062401 -0.63499999999999945 0.051031036319279806 0.667799556469311 0.7191666666666664 0.34559418604977693 1.8041666666666669 0.14785532717357544 0.29253390175383326 -0.70166666666666566 0.12398208199047735 0.27085819411296747 0.30350404949115728 0.45674603174603179 0.06000000000000006 1.2516666666666676 3.5857142857142863 1.5775000000000001 1.0000000180025095e-35 -0.45833333333333365 2.0166666666666675 -1.1983333333333328 0.029999999999999808 0.044999999999999936 37.705000000000005 0.39499315294121712 53.500000000000007 -0.36166666666666608 2.5000000000000004 0.51666666666666761 0.039999999999999598 3.5000000000000004 0.31583333333333302 55.595000000000006 -0.19166666666666818 0.42876719529044277 0.089335594573024757 3.5000000000000004
decision_type=10 10 10 2 2 2 10 10 8 8 10 2 2 2 2 2 2 8 8 2 2 8 10 10 10 2 10 10 2 8 2 10 10 2 8 10 8 10 8 2 10 2 10 2 2 2 8 8 2 10 10 2 8 2 8 8 2 2 2 10 8 8
left_child=2 5 3 7 8 6 14 19 26 13 11 34 18 31 22 29 60 -14 49 -1 37 51 -2 57 30 -8 -4 -27 35 48 46 -6 -18 -28 -5 -12 -21 45 -22 54 -31 -13 -42 -24 55 -10 -7 -34 -11 -3 -17 -19 -26 -47 -20 -15 -36 -16 -40 -48 -9 -35
right_child=1 12 4 10 9 24 25 16 20 15 28 41 17 44 23 50 32 21 39 36 38 -23 43 -25 52 27 33 -29 -30 40 -32 -33 47 61 56 -37 -38 -39 58 -41 42 -43 -44 -45 -46 53 59 -49 -50 -51 -52 -53 -54 -55 -56 -57 -58 -59 -60 -61 -62 -63
leaf_value=-0.053350114012019306 -0.015190207413183858 0.017492182603973724 -0.035868992355288752 -0.034068892339986542 -0.023340732895420671 0.029347660504452353 0.010756414131987841 -0.048813218873475631 -0.0246379200773592 -0.00055341457468540745 -0.016139345931944268 -0.011455233101644055 -0.0089507128355572584 0.015937441760607338 0.00083506568952172689 0.015968224998681491 -0.028576752206390933 0.02354762995217391 0.057514313894495434 -0.04575092509947918 0.0052585419139652657 0.043361256356966638 -0.0098748990633406326 0.011934379672984137 0.043269842623217182 0.016765788042988183 -0.030717908508816977 0.030949173063555491 0.0052997078210432307 0.01677949339971575 0.031605721646443978 -0.0085080572714436083 -0.0067061805727031748 -0.0087258024886561897 -0.029038290875575631 -0.0044166159080823676 -0.036690448506042611 0.0058368779038760563 -0.010501518910273087 0.059270798808139381 -0.071914276047597023 0.0046126615037875704 0.0059947905638633621 0.0015020764522286989 0.02410218933891739 -0.017074687989303224 0.005022655996495512 -0.020563166790584005 0.0097549996203078193 0.040109461252750937 0.02782219204391459 0.034946442550124655 0.029941738051788892 -0.0068029457876048541 0.04816742446867147 -0.00022007141081912529 -0.018174303710634596 -0.017959922989602074 -0.0014488366860507986 0.018202245887850438 -0.034342593671508263 -0.020312857627348867
leaf_weight=5836.4388933330774 3821.3570048362017 490.71243897080421 2678.6634631901979 7163.1102407127619 2043.9864446222782 1290.0129711925983 3509.9444441646338 1232.5723694562912 1861.6768212914467 6629.750681951642 4400.8750547170639 3082.2556916922331 331.95883899927139 880.59098821878433 3192.7098854929209 2733.057122156024 5278.9472627490759 2309.8056342303753 2751.9768078178167 7556.8400448858738 2813.2570639848709 6635.964256182313 2495.4556906968355 7756.6908545345068 1350.2218881994486 4086.1654042452574 2559.4827198535204 4585.404713511467 2128.1336776912212 4271.6981361359358 2565.7862574607134 5986.7645470499992 1255.1125642508268 1500.6610126048326 3409.1997179389 3997.9424789100885 6346.9767134934664 655.29390248656273 3901.2496525794268 5389.2278780341148 39.490042477846146 1346.1980010569096 3016.8429332524538 6553.5921994745731 704.72813165187836 3814.9148807823658 1134.6849663257599 5045.8559633493423 2446.3243956416845 1498.9317998737097 2595.3019669651985 3798.2340461015701 4151.8589358776808 3106.6442380398512 7453.6376426368952 2332.9055051505566 2413.0316157639027 540.70932075381279 3929.8409977853298 4634.0905483514071 1907.3661347776651 5039.4329755008221
