tree
version=v4
num_class=1
num_tree_per_iteration=1
label_index=0
max_feature_idx=35
objective=binary sigmoid:1
feature_names=venue race_no lane age weight class_i nat_win nat_in2 loc_win loc_in2 motor_in2 boat_in2 r_n365 r_win365 r_top2_365 r_top3_365 r_n90 r_win90 r_avg_st180 r_f365 r_lane_n365 r_lane_win365 r_venue_n365 r_venue_win365 r_avgpos10 r_makuri365 v_lane_win365 v_lane_top2_365 v_lane_top3_365 v_makuri365 v_water v_tide f_noryoku f_win f_lane_in2 f_lane_strank
feature_infos=-1:6:2:12:8:23:18:5:1:13:9:16:10:3:14:11:4:17:22:15:20:7:24:19:21 [1:12] -1:3:1:6:4:5:2 [16:77] [40:67] -1:2:4:3:1 [0:9.3800000000000008] [0:87.5] [0:9.8800000000000008] [0:94.120000000000005] [0:91.670000000000002] [0:100] [0:355] [0:1] [0:1] [0:1] [0:101] [0:1] [0.02:0.63] [0:4] [0:147] [0:1] [0:137] [0:1] [1:6] [0:1] [0:0.91666666666666663] [0:1] [0:1] [0.0625:0.5] -1:2:0:1 [0:1] [0:76] [0:9.3300000000000001] [0:100] [0:6]
tree_sizes=6826 7038 7094 7071 7081 7051 7057 7095 7055 7118 7067 7045 7059 7038 6996 7081 7080 7024 7079 7089 7049 7061 7132 7079 7126 7064 7058 7053 7052 7075 7071 7043 7128 7039 7057 7059 7073 7030 7083 7088 7075 7078 7091 7035 7052 7028 7050 7093 7092 7128 7057 7061 7051 7050 7035 7051 7054 7077 7039 7102 7035 7014 7034 7106 7079 7004 7004 7018 7004 7023 7020 7049 6973 7033 7038 7100 7005 7016 7014 7028 7015 7000 6980 7100 7084 7063 7014 7035 7020 6990 7040 6986 7022 6975 7007 6979 6986 6972 7044 7022 7003 7133 6979 7000 6953 7041 7042 6986 6954 6996 7072 7002 6950 6966 6991 7027 6960 6999 6977 6978 7020 6972 6967 6971 6989 7008 6953 6998 6961 6997 6916 7075 7017 6946 7015 7054 7042 6964 7015 6944 6979 6972 6962 6957 6946 6903 7019 6937 6960 6939 6923 6973 7032 6830 6878 6904 6962 6949 6984 6969 6905 6917 6947 6932 6934 6976 6976 6905 7036 6849 6893 6996 6940 6901 6929 6912 6970 6941 6904 6871 7038 6958 6953 6861 6919 7032 6935 6983 6963 6891 6972 6930 6906 6985 6874 6851 6948 6992 6899 6886 7017 6892 6971 6888 6896 6970 6912 6898 6937 6861 6860 6923 6906 6881 6933 6933 6863 6911 6899 6895 7007 6942 6944 6860 6934 6961 6894 6810 6880 6884 6866 6947 6894 6843 6978 6937 6877 6902 6919 6844 6888 6884 6880 6886 6863 6894 6862 6985 6905 6875 6930 6993 6949 6874 6850 6850 6905 6950 6895 6904 6921 6873 6943 6913 6967 6873 6899 6940 6810 6848 6854 6915 6950 6911 6998 6879 6892 6870 6845 6927 6966 6888 6929 6929 6883 6889 6920 6887 6949 6848 6915 6937 6894 6898 6949 6874 6841 6946 6886 6837 6919 6991 6874 6887 6870 6869 6872 6843 6951 6945 6894 6945 6893 6897 6924 6881 6875 6936 6886 6849 6855 6946 6870 6886 6821 6878 6950 6884

Tree=0
num_leaves=63
num_cat=4
split_feature=2 13 21 14 34 1 14 14 27 27 27 24 21 1 6 21 27 27 6 6 13 17 13 21 23 13 1 15 23 1 24 1 27 1 6 6 1 23 1 24 24 6 0 0 29 27 27 33 24 1 6 27 6 6 6 24 1 24 24 13 27 0
split_gain=201538 20095.6 11399.1 2811.15 2477.93 2202.88 2840.84 1931.22 1142 687.494 653.173 638.494 528.276 497.303 660.154 460.441 405.133 393.562 325.718 301.215 284.933 281.768 275.943 263.438 253.766 210.24 201.201 188.756 160.767 147.103 146.904 146.284 146.004 145.062 143.471 136.04 135.501 131.265 128.958 128.506 126.277 117.88 114.375 113.569 109.676 106.209 104.79 103.494 101.21 98.6401 97.5398 95.3353 94.4496 93.3263 92.0529 86.5561 86.4292 103.968 84.9968 83.0084 79.7253 78.9054
threshold=0 0.15030790736333072 0.10380747126436783 0.4003205128205129 22.350000000000005 9.5000000000000018 0.36068501170960193 0.24461975483990492 0.22979445573400067 0.18499085688353209 0.66927593954248377 3.0500000000000003 0.31072796934865904 9.5000000000000018 5.2350000000000012 0.62593283582089565 0.2485255754219092 0.66927593954248377 5.1750000000000007 4.9750000000000005 0.095796911923279895 0.18878406708595391 0.25585310469031403 0.21352583586626142 0.09699820788530468 0.26173185822147654 1.5000000000000002 0.12531407035175882 0.22068372803666922 1.5000000000000002 2.7321428571428577 2.5000000000000004 0.21265668070941907 2.5000000000000004 6.1150000000000011 6.3450000000000006 11.500000000000002 0.040270270270270282 9.5000000000000018 2.6458333333333335 3.7888888888888892 5.6650000000000009 1 2 0.2935553225803213 0.25470830905390457 0.3431458872847778 5.455000000000001 4.154761904761906 11.500000000000002 6.3050000000000006 0.25973476607994378 6.0250000000000012 5.2350000000000012 2.8850000000000002 3.7888888888888892 9.5000000000000018 3.3166666666666669 2.6125000000000003 0.12633479004370132 0.33931741984228175 3
decision_type=1 10 10 10 10 2 10 8 10 10 10 10 8 2 2 10 8 10 2 2 10 10 10 10 10 10 2 10 8 2 10 2 10 2 2 2 2 10 2 10 10 2 1 1 10 10 10 10 10 2 2 8 2 2 2 10 2 10 10 8 10 1
left_child=1 7 4 17 9 6 19 12 30 21 39 22 27 14 51 -12 -16 53 26 60 54 -2 46 32 47 -17 -9 -1 -13 -26 -8 -14 -7 -29 -18 -34 50 -28 -23 -5 -33 -31 -30 -24 55 -21 -10 -19 -35 -37 -25 -6 -20 -3 -11 -39 57 -22 -27 -53 -4 -52
right_child=2 3 5 10 13 23 8 18 11 20 15 28 31 -15 16 25 34 24 52 45 56 38 43 36 29 58 37 33 42 41 -32 40 35 48 -36 49 -38 44 -40 -41 -42 -43 -44 -45 -46 -47 -48 -49 -50 -51 61 59 -54 -55 -56 -57 -58 -59 -60 -61 -62 -63
leaf_value=-1.6446434518235351 -1.6798221555863777 -1.5456405021641366 -1.660074987250457 -1.448819888974469 -1.6668836128805209 -1.6680935898919838 -1.6257458273785339 -1.4962651920853038 -1.6140755220639438 -1.6791076716488529 -1.4549479234071123 -1.6236031605426238 -1.5330918166179002 -1.6645818408386386 -1.6507451543414942 -1.4373672652202847 -1.6337242022860474 -1.5172796374631536 -1.5123502295437374 -1.6543322308194208 -1.6455821511381139 -1.6638151156224881 -1.600639653909133 -1.6438127580329536 -1.4347778661761441 -1.4095244177751944 -1.556241055383996 -1.5664040471212894 -1.6001319058341501 -1.4846932791919223 -1.647511685744242 -1.5417745817811654 -1.6563745082817201 -1.5815967353620362 -1.6143703380398802 -1.6337816460803241 -1.6501842598276364 -1.5116069608868135 -1.6773554767210865 -1.4799182545975491 -1.5727546972454347 -1.4624520979469722 -1.618479796172386 -1.5792204995329167 -1.5525062737438797 -1.6336185228827302 -1.5958435110752458 -1.4869865160025888 -1.606295406297199 -1.652990593146604 -1.6100830364909338 -1.6573700539616043 -1.4657850493476243 -1.5071159717669294 -1.6679843375939247 -1.5396184978113825 -1.6671535381556584 -1.6594670514070553 -1.4251229085902124 -1.6439918155044428 -1.6480153520470457 -1.6335935085324698
leaf_weight=138.60283568501472 22763.663149103522 206.25748716294765 2616.4372922480106 510.08588142693043 2039.1084509342909 1611.0864266753197 1260.8741131424904 273.63767758011818 1694.7970502078533 2295.3178511559963 1778.3704432100058 3798.2666198909283 597.91342087090015 6332.5028244405985 3394.9460911005735 2400.2992068976164 3206.391342356801 439.00046668946743 1538.0797845125198 726.91011942923069 1934.950478374958 4861.9404608756304 964.31893698871136 970.08261926472187 262.24754355847836 1571.0151118040085 938.38236674666405 751.61161489784718 1826.8128204345703 1265.8144122362137 2012.6229585707188 494.02990937232971 5079.9997736513615 910.3873385488987 1365.3065467625856 1475.7771237194538 1647.4525172263384 620.14476679265499 2754.765666872263 952.51711137592793 984.21736389398575 1125.4275796562433 1642.7866791933775 2431.862228885293 486.61946073174477 4162.8881391137838 1473.169743642211 788.11493597924709 761.90390467643738 1221.4889509230852 623.98722164332867 5633.1760416179895 117.1948729455471 661.0394648462534 9806.630931571126 496.63728944957256 2006.722045764327 4445.994723290205 1966.5135003626347 1459.9956127256155 2877.8614526242018 809.66012924909592
leaf_count=1010 165879 1503 19066 3717 14859 11740 9188 1994 12350 16726 12959 27678 4357 46145 24739 17491 23365 3199 11208 5297 14100 35429 7027 7069 1911 11448 6838 5477 13312 9224 14666 3600 37018 6634 9949 10754 12005 4519 20074 6941 7172 8201 11971 17721 3546 30335 10735 5743 5552 8901 4547 41049 854 4817 71461 3619 14623 32398 14330 10639 20971 5900
internal_value=-1.6274 -1.49242 -1.65439 -1.45459 -1.66607 -1.63321 -1.62509 -1.5501 -1.61257 -1.67226 -1.43844 -1.60629 -1.57271 -1.65261 -1.64818 -1.43263 -1.63766 -1.48583 -1.52665 -1.64572 -1.66519 -1.67704 -1.59498 -1.6498 -1.47902 -1.42595 -1.537 -1.58789 -1.6165 -1.47033 -1.63913 -1.55396 -1.65439 -1.58465 -1.62794 -1.65156 -1.63914 -1.54139 -1.66871 -1.46907 -1.5624 -1.47423 -1.60872 -1.58508 -1.5327 -1.6367 -1.6056 -1.49782 -1.59285 -1.64248 -1.63157 -1.65736 -1.50905 -1.51628 -1.67009 -1.52406 -1.6581 -1.65526 -1.4182 -1.65462 -1.65376 -1.62328
internal_weight=138267 23036.1 115231 13926.7 74301.4 40929.1 27489.6 9109.36 17105.5 50870 9178.8 13832 4638.67 23431.4 17098.9 7716.2 7966.64 4747.9 4470.7 10384.1 20489.6 30380.4 6564.15 13439.5 3880.6 5937.83 2815.42 2562.51 7267.87 2653.49 3273.5 2076.16 9388.35 2423.9 4571.7 7777.27 4051.18 2541.78 7616.71 1462.6 1478.25 2391.24 3469.6 3396.18 1603.4 4889.8 3167.97 1227.12 1672.29 2697.27 2403.73 9132.28 1655.27 867.297 12101.9 1116.78 8387.67 6380.95 3537.53 7093.17 5494.3 1433.65
internal_count=1007550 167864 839686 101484 541435 298251 200317 66380 124648 370690 66886 100794 33802 170745 124600 56228 58053 34598 32578 75669 149308 221382 47833 97934 28278 43269 20516 18673 52961 19336 23854 15129 68413 17663 33314 56673 29521 18522 55503 10658 10772 17425 25283 24748 11684 35632 23085 8942 12186 19655 17516 66547 12062 6320 88187 8138 61121 46498 25778 51688 40037 10447
cat_boundaries=0 1 2 3 4
cat_threshold=2 12732156 19239040 10505852
is_linear=0
shrinkage=1


Tree=1
num_leaves=63
num_cat=2
split_feature=2 13 21 34 1 14 6 13 26 1 14 27 23 26 21 7 14 23 26 26 6 23 13 1 27 26 7 26 26 3 33 23 6 6 1 17 21 23 28 6 1 17 1 0 13 18 27 26 33 21 26 1 17 26 26 7 21 32 26 1 10 26
split_gain=169961 14087.5 10840 2143.86 2080.35 2697.83 1879.14 1587.04 1369.25 447.348 578.271 544.315 438.996 438.315 400.015 314.704 287.188 287.165 284.402 268.765 294.851 254.504 230.713 226.754 198.482 183.732 179.892 175.47 169.774 167.646 151.912 151.486 150.866 145.905 139.3 129.049 128.486 121.034 119.014 118.484 109.425 108.327 107.151 101.361 96.687 94.8616 93.6157 93.1135 90.271 88.5292 85.1211 82.4266 82.2173 82.0395 80.41 75.4212 74.8807 72.81 72.077 75.701 71.3956 70.6098
threshold=0 0.15030790736333072 0.097167584579071611 17.700000000000006 9.5000000000000018 0.3621834432858056 5.9650000000000007 0.090109422727448499 0.093648829168631167 9.5000000000000018 0.31785512603316396 0.20684226539629635 0.30044247787610628 0.071855014460874181 0.62593283582089565 17.035000000000004 0.27605764314928433 0.09699820788530468 0.47882213612431085 0.087037470320109542 6.1950000000000012 0.10367218987908645 0.19237377742532386 11.500000000000002 0.65839424677643066 0.13259555108002433 24.910000000000004 0.10394501037540088 0.11447589934432041 50.500000000000007 5.3850000000000007 0.27812939521800289 5.0950000000000006 5.9850000000000012 1.5000000000000002 0.31726674409601247 0.53907203907203916 0.21081871345029243 0.8314277113614863 4.7550000000000008 2.5000000000000004 0.24683341350008017 9.5000000000000018 1 0.030816714150047487 0.10953843422687687 0.67721333600290701 0.059144024965231849 5.455000000000001 0.18808962264150947 0.11901199347503737 2.5000000000000004 0.25384979862591811 0.56410919311643204 0.067971860828384134 33.045000000000009 0.73827838827838843 55.500000000000007 0.52341270614680491 2.5000000000000004 37.135000000000012 0.10906014066231109
decision_type=1 8 10 10 2 10 2 10 10 2 8 8 10 8 8 2 10 10 8 8 2 10 10 2 10 10 2 8 10 2 10 10 2 2 2 8 10 10 10 2 2 8 2 1 10 10 10 10 10 10 10 2 10 10 8 2 8 10 10 2 2 8
left_child=1 7 3 13 5 16 17 15 31 10 27 -12 25 22 46 44 50 48 -16 -6 -21 32 -2 43 -19 52 -15 -5 -18 30 40 47 58 -13 -23 60 -26 -20 55 -29 -17 -27 -24 -22 -1 -31 -8 -7 -3 -33 -4 -46 -10 -38 -11 -36 -39 -56 -9 -60 -14 -35
right_child=2 6 4 9 19 8 14 21 12 54 11 33 35 26 18 29 28 24 37 20 23 34 42 -25 36 41 -28 39 -30 45 -32 49 -34 61 38 -37 53 56 -40 -41 -42 -43 -44 -45 51 -47 -48 -49 -50 -51 -52 -53 -54 -55 57 -57 -58 -59 59 -61 -62 -63
leaf_value=0.0026514804874570143 -0.051333467785620063 0.089640507233648178 -0.034747327752957045 -0.039519774424739501 -0.036538172891079052 -0.024585473485683358 0.12244243808524669 0.055606323152093309 0.0053570075462506233 -0.045171763346926692 -0.028160013477222343 -0.0098154055535767826 0.024874662219804975 -0.041808814984330263 0.13995277133863224 0.079706288610580961 -0.021616016553399391 0.10457265244825326 0.159976939460691 -0.027112237792748236 -0.01450229511931752 0.13029986200219554 -0.03448961521663254 -0.022369829877005351 0.12069209574688389 0.017715736304957222 -0.028649957827810719 -0.031129826551287255 -0.0049357877644699965 -0.059657999467540725 0.1193692814469938 -0.0050700199671593069 0.092273480662235674 -0.0027491065483115948 0.084182501447821481 0.051722313788004938 0.13511157632078216 0.1675372278641305 0.12429311384102432 -0.017991804645104793 0.051713431094064247 0.034896766930623171 -0.049102395693941675 0.0044223369890293617 0.053083014902369309 0.03766068994540938 0.14663900333397401 -0.0072692342910369153 0.11412724323065573 0.017257012345121649 -0.021513167861298369 0.022924765529201495 0.017923383406006695 0.1554466305809124 -0.036691500124596696 0.10623364129918592 0.18095635510598515 -0.017336323961595661 0.096869646561255074 0.068459878390555035 0.043190444341036242 0.017291171423855087
leaf_weight=346.46732202172279 23116.252960428596 587.24611060321331 2039.4565688967705 4213.4567769914865 2745.8673868477345 1501.9895440638065 500.62545663118362 710.46794870495796 3347.5567790418863 2761.982612580061 4022.4321466982365 3157.0713763087988 1680.8086488991976 8805.6893875300884 1001.6904722899199 481.34113265573978 2399.3096029013395 622.41512531042099 2576.3750520646572 5671.3239309638739 1062.3082344383001 291.12464433908463 3417.2172197699547 2432.0515745133162 1007.3941658437252 2319.829700499773 3683.8077814877033 5285.6046485304832 4188.5619824826717 26.050285339355469 112.38971576094627 1447.7763448953629 989.22574505209923 810.71954640746117 1585.6744403094053 1034.3523823916912 1403.3017548322678 2243.8248096108437 279.74415013194084 2541.1150549352169 1270.8009731769562 1517.6407030373812 1982.1848300099373 2071.9927025735378 345.0748820155859 645.79644463956356 1983.7158783823252 1606.8627939969301 1048.189083635807 640.35495263338089 3005.6815608143806 659.71817930042744 2129.7007578611374 767.12602312862873 4126.5865112543106 513.28900042176247 1937.0413729548454 550.735511302948 312.34661082923412 940.57232414186001 778.49096389114857 960.02531886100769
leaf_count=2476 174293 3979 15165 31479 20468 11060 3307 4929 24195 20707 29909 23222 12036 66000 6588 3330 17724 4195 16574 42101 7791 1967 25559 18022 6642 16723 27455 39344 30748 192 770 10587 6703 5919 10898 7359 9200 14391 1907 18797 8930 10867 14942 15130 2404 4523 12957 11685 6948 4647 22232 4684 15291 5021 30848 3469 12368 4116 2138 6536 5574 6962
internal_value=2.12419e-05 0.117447 -0.0261493 -0.0384231 -0.0066184 0.000881708 0.146615 0.0694819 0.0130071 -0.0278717 -0.0241378 -0.0145123 0.02179 -0.0457387 0.159225 0.0449184 -0.0178857 0.122853 0.164816 -0.022515 -0.0190885 0.0864664 -0.0491599 -0.0109135 0.130392 0.016121 -0.0379276 -0.0312931 -0.0110107 0.0553018 0.0630181 -0.00863913 0.0763507 -0.00337203 0.0976535 0.0369047 0.135449 0.168501 0.0936579 -0.0268643 0.0594035 0.0245105 -0.0398541 -0.00202395 0.0254282 0.0338872 0.141763 -0.0156353 0.105335 0.00177688 -0.026863 0.033282 0.0102431 0.142299 -0.0384071 0.089575 0.173754 -0.0344125 0.0683283 0.0755423 0.0306725 0.00811591
internal_weight=138246 25189 113057 69434.9 43621.9 29638.4 15678.9 9510.08 18005.4 28429.7 20990.4 8950.25 12808.4 41005.2 10243.3 3887.64 11633 5435.67 7758.93 13983.5 11237.7 5622.44 28515.7 5566.35 3800.24 9314.73 12489.5 12040.2 6587.87 2536.38 1864.53 5196.98 2952.61 4927.82 2669.83 3493.65 3177.82 6757.24 2378.71 7826.72 1752.14 3837.47 5399.4 3134.3 1351.26 671.847 2484.34 3108.85 1635.44 2088.13 5045.14 1004.79 5477.26 2170.43 7439.3 2098.96 4180.87 4677.32 1963.39 1252.92 2459.3 1770.74
internal_count=1006983 168026 838957 519552 319405 215893 102170 65856 130024 211303 155632 66012 92045 308249 66185 27309 85869 35985 49921 103512 83044 38547 214794 40943 25058 67076 93455 89620 48472 17745 13030 37979 20306 36103 18241 24969 20863 43333 16274 58141 12260 27590 40501 22921 9564 4715 16264 22745 10927 15234 37397 7088 39486 14221 55671 14367 26759 34964 13603 8674 17610 12881
cat_boundaries=0 1 2
cat_threshold=2 17478016
is_linear=0
shrinkage=0.05


Tree=2
num_leaves=63
num_cat=1
split_feature=2 13 21 34 1 15 33 26 15 24 34 27 21 7 21 26 1 13 1 7 13 13 24 15 7 21 15 13 1 24 26 24 21 27 26 1 26 1 26 26 26 1 24 26 1 24 26 26 33 23 24 24 26 23 24 26 13 23 26 13 1 13
split_gain=144622 10430.6 10335.2 2114.56 1926.89 2366.5 1622.45 1136.42 962.725 609.156 475.719 413.792 405.459 313.973 289.536 261.888 258.74 228.564 224.687 332.045 222.177 204.281 200.801 187.71 176.609 171.811 166.208 157.4 159.618 154.969 154.135 152.581 149.046 140.131 135.145 132.661 128.651 127.688 126.838 126.193 108.872 106.144 105.751 103.219 100.759 99.5929 93.513 91.6709 90.2207 85.0456 83.5068 82.3311 76.6178 75.1868 74.4338 74.1871 72.7783 72.4231 72.0136 71.8083 68.7588 67.6671
threshold=0 0.142609126984127 0.097167584579071611 17.700000000000006 9.5000000000000018 0.51788622615169866 6.0950000000000006 0.083354135463471465 0.41581552892131324 2.8944444444444448 33.600000000000001 0.18499085688353209 0.31622807017543864 37.175000000000004 0.70638945233265737 0.13004770681168329 9.5000000000000018 0.25442741547661368 9.5000000000000018 34.495000000000005 0.1878620458730956 0.20033444816053517 3.4365079365079372 0.44463601532567054 24.255000000000003 0.56306818181818186 0.12531407035175882 0.17896784763465087 11.500000000000002 2.9500000000000006 0.061308189708094048 3.5277777777777781 0.21352583586626142 0.67721333600290701 0.13132903738865595 2.5000000000000004 0.10054890561258729 2.5000000000000004 0.097291682295183105 0.50944593976943786 0.11344171176323935 2.5000000000000004 3.8166666666666669 0.56410919311643204 8.5000000000000018 3.3875000000000006 0.50944593976943786 0.12876097015113036 5.7550000000000008 0.10367218987908645 3.3541666666666674 3.9500000000000006 0.11026247171202004 0.2293374316939891 5.0500000000000007 0.063825462722712348 0.11433842909857671 0.095564253098499682 0.12562929272681614 0.13752323420074353 1.5000000000000002 0.25585310469031403
decision_type=1 10 10 10 2 10 10 10 8 10 10 8 8 2 8 8 2 10 2 2 10 10 10 10 2 10 10 10 2 10 8 10 10 10 10 2 8 2 10 10 8 2 10 10 2 10 10 10 10 10 10 10 10 10 10 10 10 10 10 10 2 8
left_child=1 8 3 11 5 23 13 29 12 17 16 20 26 39 33 32 22 58 19 -12 -2 47 30 52 54 60 -1 -17 -29 -7 -5 48 55 -8 50 57 -21 -28 -25 -3 -24 -33 -41 -27 -22 -35 -16 -11 49 -10 -23 -39 -4 -36 -13 -6 -42 -14 -9 -32 -15 -38
right_child=2 6 4 10 15 7 14 9 31 21 18 24 35 25 46 27 -18 -19 -20 36 44 34 40 38 -26 43 37 28 -30 -31 59 41 -34 45 53 -37 61 51 -40 42 56 -43 -44 -45 -46 -47 -48 -49 -50 -51 -52 -53 -54 -55 -56 -57 -58 -59 -60 -61 -62 -63
leaf_value=-0.020854640316038703 -0.051205345691069631 0.080148718918345449 -0.034795355017930817 -0.030640405001098422 -0.040328311124709644 -0.0021861958938863379 0.11394555729488931 0.011384216777257912 0.074747140503804418 -0.0080471825922533349 -0.02337198968248478 -0.040269112587741115 0.065385954851199496 0.13950575671505658 0.13356961711066898 -0.027851316002499266 -0.041001431096039175 0.040861117282937925 -0.029918654595762054 -0.011834068840713615 -0.033520660447360066 0.01654274630170979 -0.037108830052310957 -0.027687971419426895 -0.030565228772320048 0.11866263867578331 0.052166642443574419 0.0018460231847792813 -0.020037653021516468 -0.021452395019292518 -0.021378046541881409 0.089642144272512908 -0.015620218440103938 0.13988275969950148 0.015870203766726692 0.053538058967147639 0.0055806492248587245 0.041580960677327618 -0.0075220046017062158 0.1089371399546671 -0.030293625902400024 0.063422938088597711 0.086123341614955343 0.13937652405634968 -0.047300513700086588 0.1231440845437734 0.15153707057333957 0.0085676373770406447 0.12397886636154064 0.096948874105128813 0.0025100702387421117 0.019673013938845133 -0.021526786385679508 0.032506729053383213 -0.052455285084666341 -0.027627517333327013 -0.015658289588519583 0.097182708748721897 0.028633895498600067 -0.0066364561740959076 0.10085724513765831 0.03458136694755954
leaf_weight=135.37366604804993 19885.483097493649 805.10573862493038 1543.2328255176544 2144.0044846683741 1465.8868901878595 2017.1857708394527 960.69298087060452 1228.3722721338272 865.55233655869961 1721.4514548331499 2887.2380434572697 8005.8444935530424 419.62476281821728 125.55754514038563 889.60617271065712 1182.9719234853983 4956.9837415367365 2799.2768911421299 2294.7706863433123 1196.8746867626905 2942.1892786026001 2096.4910651296377 5174.3761461079121 983.85768733918667 5000.0694492012262 1970.7079128175974 830.11920517683029 2121.3332843631506 1372.302214756608 2162.8412002176046 1535.1716131269932 507.71433182060719 2291.0973392874002 3080.5898151546717 1439.9775516688824 1718.3940362334251 1428.4992821067572 714.67761063575745 3758.5001389682293 1893.0702346265316 3157.7482391893864 1610.2709707170725 694.24104668200016 865.57275825738907 2415.8353283703327 1248.9051038920879 3894.0387330800295 1603.5139692127705 170.09304834902287 859.81990438699722 2144.7902340590954 1072.2572600692511 3688.1004212200642 1285.3379143774509 1485.5952601879835 5331.4184763282537 1162.0409797132015 312.40664188563824 1192.3690565824509 1788.4848272949457 1379.1739824712276 234.10387869179249
leaf_count=1000 155496 5113 11737 16298 11263 14812 5840 8817 5639 12563 21774 61757 2742 761 5310 8948 38151 19474 17567 8924 22563 14946 39466 7388 38142 11861 5578 15680 10339 16093 11594 3270 17073 18149 10253 11489 10427 4883 27738 11711 23991 10554 4340 5151 18788 7415 22541 11598 1070 5502 15409 7466 27680 9027 11536 40167 8688 2013 8441 13254 8467 1682
internal_value=-4.65436e-05 0.103672 -0.0252759 -0.0374917 -0.00624091 0.000933165 0.126058 0.0109836 0.0605313 0.017219 -0.0269571 -0.0449045 0.0463381 0.108833 0.139282 -0.0217019 -0.031101 0.0311317 -0.0166926 -0.0114112 -0.0487705 0.0101623 -0.0278209 -0.01891 -0.0381702 0.117739 0.0331681 -0.0120876 -0.0067499 -0.012155 -0.020188 0.0789308 -0.0266491 0.131221 0.0150289 0.0611313 0.000665747 0.0359626 -0.0117057 0.0974362 -0.0322167 0.0697081 0.102816 0.124984 -0.0397337 0.135054 0.148196 -3.44388e-05 0.0892362 0.0858111 0.00944651 0.028435 -0.025441 0.0237165 -0.0421765 -0.0303665 -0.0263567 0.0789558 0.0198808 -0.0134455 0.104082 0.00966411
internal_weight=138149 27023.6 111126 67695.3 43430.3 29665.3 17807.3 19691.6 9216.3 15511.6 27960.3 39735 5202.85 7733.43 10073.8 13765 19918.8 5220.02 8041.49 5746.72 25243.5 10291.6 14961.8 9973.69 14491.5 4341.01 2752.43 4676.61 3493.64 4180.03 5467.66 4013.45 9088.4 5290.19 6966.6 2450.43 2859.48 2617.05 4742.36 3392.42 9494.17 2117.99 2587.31 2836.28 5358.02 4329.49 4783.64 3324.97 1895.47 1725.37 4241.28 1786.93 5231.33 2725.32 9491.44 6797.31 4319.79 732.031 2420.74 3323.66 1504.73 1662.6
internal_count=1007409 167865 839544 520098 319446 215976 106659 141433 61206 110528 211816 308282 35171 47404 59255 103470 151442 36732 60374 42807 196847 73796 113291 74543 111435 26240 18927 34967 26019 30905 41146 26035 68503 31404 49635 16244 21033 17927 35126 21164 72145 13824 16051 17012 41351 25564 27851 24161 12211 11141 30355 12349 39417 19280 73293 51430 32679 4755 17258 24848 9228 12109
cat_boundaries=0 1
cat_threshold=2
is_linear=0
shrinkage=0.05


Tree=3
num_leaves=63
num_cat=0
split_feature=26 34 14 13 1 26 13 26 13 14 13 24 1 6 26 1 13 1 1 26 7 13 26 13 1 1 24 13 23 24 26 26 28 1 35 3 23 28 26 28 18 24 24 26 1 34 24 26 24 34 24 24 26 29 28 26 26 23 23 6 13 1
split_gain=123771 9917.46 8106.37 2080.99 2253.39 1420.68 1073.21 1010.68 920.014 833.16 730.632 495.67 375.172 374.651 298.36 275.104 254.807 250.952 212.137 209.469 195.794 191.619 181.605 155.191 152.071 151.855 145.564 143.37 134.944 134.893 131.7 129.502 127.077 126.556 124.479 121.729 120.485 116.614 110.453 103.947 101.929 101.193 100.502 96.5632 90.9795 90.8665 90.8123 88.4882 86.8191 86.6361 82.1654 81.734 78.4568 74.4442 70.1968 67.0694 65.6278 65.1214 64.8347 64.1203 63.7977 62.5788
threshold=0.4025250455373407 27.250000000000004 0.31785512603316396 0.17896784763465087 9.5000000000000018 0.069729238763651266 0.21703777008081812 0.091294400926199629 0.090109422727448499 0.27288845905867187 0.2041169408940047 3.0500000000000003 9.5000000000000018 5.0750000000000011 0.13322556734470617 9.5000000000000018 0.18117204463970107 9.5000000000000018 1.5000000000000002 0.50279477233084291 19.455000000000002 0.22734352874539793 0.50279477233084291 0.062622549019607857 2.5000000000000004 10.500000000000002 4.2928571428571436 0.11091269841269842 0.40129870129870138 3.3875000000000006 0.13197577157799426 0.10394501037540088 0.38597214686200038 3.5000000000000004 1.0500000000000003 50.500000000000007 0.036038961038961044 0.31290874630876014 0.11394595233605982 0.34010616086321471 1.0000000180025095e-35 2.8944444444444448 2.7888888888888892 0.52341270614680491 10.500000000000002 68.800000000000026 2.1055555555555561 0.57442407913894233 3.683333333333334 84.700000000000003 2.6458333333333335 2.8819444444444451 0.11508888802676526 0.27753209607484802 0.2983485159651979 0.12562929272681614 0.1108508848910341 0.2251760563380282 0.1180340557275542 5.4350000000000014 0.12199255890863996 2.5000000000000004
decision_type=10 10 10 8 2 8 10 8 8 10 10 10 2 2 8 2 10 2 2 10 2 8 10 8 2 2 10 8 10 10 10 8 10 2 8 2 10 10 8 10 10 10 10 10 2 8 8 10 10 10 10 10 8 10 10 10 8 10 10 2 10 2
left_child=1 5 8 12 7 10 18 28 20 23 27 21 13 38 32 16 56 34 -4 50 36 -9 -20 -7 43 -16 47 -1 39 -24 -13 -15 -6 -25 -12 41 -2 -29 -3 -5 -22 -21 -36 -10 -34 -42 -23 58 -33 -27 -8 -18 -48 61 -44 -35 -11 -32 -26 -31 -40 -38
right_child=2 3 6 4 14 9 19 11 24 15 17 30 -14 31 25 -17 51 -19 22 35 40 46 29 33 26 49 -28 37 -30 59 57 48 44 55 42 -37 53 -39 60 -41 45 -43 54 -45 -46 -47 52 -49 -50 -51 -52 -53 -54 -55 -56 -57 -58 -59 -60 -61 -62 -63
leaf_value=-0.05171243061874338 0.016474832114797559 -0.032825067897455922 0.12495755023012281 -0.024827689202876837 -0.03580541141376347 -0.041769972590187388 0.12087971525692853 0.014773364503740638 0.065054197949675721 -0.024355559376318073 0.017369255740537184 0.0035380739361549497 -0.034033572854488665 -0.020757006334584605 0.012251406491310639 -0.030438484423020974 0.016497746519821898 -0.043256733244770862 0.079265112205967631 0.1325580585200665 -0.056733089327628987 0.048558665861466913 0.10617621309481873 -0.024600392520073414 0.057660532475115489 -0.012223307058041843 0.04492803510254853 -0.048478070759942045 0.012401326360103796 0.079698261491077657 0.011059742191646701 0.0015949327258903403 -0.0095790046220641991 -0.039497072972709983 -0.017516016529481617 0.10497174426041156 0.080579343732680719 -0.038659160554916319 -0.023698930029014215 -0.0071037436487290315 0.044881145887885103 0.12153083767177782 -0.037347858977201984 0.092339925405093143 -0.023178582621928567 0.073178398713274792 0.01939293503743476 0.084515134250466917 -0.012544756424526744 0.10087807957089806 0.099300145668402784 -0.0042179327315656576 0.034825565394167306 0.025145459832796792 -0.022806785857734033 -0.029456950293767183 -0.012416432081200668 0.025745379858535495 0.072678966112542986 0.096442164329187188 -0.012162015061752589 0.041048230860954577
leaf_weight=14166.76588511467 1203.2770366817713 2405.1525273770094 653.74048666656017 1231.5888783335686 1455.8190796524286 6214.6836165338755 688.26839636266232 1944.9688124805689 498.22832322120667 2282.4645284488797 166.05626803636551 4276.8500069230795 4006.9368004947901 1402.3510086387396 960.02276009321213 2730.1801434606314 697.67862954735756 2965.9345293715596 1428.8555818349123 4067.6256625652313 22.747295886278152 817.97073148190975 3117.5774082392454 3866.4989989474416 1569.570869281888 2303.9008196443319 813.23182910680771 7195.5686710849404 611.84885685145855 876.36868345737457 1854.2153844982386 3039.3370150923729 1709.4874456822872 4546.1775566115975 1959.6122848838568 683.73695942759514 158.97069549560547 5215.7393154278398 3709.3484974503517 2519.6605662703514 1663.6670144200325 4258.5479433983564 2124.7901932746172 928.57104143500328 4382.6402112394571 342.02046547830105 1170.0639941543341 685.47190028429031 1688.8504427820444 17.057157531380653 1228.3413191735744 1499.583992138505 2780.872700676322 372.83706249296665 1361.986130669713 2623.1049636006355 2321.9544667303562 1273.2354464828968 1325.4809752851725 1645.0627361387014 1770.1423856765032 270.39648434519768
leaf_count=114533 8172 18673 3708 9349 11458 49218 3828 13798 3062 17504 1247 30762 31179 10613 7108 21206 5024 23696 8449 21884 177 5565 17765 30165 9859 17370 5175 57901 4511 5207 13223 22302 12964 35610 15026 3744 1025 41486 28439 18655 10885 23191 16537 5610 33474 2191 8115 4203 12491 106 6971 11066 19048 2496 10508 20386 17497 8869 8123 9427 13332 1829
internal_value=-0.000198985 -0.0244029 0.0925923 -0.00717157 0.00104933 -0.0375708 0.111976 0.0116615 0.0559113 -0.0288949 -0.0441801 0.0181616 -0.0205416 -0.0166842 -0.0170621 -0.0170312 -0.0116495 -0.0314926 0.0977076 0.12206 0.0375598 0.0280002 0.0951871 -0.0354503 0.0686296 -0.00447396 0.0640242 -0.0482752 -0.0093715 0.0992215 0.00924042 -0.00741326 -0.0225339 -0.0318914 -0.0252758 0.125253 0.0264814 -0.0443518 -0.0238927 -0.0129228 0.0485129 0.126918 -0.026576 0.0828119 -0.0193625 0.0497065 0.0333947 0.0683614 -0.00345559 -0.0113921 0.10705 0.00235975 0.0302552 0.0414909 -0.0316679 -0.0358236 -0.0183348 0.0170385 0.0645366 0.0906225 -0.0199719 0.0556844
internal_weight=137774 109271 28502.6 47332.3 29310.2 61938.8 18648.1 18481.3 9854.47 26782.3 35156.5 14118.2 18022.1 14015.2 10828.9 9531.86 6801.68 8578.38 7721.6 10926.5 4033.92 6713.88 7067.86 17250.5 5820.55 3280.98 4393.76 26578.1 4363.1 5639.01 7404.3 6130.54 7547.95 11035.8 5612.44 9009.91 2005.48 12411.3 7884.64 3751.25 2028.43 8326.17 5446.39 1426.8 6092.13 2005.69 4768.91 3580.52 4728.19 2320.96 1916.61 2197.26 3950.94 802.204 3486.78 7169.28 4604.42 3127.45 2895.05 2521.43 5479.49 429.367
internal_count=1006995 840014 166981 351404 214375 488610 104174 131895 62807 207676 280934 99380 137029 105850 82480 72297 51091 67014 44556 59618 26775 46526 40848 135379 36032 24584 27360 213920 32515 32399 52854 45406 57896 86161 43318 48819 13522 99387 60444 28004 13253 45075 42071 8672 46438 13076 32728 22185 34793 17476 10799 16090 27163 5350 27045 55996 35001 22092 17982 14634 41771 2854
is_linear=0
shrinkage=0.05


Tree=4
num_leaves=63
num_cat=2
split_feature=2 21 6 34 1 6 13 26 21 24 34 26 21 21 1 6 17 14 1 7 13 28 0 23 13 24 26 23 26 1 23 24 26 24 1 1 28 21 26 6 1 26 18 1 24 1 21 13 17 13 26 26 6 26 1 26 23 1 26 6 1 24
split_gain=107772 9344.81 6782.22 1953.71 1631.87 2079.57 1054.17 892.259 727.176 455.735 446.806 408.946 256.281 254.399 241.983 226.242 215.064 211.879 198.27 253.394 184.461 217.528 174.682 165.581 164.17 159.585 147.789 141.957 137.075 126.562 125.787 124.102 108.968 108.39 107.872 101.288 96.8524 93.1604 90.6938 89.4527 88.7962 87.375 86.8251 85.5525 84.4939 83.6549 81.1862 77.3319 75.6581 67.4221 67.6801 67.1772 70.297 65.3609 64.731 64.3539 64.3027 60.5004 60.227 57.4256 57.0093 56.5206
threshold=0 0.097167584579071611 5.3750000000000009 16.650000000000002 9.5000000000000018 5.495000000000001 0.10826383872874124 0.089640002321161746 0.59348516949152552 2.8660714285714293 33.600000000000001 0.062160935890518472 0.27361853832442073 0.20550527903469082 9.5000000000000018 6.2250000000000005 0.18544973544973548 0.27605764314928433 9.5000000000000018 30.395000000000003 0.12292792380254604 0.3526662094876562 1 0.30461293743372225 0.06094465766992696 2.6125000000000003 0.094320263070263075 0.20106382978723406 0.13197577157799426 11.500000000000002 0.09699820788530468 4.2111111111111121 0.46819742312600343 3.683333333333334 1.5000000000000002 1.5000000000000002 0.38597214686200038 0.50384615384615394 0.11139188104861454 5.9850000000000012 8.5000000000000018 0.57119675269445802 0.22333333333333341 4.5000000000000009 3.4142857142857146 2.5000000000000004 0.22886904761904764 0.22734352874539793 0.28024390243902447 0.19237377742532386 0.11508888802676526 0.063825462722712348 6.3450000000000006 0.50279477233084291 10.500000000000002 0.11139188104861454 0.40129870129870138 8.5000000000000018 0.13004770681168329 2.2750000000000004 1.5000000000000002 2.2111111111111117
decision_type=1 10 2 10 2 2 10 10 8 10 10 8 10 10 2 2 10 10 2 2 10 8 1 10 10 10 10 10 10 2 10 10 8 10 2 2 8 10 8 2 2 10 8 2 10 2 10 10 10 10 8 10 2 8 2 10 10 2 10 2 2 10
left_child=2 3 6 11 5 17 12 25 30 23 14 16 31 28 20 34 -2 55 19 -12 36 61 -8 47 -13 56 -19 58 51 48 42 -1 -17 -14 -10 -24 -5 -37 -21 -40 -18 -32 -4 -26 -28 -35 -29 -9 -15 50 -23 -6 -53 -36 -30 -3 -7 -25 -11 -33 -61 -22
right_child=1 4 8 10 13 7 22 9 15 27 18 24 33 29 -16 32 40 26 -20 38 21 49 35 57 43 -27 44 46 54 -31 41 59 -34 45 53 37 -38 -39 39 -41 -42 -43 -44 -45 -46 -47 -48 -49 -50 -51 -52 52 -54 -55 -56 -57 -58 -59 -60 60 -62 -63
leaf_value=0.036108584976384847 -0.050074204739151598 -0.034016135484995429 0.076985246976718644 -0.04452859192897568 -0.038556671751460672 -0.0011069193656098278 0.050318051486402851 0.011411009757957412 0.12459182730944696 -0.00024387291044881875 -0.024935614519288975 -0.04345412397519776 0.061972224754699171 -0.010404744709175594 -0.039389560987274086 0.097166542168969708 -0.03308550570922205 -0.027722133776992106 -0.028519515339436603 -0.011492994800393921 -0.0071113423955678689 -0.024052832915912682 0.096825035899025885 0.043859025323755053 -0.025417891982775498 -0.014803956389832236 0.0015720025474287758 0.012248174755936932 -0.0037528776301374248 -0.020650503730899564 0.087874345642557555 -0.028788333425994822 0.11478776141353064 0.056534947936643855 0.082322236531045909 0.064887884696406828 -0.029588335184176081 0.080713502910474799 -0.0035498255281948875 0.018767482429167606 -0.045881344861522677 0.1061484061031415 -0.045561990438754738 -0.036065977815068227 -0.012275394935598628 0.03535604934925235 0.027010367403459051 0.027558150974541524 0.0069537595434227316 -0.0045634924082728614 -0.0095868112317532856 -0.030396174577614302 -0.01816854774589444 0.099333872465611872 -0.020617722880608636 -0.021221677540420137 0.022718681671198327 0.017237522912443053 0.010603408562697194 0.041886501676603856 0.011923830124042301 -0.033899920825919312
leaf_weight=1608.949587315321 17830.491800352931 1395.5376234203577 1801.2556000202894 1301.1030117571354 1371.6895568743348 1077.6217366009951 1228.7231658250093 1154.7581435590982 367.487548366189 2877.9835332036018 2043.5982451885939 4899.8039242178202 972.66830165684223 1489.307011924684 4987.2289304882288 985.08766973018646 3057.6239605173469 1035.6416084170341 2204.9553151130676 1669.1020005941391 212.69681952893734 1963.4201417267323 436.37548394501209 1646.9107168614864 3152.1532469913363 3181.519303008914 1817.3560226559639 3002.4842707663774 843.07019642740488 1705.4507465139031 2847.7070235908031 71.773202821612358 8020.6516634821892 674.939369186759 691.53530988097191 2258.5383538603783 6523.9014065861702 1580.8134635686874 1266.4236178845167 695.63842716813087 2435.9461501538754 849.17597199976444 14.570589780807493 4697.6618240922689 2797.1277287602425 1508.0014799386263 1350.1944796293974 2071.91028650105 1085.0753025710583 1270.9198191165924 1374.6125288009644 3351.6589413434267 1810.2778328210115 3076.8787472695112 1749.9991360977292 3323.1717217713594 384.14280872046947 245.19311165809631 2304.1394314318895 194.46987396478653 864.40565627813339 2651.3150769025087
leaf_count=10341 149641 11152 10044 10637 11152 7948 7298 8120 1923 20801 15974 40272 5929 11259 40548 5264 24706 8044 17564 12580 1668 15305 2429 10980 25247 24044 13402 21040 6405 13196 15535 514 40772 4072 3803 13315 51745 9013 9422 4893 20207 4554 113 37836 20891 9588 9321 13944 8073 9553 10422 26372 13962 16191 13500 25769 2781 1635 16338 1251 5806 21143
internal_value=-0.000245556 -0.0236843 0.0834251 -0.0357684 -0.00566745 0.000875069 0.0530686 0.0105791 0.102021 0.0166313 -0.0259001 -0.0434732 0.0383763 -0.0201446 -0.0298251 0.108414 -0.0474092 -0.0171845 -0.0157957 -0.0108518 -0.026707 -0.0210888 0.0688038 0.0286657 -0.0362727 -0.00852084 -0.0106527 0.0101705 -0.0248612 -0.0100866 0.0867786 0.0271877 0.11286 0.0480899 0.0987337 0.0738257 -0.0320725 0.0714039 -0.00292556 0.00436265 -0.0387594 0.0920719 0.0760019 -0.0317902 -0.00682177 0.0419043 0.0168274 0.0217794 -0.00308832 -0.0143642 -0.0180957 -0.0287215 -0.026108 0.0962121 -0.0151345 -0.0250056 0.0051543 0.0404092 0.00457918 0.014493 0.0174267 -0.0319105
internal_weight=137365 107311 30054 64238.6 43072.2 29665.7 11399.7 19296.9 18654.4 14653.6 28164.9 36073.7 5895.21 13406.5 20285.2 13141.6 23324.1 10368.8 7879.72 5674.76 15298 7472.96 5504.45 5118.77 12749.6 4643.28 5650.13 9534.8 9126.7 4279.83 5512.71 2739.6 9005.74 3155.61 4135.9 4275.73 7825 3839.35 3631.16 1962.06 5493.57 3696.88 1815.83 7849.82 4614.48 2182.94 4352.68 3226.67 2574.38 4608.95 3338.03 6533.63 5161.94 3768.41 2593.07 4718.71 1461.76 1892.1 5182.12 1130.65 1058.88 2864.01
internal_count=1007247 839492 167755 519363 320129 216210 69556 136952 98199 102179 221454 297909 37501 103919 161021 67953 194554 79258 60433 42869 120473 58091 32055 34679 103355 34773 42337 67500 71391 32528 30246 17912 46036 19589 21917 24757 62382 22328 26895 14315 44913 20089 10157 63083 34293 13660 30361 22064 19332 35280 25727 51486 40334 19994 19905 36921 10729 12615 37139 7571 7057 22811
cat_boundaries=0 1 2
cat_threshold=2 16414
is_linear=0
shrinkage=0.05


Tree=5
num_leaves=63
num_cat=5
split_feature=2 34 6 13 1 21 26 13 13 27 1 24 1 7 24 17 21 1 24 21 21 13 27 26 1 21 6 28 26 0 1 27 24 2 23 24 23 7 27 6 1 24 18 7 23 1 0 27 0 29 1 7 1 24 34 26 27 26 23 1 1 26
split_gain=94992.4 8815.17 5451.35 1885.3 1882.08 1608.26 979.791 891.735 635.27 498.699 343.9 389.498 333.849 338.085 305.685 190.625 189.605 177.189 170.845 167.816 167.425 162.342 160.851 158.859 154.978 129.009 128.655 124.075 114.713 114.207 110.564 109.244 108.37 107.388 102.957 100.686 99.3205 88.5287 86.2447 83.9381 79.7286 79.7283 79.5774 77.986 77.305 75.196 79.7302 74.7424 72.3241 70.9837 68.1795 67.0665 65.5634 64.8839 64.6381 62.265 61.5532 60.2419 59.492 59.3447 58.8403 57.1573
threshold=0 26.650000000000002 5.3750000000000009 0.18117204463970107 10.500000000000002 0.053101503759398504 0.10394501037540088 0.095796911923279895 0.21703777008081812 0.18499085688353209 9.5000000000000018 3.2111111111111117 9.5000000000000018 32.735000000000007 3.0500000000000003 0.18544973544973548 0.18808962264150947 8.5000000000000018 4.5634920634920642 0.14415584415584418 0.42462121212121218 0.091081921880400984 0.26247530169630467 0.11567930042601725 1.5000000000000002 0.5147186147186148 5.1150000000000011 0.81826926990258231 0.13259555108002433 1 2.5000000000000004 0.17730296222433137 3.6458333333333335 2 0.33493589743589752 2.5277777777777781 1.0000000180025095e-35 27.110000000000003 0.16524288071249399 6.7750000000000012 1.5000000000000002 4.9500000000000011 0.25168859649122827 20.320000000000004 0.22599846390168973 11.500000000000002 3 0.68265120985328254 4 0.28375406079347487 8.5000000000000018 47.635000000000005 1.5000000000000002 2.5277777777777781 53.000000000000007 0.062160935890518472 0.18993033936816231 0.13830757005686836 0.100561797752809 8.5000000000000018 2.5000000000000004 0.10768376521653496
decision_type=1 10 2 8 2 10 8 10 8 8 2 10 2 2 8 10 8 2 10 10 10 10 10 10 2 8 2 10 10 1 2 10 10 1 10 10 10 2 10 2 2 10 8 2 10 2 1 8 1 10 2 2 2 8 8 10 10 10 10 2 2 10
left_child=2 5 7 12 6 9 16 18 24 15 11 19 13 32 17 -2 35 34 30 31 60 41 -6 37 -4 42 -25 39 59 -19 49 -7 57 48 -8 -5 -22 -13 -37 40 -10 -11 -26 -32 -30 46 -24 -27 -15 -1 -17 -21 -38 -18 -20 -53 -12 -3 -49 -16 -9 -34
right_child=1 3 8 4 22 10 14 20 27 21 56 23 -14 33 28 50 53 29 54 51 36 -23 45 26 25 47 -28 -29 44 -31 43 -33 61 -35 -36 38 52 -39 -40 -41 -42 -43 -44 -45 -46 -47 -48 58 -50 -51 -52 55 -54 -55 -56 -57 -58 -59 -60 -61 -62 -63
leaf_value=0.061743020776624996 -0.049579877774717479 -0.019108164538323671 0.10446978328483802 0.0017823022207446183 -0.032356882179274613 -0.023883293951465344 0.024172454556315424 0.063791865654628188 0.11433785699425805 -0.037101821747925812 -0.042441524084735949 -0.038361513211215038 -0.032070341013578453 0.0021634346831026804 0.0064005742966330341 -0.033454646308600282 0.021955968119885351 0.023896318259989339 0.0053446742501514965 -0.0040521908920744349 0.055145471441139605 -0.028460532378192918 0.001856479134271966 -0.02339340912464255 0.069905673855530037 0.07129290779192618 -0.0011627065810127738 0.10747172536245285 0.0090830022773306842 -0.00089122560851323778 0.022813996812283889 -0.0069567280067432532 -0.034345167949063997 -0.031218136780841593 0.040536967545057798 -0.027787689119436205 0.092609589908783999 -0.026610261259358333 -0.010893564885034195 0.1022649793232656 0.090413593105576312 -0.049384237581954336 -0.0582437699752478 0.039985384494809345 0.024226682633328375 -0.021324882935151689 -0.016720365918787224 0.077381903204038538 -0.01011278448098861 0.035691229912940423 -0.044993357376628428 0.0058060136781900732 0.069100343210426518 0.0013958518566151053 0.031554683947105318 0.040874466309197971 -0.031346152238779887 -0.0048487206568869302 0.091391268000622972 -0.0081080943439053917 0.046405870716320408 -0.022904720719718781
leaf_weight=642.38084608316422 17254.599633470178 2248.1229842677712 642.93409209698439 1175.3195537775755 2106.967762671411 1796.2455894351006 3799.3468565791845 647.72016118466854 376.189408659935 7194.2810928300023 2277.6138940230012 2770.2053154110909 4123.7435390874743 2534.2911769598722 2948.0891271531582 2849.8417347297072 529.9031084254384 838.08337415754795 662.33991953730583 648.01852865517139 1297.0829156190157 5583.2629403248429 947.10542745143175 3351.5398550853133 2315.7317857593298 952.26019835472107 807.65605136007071 3507.0901686251163 2000.8327871337533 1034.8675165325403 1209.8991769552231 2031.1206165105104 1432.4748844131827 371.97575929760933 1286.6298226714134 977.37384562194347 332.60031987726688 3802.8923920914531 3326.9163069874048 3495.2808885276318 4686.9854963421822 1618.4905441999435 12.177944138646124 1458.0644787698984 1455.9486073479056 3052.1401548683643 1480.3154808133841 1096.1104092895985 2266.6400560438633 440.95437134802341 2324.3432290479541 313.06590215861797 2737.4975435882807 1391.0917684212327 364.78470812737942 212.48623193800449 2770.4685868248343 1104.6228190138936 2455.3635923415422 926.23671890050173 1956.977687984705 4590.0591349005699
leaf_count=3865 149830 17622 3263 8720 17077 14460 25600 3643 1851 59964 19310 23061 33521 18705 21013 23501 3713 6000 4394 4815 7417 45299 7198 26860 12426 5076 6070 16994 14178 7463 7843 15663 11644 2955 8403 7728 1761 30593 25024 16995 23226 13806 101 8998 9990 24070 11450 5711 16891 2692 19852 2334 15225 10133 2314 1462 22520 8508 12471 6903 11445 36104
internal_value=-0.000251316 -0.0229333 0.0762471 -0.00709786 0.000819861 -0.0361181 0.00831725 0.0493589 0.0924552 -0.042394 -0.024997 -0.0213536 -0.0195127 -0.0159532 0.0159647 -0.0470557 -0.00644946 0.0234706 0.0327211 -0.0098288 0.0607622 -0.0351313 -0.0206159 -0.0267239 0.081001 0.0787923 -0.0190765 0.099551 0.00883984 0.0103232 0.0376682 -0.0149006 -0.0216149 -0.00569184 0.0283123 -0.0111881 0.0667461 -0.0315628 -0.0147297 0.0963053 0.0921911 -0.0393575 0.0692353 0.0321983 0.0154613 -0.0161013 -0.00953348 0.0837321 -0.00364145 0.0511391 -0.0386381 0.00671202 0.0716472 0.00706732 0.0146532 0.0199846 -0.0363522 -0.0144101 0.0870675 0.00293198 0.0507293 -0.0256259
internal_weight=136846 105555 31290.4 47949.1 29277.2 57606.1 21690.6 11750.3 19540.1 36824.8 20781.3 15733.2 18671.9 14548.2 14290 22428.8 7400.6 6958.93 4778.42 5000.94 6971.88 14396 7586.53 10732.3 7474.58 6831.64 4159.2 12065.5 7331.11 1872.95 3751.3 3827.37 9375.28 5172.91 5085.98 5479.61 4367.18 6573.1 4304.29 8558.46 5063.17 8812.77 2327.91 2667.96 3456.78 5479.56 2427.42 4503.73 4800.93 1083.34 5174.18 1173.57 3070.1 1920.99 1027.12 525.552 5048.08 3352.75 3551.47 3874.33 2604.7 6022.53
internal_count=1007724 840013 167711 360613 214663 479400 154868 69597 98114 312252 167148 125318 145950 112429 99550 193183 55318 47466 30106 38734 39491 119069 59795 86584 39048 35785 32930 59066 52084 13463 23398 30123 73878 38551 34003 41472 24403 53654 32752 42072 25077 73770 12527 16841 24168 42718 18648 23258 35596 6557 43353 8611 16986 13846 6708 3796 41830 26130 18182 27916 15088 47748
cat_boundaries=0 1 2 3 4 5
cat_threshold=2 15027724 28 13911132 4257918
is_linear=0
shrinkage=0.05


Tree=6
num_leaves=63
num_cat=8
split_feature=2 34 13 13 21 26 33 14 27 21 13 27 13 17 26 14 21 14 26 0 24 21 0 24 0 7 13 23 21 26 23 26 27 0 26 22 21 13 26 33 24 15 27 7 34 34 27 24 0 10 26 10 6 0 23 26 14 26 6 26 15 0
split_gain=82944.9 8423.62 4438.76 1712.11 1561.78 941.99 694.192 530.352 498.493 317.247 271.003 236.301 216.66 198.18 171.241 200.239 166.585 166.241 143.656 143.59 142.677 138.979 138.514 136.954 127.286 117.061 115.955 114.348 96.925 92.8237 81.5566 81.2347 77.7238 76.5084 76.4333 73.6468 72.7194 71.3106 68.638 72.7671 67.4264 65.5809 64.3914 64.2981 62.9039 56.6621 55.1616 54.951 54.2469 52.9845 52.8125 51.2358 50.2418 50.1802 49.3082 49.1821 49.0785 47.8792 46.9888 45.4312 48.6933 45.2776
threshold=0 26.650000000000002 0.142609126984127 0.17896784763465087 0.053101503759398504 0.10695304850493335 5.9750000000000005 0.21280868153464927 0.18499085688353209 0.14415584415584418 0.25195324421656601 0.18652596745466324 0.1273067756213824 0.22016949152542376 0.059144024965231849 0.27288845905867187 0.70638945233265737 0.18036001285760209 0.10054890561258729 1 2.4142857142857146 0.20169491525423733 2 3.6125000000000003 3 48.455000000000005 0.21237229644309294 0.46737588652482276 0.37617924528301894 0.10768376521653496 0.35758377425044097 0.46819742312600343 0.68265120985328254 4 0.10839740121573639 23.500000000000004 0.21352583586626142 0.093972346974819612 0.11394595233605982 5.5450000000000008 3.3875000000000006 0.12531407035175882 0.62296594975300157 32.085000000000008 73.65000000000002 68.550000000000026 0.14200931852030754 4.9500000000000011 5 33.705000000000005 0.56410919311643204 36.850000000000009 6.0850000000000009 6 0.028991596638655467 0.11508888802676526 0.33601619433198388 0.10622005907582484 7.4250000000000007 0.094320263070263075 0.38917587538277204 7
decision_type=1 10 8 8 10 8 10 10 8 10 10 10 10 10 10 10 8 8 8 1 8 8 1 8 1 2 10 10 8 8 10 10 10 1 10 2 10 8 10 10 10 10 8 2 10 10 10 10 1 2 10 2 2 1 10 10 10 10 2 10 10 1
left_child=2 4 7 12 8 11 23 21 13 14 19 30 29 37 26 55 31 47 -14 51 -13 41 -9 32 27 59 -6 -12 44 -3 -5 -8 -4 -20 52 43 -22 -2 39 -19 -33 -1 -18 48 -24 53 -39 -10 -23 -31 -25 -7 -17 -43 -30 -16 -36 -27 -29 -11 -61 -51
right_child=1 3 6 5 9 10 16 22 17 25 24 20 18 -15 15 34 42 38 33 -21 36 35 28 50 -26 57 -28 58 54 49 -32 40 -34 -35 56 -37 -38 46 -40 -41 -42 45 -44 -45 -46 -47 -48 -49 -50 61 -52 -53 -54 -55 -56 -57 -58 -59 -60 60 -62 -63
leaf_value=-0.020148613242692744 -0.051518229425481489 -0.033794054969134332 0.064001747102535894 -0.025879361557891185 -0.040692599325680028 0.0053133806718626475 0.070127493587832199 0.039989620479930453 -0.038038213026908144 -0.025060857791129751 0.016840357289786081 0.0087636103716227948 -0.025201693228348677 -0.034559601337495992 -0.034979332338162333 -0.025154741383189089 0.075467374135647816 -0.035806412942895285 -0.0056469541350513 -0.0028969717197453331 -0.012205611192070451 0.017714140069944834 0.044164109865011875 0.056396035415770776 0.0074183949440221296 -0.0011679548295076964 -0.026488489418466744 0.034149005571518093 0.053093484088667486 -0.025815597756542092 -0.0070274414834395355 0.089289155871446604 0.077973681985355925 -0.015980483749026605 -0.015517317200419951 0.051759544383567495 0.00095158461079383478 -0.047902878135479887 -0.02403652359659263 -0.020580988123656791 0.078182664837971039 0.031972310737915698 0.09641707937383831 0.091658411378235327 0.071758184749419085 0.062129732612911583 -0.039883196670355725 -0.049420190755400502 0.036050323973897763 -0.010407758280720282 0.072923420932894598 0.017005313519687447 -0.010475355879066738 0.0077335439740183216 0.067500337474121735 -0.025686666317580889 -0.00021638184485209489 0.026915954269922149 0.071738141909125919 -0.02637322237451302 -0.006790746039702417 -0.022980776696949742
leaf_weight=128.08030827343464 8773.3998967707157 2076.5698850303888 1271.4576145857573 2706.9273907095194 3072.8132794201374 2955.6003379672766 918.20940056443214 2301.855008020997 3775.5372215509415 910.16596930474043 3994.7009468078613 1337.7670479863882 2076.0566599145532 3085.4163070619106 2570.5719840452075 2270.5686401948333 391.21445766091347 4714.9587197080255 4039.0562879517674 6102.6456069424748 4716.2520820051432 786.07740126550198 1652.585351139307 1788.603835016489 3927.6556610390544 720.00544647872448 2698.6926748380065 458.46146515756845 911.82682059705257 3508.8812345042825 727.99474609643221 4622.5934244394302 4583.782260030508 3266.5493641272187 1245.9878343045712 481.07304053008556 1351.0127995610237 6641.1416068822145 3122.0090814232826 941.45474373549223 1940.0290079712868 296.85564081370831 5873.7565447241068 41.089501604437828 236.02908708155155 67.183206677436829 3166.5563618168235 1474.5882522687316 1029.6227262765169 1505.203867547214 662.35420554876328 1371.9436331540346 784.21499041467905 777.8912236392498 1703.4103802740574 3191.8346509188414 904.53531076014042 192.29816856235266 101.55686705559492 413.26639764010906 1369.1795366629958 1480.309900008142
leaf_count=955 79364 17233 6613 21828 26664 21184 4592 13137 32523 7316 27847 9794 16811 26469 21729 18478 1904 39754 31020 44556 35937 4845 9539 9337 27824 5495 22427 3155 5124 28127 5687 21905 22805 25287 9832 2904 9908 59329 25940 7734 9375 1883 27238 230 1324 415 28058 13061 6270 12065 3376 9832 6198 5007 9285 26268 6938 1362 690 3348 10491 11874
internal_value=-0.000263524 -0.022091 0.0694719 -0.00665122 -0.0352385 0.000706704 0.082198 0.0425895 -0.0415401 -0.024182 0.0074422 -0.0110448 -0.0188454 -0.0462946 -0.0270795 -0.023411 0.0890941 -0.0341969 -0.0135952 0.00204468 -0.00601692 0.027092 0.0508052 0.0707858 0.0140792 -0.0107274 -0.0340509 0.0197633 0.0561194 -0.0245921 -0.0218839 0.0840569 0.0749397 -0.010297 -0.0163027 0.0343249 -0.00927587 -0.0482432 -0.0299876 -0.0332723 0.0860059 0.0137775 0.0951089 0.0298078 0.0476127 0.0175826 -0.0453136 -0.041235 0.0284081 -0.0216498 0.0608624 0.00899923 -0.0213863 0.014798 0.0624773 -0.0298321 -0.00908156 0.00475166 0.0409656 -0.015972 -0.011331 -0.0167537
internal_weight=136210 103744 32465.6 47705.1 56039.2 29752.5 22052 10413.6 35695.1 20344.1 18912.6 10840 17952.6 21666.5 16739.2 10967.7 13745.8 14028.5 9381.66 10430.2 7405.03 3607.87 6805.71 8306.2 8482.37 3604.92 5771.51 4554.72 4503.85 8570.96 3434.92 7480.83 5855.24 7305.61 5205.31 2337.86 6067.26 18581.1 8778.42 5656.41 6562.62 1270.01 6264.97 1856.79 1888.61 1141.93 9807.7 5250.13 1815.7 6494.4 2450.96 4327.54 3054.78 1074.75 2615.24 5762.41 2150.52 912.304 560.018 2692.61 1782.45 2985.51
internal_count=1007500 839437 168063 360659 478778 218242 107145 60918 312232 166546 135088 83154 142417 193220 138534 89443 65014 119012 73118 75572 55639 22509 38409 42131 59516 28012 49091 31692 25272 69299 27515 35872 29418 56307 41446 14249 45845 166751 73428 47488 31280 8260 29142 11345 10863 7305 87387 45584 11115 52066 12713 31016 24676 6890 14409 47997 16770 6857 3845 21155 13839 23939
cat_boundaries=0 1 2 3 4 5 6 7 8
cat_threshold=2 4475996 10503198 12928636 4315772 12731606 22978560 22135900
is_linear=0
shrinkage=0.05


Tree=7
num_leaves=63
num_cat=4
split_feature=2 34 14 13 1 21 26 14 21 27 1 7 1 17 27 13 26 17 1 7 26 14 26 15 26 0 26 27 23 26 18 1 15 26 21 17 14 15 35 23 0 26 23 21 14 13 1 21 10 1 1 1 27 0 1 26 21 23 26 27 1 33
split_gain=73980.6 8003.37 3930.03 1667.08 1790.69 1404.2 746.846 558.859 496.779 464.34 334.012 336.674 295.673 356.286 267.606 248.952 189.551 175.819 165.41 152.372 151.648 147.453 145.137 152.476 144.448 130.582 130.345 121.966 121.611 118.494 116.2 115.649 114.109 108.05 106.232 92.7952 89.3343 83.1803 82.6462 79.598 79.4784 74.8326 72.3308 71.813 71.7337 68.1124 65.5831 65.1485 63.4331 60.5801 57.7764 56.9729 56.6212 56.4242 56.3096 55.3821 54.9459 54.6685 52.3883 51.5434 51.0837 50.9681
threshold=0 25.300000000000004 0.31785512603316396 0.18221280602636539 9.5000000000000018 0.053101503759398504 0.089640002321161746 0.39714615358512345 0.31622807017543864 0.18499085688353209 9.5000000000000018 31.920000000000005 9.5000000000000018 0.20106382978723406 0.28472382453981443 0.26617337308860139 0.062160935890518472 0.22068372803666922 11.500000000000002 23.345000000000002 0.46819742312600343 0.23872420807904682 0.093648829168631167 0.43276082362769674 0.13259555108002433 1 0.11394595233605982 0.15951693982709023 0.17875939849624065 0.10768376521653496 0.16154545454545458 1.5000000000000002 0.12531407035175882 0.57832122257811192 0.48435972629521024 0.27858476862419596 0.2477270848830482 0.10661202185792351 2.0500000000000003 0.053101503759398504 2 0.46819742312600343 0.062114197530864203 0.73827838827838843 0.2371337761297421 0.24190637009432867 11.500000000000002 0.16247642991829042 40.205000000000005 9.5000000000000018 2.5000000000000004 1.5000000000000002 0.14200931852030754 3 1.5000000000000002 0.065608727409815992 0.15849282296650721 0.28140169902912626 0.5513995373738505 0.20684226539629635 9.5000000000000018 5.5750000000000011
decision_type=1 10 10 8 2 10 8 10 8 8 2 2 2 10 8 10 10 10 2 2 10 10 10 10 10 1 8 10 8 10 10 2 10 8 8 10 10 8 8 10 1 10 10 8 8 10 2 10 2 2 2 2 10 1 2 10 8 10 10 10 2 10
left_child=2 5 8 10 6 9 27 34 32 17 11 29 13 22 46 24 38 44 25 42 -9 37 -7 -24 47 45 59 -5 -17 -3 43 -21 -1 -33 -4 -29 -31 -11 -15 -34 -30 -36 -10 54 -2 -16 56 -8 -26 -19 -39 -43 -46 -28 -22 -14 -6 -40 -56 -13 61 -23
right_child=1 3 7 4 14 12 15 20 19 21 -12 26 55 16 18 28 -18 49 -20 31 30 60 23 -25 48 -27 53 35 40 36 -32 33 39 -35 41 -37 -38 50 57 -41 -42 51 -44 -45 52 -47 -48 -49 -50 -51 -52 -53 -54 -55 58 -57 -58 -59 -60 -61 -62 -63
leaf_value=-0.01963923144692472 -0.050900191509417186 -0.030989325780015904 0.05485477062540705 -0.021728996328118293 -0.027033778209389792 -0.03302815240186923 -2.3640193134612192e-05 0.068040986864305361 0.027149941416781277 -0.049498970734149765 -0.030640411255336442 -0.030540592551320675 -0.041125029968379967 0.016801791966888774 -0.004234364322871313 0.0091579549871473268 0.0051249753530299182 -0.028975319794849682 -0.019800819832985001 0.07492699431651384 0.10001270197879129 -0.026282055418713562 -0.026645874707856204 -0.010151623256938375 0.01452712905984295 -0.012150982210929525 0.0056517167749968074 -0.0097360911236199256 0.016837240169166517 -0.024075909560648062 0.074830368228781322 0.046353183176905267 0.020835911213128069 0.066499361631437215 0.052812802086438709 0.0080446644111646145 -0.012716755137656376 -0.028625596047013202 -0.02561322326625326 0.035462893215357116 0.032295609117263015 0.087755812909911787 0.045442870694247184 0.091567767726086075 -0.047241821946794667 0.014426906180377348 -0.034321366098581864 0.010779071882346053 0.031152876155069405 -0.043974094144251318 -0.038383787787719816 0.069026913215464045 -0.038776672352652232 -0.0062326504085202638 0.077411879428432306 -0.029934620053489559 -0.01049424514667238 -0.0099429239655931777 0.086662999571788635 -0.011682087954878705 -0.035766265427913418 -0.010224743019942466
leaf_weight=134.32542295753956 8699.4814056307077 2221.7371124699712 1919.6310483217239 1247.1819267421961 1379.1412689164281 3957.6380472630262 3011.5573394820094 1749.902819365263 1032.0313847213984 1259.8135545030236 4318.7298110201955 462.01602526009083 2123.5795150324702 170.3383010327816 936.14257648587227 1137.8365300670266 1632.7711987867951 1859.4061797633767 2700.3804006949067 519.88324178755283 452.06740142405033 2824.0203448906541 3906.3531441539526 2184.7521326243877 3120.0246563777328 2241.4174507409334 1935.7783705070615 2018.7191564515233 1290.3812040984631 3103.0524822250009 2895.4065892994404 3663.6428297460079 2118.7010052502155 813.2899215221405 656.00633406639099 1152.8115705251694 3914.2217694669962 2120.0333809927106 1378.4725686013699 1657.9379676729441 2860.8798636198044 450.37185338139534 1134.3031943887472 3858.343458250165 6217.8401322364807 1023.6509854793549 1614.5874093770981 2601.0933116748929 702.97551453113556 1055.3105899319053 5331.7162241563201 4126.4731932729483 2895.1502670124173 2042.1366437375546 3279.3715823292732 2306.573062106967 789.65923050045967 933.4740908741951 2869.307379886508 1679.1875569447875 1121.8564710393548 599.0133091956377
leaf_count=1010 81743 18829 9777 9979 11517 34289 21450 8396 6017 11551 36397 3842 18984 1302 7124 7717 12258 16056 21491 2666 2060 23871 32878 17222 21180 17281 14311 15535 8557 25496 13365 19856 13009 4298 3358 8633 31012 18548 11433 9815 18575 2108 6319 17245 57582 7480 13474 18144 4742 9599 46883 20101 26466 15281 15084 19416 6222 7535 13075 13051 9709 4878
internal_value=-0.000366503 -0.0214846 0.0642992 -0.0070588 0.000393405 -0.0350716 0.00954594 0.0764291 0.0399784 -0.0411158 -0.0183557 -0.0149012 -0.0240249 -0.0204987 -0.0160045 0.014956 -0.0081065 -0.0457899 -0.0101459 0.0478035 0.0818812 -0.0338076 -0.0255734 -0.0207297 0.0100884 -0.00394 -0.00580474 -0.00848221 0.0236396 -0.020926 0.0836948 0.0526051 0.0256464 0.050013 0.0649155 -0.00327301 -0.0177398 -0.0376165 -0.0168098 0.0272571 0.0276089 0.0686062 0.0367282 0.0861487 -0.0476527 0.00548491 -0.0266917 0.0049827 0.0175843 -0.0344058 -0.0356076 0.0708699 -0.0445525 -0.000450805 0.0829812 -0.0352987 -0.0210117 -0.0192862 0.081729 -0.0157513 -0.0265068 -0.0234721
internal_weight=135414 102083 33331 49505.3 29828.4 52577.6 19143.5 22256.9 11074.1 33983.6 19676.9 15358.1 18594 14163.8 10685 14724.7 4115.06 20727.2 6901.59 7163.15 15104.4 13256.5 10048.7 6091.11 9435.65 4201.21 6119.12 4418.71 5289.1 9239.01 13354.5 4996.82 3910.96 4476.93 7152.48 3171.53 7017.27 8711.56 2482.28 3776.64 4151.26 5232.85 2166.33 10459.1 17812.5 1959.79 3783.39 5612.65 3823 2914.72 7451.75 4576.85 9112.99 3977.92 6600.75 4430.15 2168.8 2311.95 6148.68 2141.2 4544.89 3423.03
internal_count=1007082 839523 167559 377320 219101 462203 134512 104569 62990 306886 158219 121822 155317 116917 84589 100365 32528 191446 53376 39156 69225 115440 84389 50100 65516 31885 46485 34147 34849 75337 60829 26820 23834 24154 35344 24168 56508 76982 20270 22824 27132 25567 12336 47464 165791 14604 31213 39594 25922 25655 65431 22209 84048 29592 30219 38400 17739 18968 28159 16893 38458 28749
cat_boundaries=0 1 2 3 4
cat_threshold=2 8736348 20486400 4771964
is_linear=0
shrinkage=0.05


Tree=8
num_leaves=63
num_cat=9
split_feature=2 34 6 6 21 27 21 27 21 13 21 21 13 7 24 0 13 0 24 28 23 27 27 24 0 24 27 24 23 27 7 27 23 10 24 21 0 24 10 23 0 27 21 24 32 7 0 29 22 24 23 14 18 32 18 0 24 35 18 32 0 10
split_gain=65658.4 7597.85 3401.15 1531.85 1327.09 810.007 553.558 445.5 380.978 312.549 275.385 225.276 207.238 190.295 185.447 159.661 151.722 144.321 140.156 139.994 128.578 118.186 117.975 108.676 102.193 102.032 98.8115 97.3109 92.8989 91.711 83.123 79.0538 71.1871 70.3392 70.172 67.8204 64.2436 63.7458 60.8853 59.6068 57.3145 57.0347 56.2986 54.4572 52.8887 51.5941 51.4888 51.3776 51.2942 50.3648 49.8118 48.9096 47.7719 47.5415 46.3903 46.3751 45.5658 43.2914 42.0342 41.018 40.5296 39.0471
threshold=0 25.300000000000004 5.4150000000000009 5.5250000000000012 0.053101503759398504 0.27692979170188053 0.39173060528559256 0.18993033936816231 0.62593283582089565 0.24190637009432867 0.14415584415584418 0.20169491525423733 0.13009641248828849 34.815000000000005 4.2111111111111121 1 0.091081921880400984 2 3.2928571428571431 0.34452526518428345 0.10557275541795667 0.20684226539629635 0.20684226539629635 2.8819444444444451 3 2.683333333333334 0.17461487676625218 2.5277777777777781 0.048003072196620589 0.31623009900697924 27.635000000000002 0.64823345957212386 0.47413024085637828 36.315000000000005 4.9500000000000011 0.26726190476190481 4 3.8166666666666669 35.395000000000003 0.33493589743589752 5 0.15657643494989523 0.48435972629521024 3.4142857142857146 56.500000000000007 24.255000000000003 6 0.23139664432878262 9.5000000000000018 2.4142857142857146 0.34807034684904742 0.44054403746033705 0.20440000000000005 53.500000000000007 0.15587456293706317 7 2.2678571428571432 2.0500000000000003 0.16134831460674195 52.500000000000007 8 39.755000000000003
decision_type=1 10 2 2 10 8 10 8 8 8 10 8 10 2 10 1 10 1 10 10 10 8 10 10 1 8 10 10 10 8 2 8 10 2 10 8 1 10 2 10 1 10 10 10 8 2 1 8 2 8 10 10 8 10 8 1 10 8 8 10 1 2
left_child=2 4 6 12 7 11 14 13 24 17 18 19 29 41 28 32 34 59 26 50 45 -14 -20 57 42 47 51 -21 55 -3 -24 -27 48 60 -9 52 -31 61 -19 -15 -30 -2 -4 -17 -26 -8 -37 -10 -11 -13 -5 -6 -16 -33 -28 -1 -50 -12 -29 -7 -23 -22
right_child=1 3 8 5 10 9 20 16 25 15 23 49 21 39 35 43 -18 38 22 27 37 33 30 -25 44 31 54 58 40 36 -32 53 -34 -35 -36 46 -38 -39 -40 -41 -42 -43 -44 -45 -46 -47 -48 -49 56 -51 -52 -53 -54 -55 -56 -57 -58 -59 -60 -61 -62 -63
leaf_value=0.015810132021536877 -0.049824004513769928 -0.032210488587651603 0.05927406044327909 -0.028770384951674572 -0.034228156684633561 0.0018402141666860796 0.031786185230189203 -0.034746813635539255 0.095681349921984626 0.0087423775222072678 0.028769493252990511 0.018120864409818093 -0.033325037381441949 -0.039245799697595209 0.013361714354441038 0.0082637375753000387 -0.025488960183574091 -0.009557828920949793 -0.037025586522873376 0.0014419964863634051 0.057553629700812049 -0.020337070464555553 -0.030045466785487057 -0.015917895227815147 0.054516736842816028 0.05978653178183 -0.0048112834613932651 -0.011296791674821456 0.051236842460870492 -0.0095973696735284844 -0.018272301895371334 0.070325843555620784 0.035784383081009327 -0.0044479214935351299 -0.047273331645702174 0.013432159463704994 -0.023282746811799041 0.046558033684793484 0.00052659509859164671 -0.024636901261732971 0.033847370643013623 -0.042908376946629682 0.073108858501034643 -0.0039625624566111605 0.071838827318890533 0.046224864152428539 0.036951556520640694 0.08089865917396917 0.03666950139784432 -0.00079641415915381009 -0.011365200752215355 -0.01985423624764936 -0.013226926899854838 0.078456451149546996 -0.018209585068541503 0.032693353095849975 0.017724385911862369 -0.00041686582965016496 -0.021501208993118498 0.010964317565254473 -0.010895162311539636 0.073207483812616728
leaf_weight=703.7006800621748 10319.191454678774 2551.7165996059775 973.61191496253014 1978.5203991532326 1173.8725737705827 2904.8393581360579 857.56893816590309 6244.154481805861 694.15845741331577 1464.6161741763353 152.66684395074844 467.21624209731817 664.17804248631001 5376.5422339960933 904.50710106641054 4821.6922231838107 4603.4053169339895 3860.6796652302146 3549.0696141272783 1233.5496409907937 1822.6805318146944 1982.2187041640282 4029.4015992954373 2312.4604464173317 3465.9388947188854 889.66301447153091 1055.4446538686752 3456.9688154011965 1010.6094731241465 1085.000874184072 2387.6407698243856 2814.8583577722311 524.67699784785509 2482.2569653913379 1361.8384419977665 480.02037291228771 5183.7050558626652 1142.2002981305122 2444.4451911821961 802.44476997107267 1372.8868028670549 4192.7050528004766 3004.798854380846 1122.8569212630391 504.84452031552792 2221.3057632744312 531.33778463304043 3835.0290753245354 371.41777033358812 1424.8351250737906 518.873131044209 1193.5372079610825 207.73374743759632 4976.4927229434252 1665.573732316494 1260.3160416334867 2181.6325933635235 757.24846310913563 1425.2382068112493 2138.6757826432586 2916.7949675023556 509.79144386947155
leaf_count=4118 100236 22021 4735 16716 10536 21287 4782 56273 3018 10111 1115 3350 5706 49871 5711 34029 39738 28919 32021 9346 9098 15721 34957 18695 16613 4184 8588 27077 5578 8938 19653 12733 3494 19493 12902 2797 42999 5881 18285 7291 7663 40143 13846 8055 2326 11572 3030 16844 2516 10593 4210 10229 1379 21909 13783 7265 14899 5803 11324 15279 22738 2543
internal_value=-0.000354812 -0.0207362 0.0594851 -0.00670976 -0.0342265 -0.000338931 0.0394004 -0.0402277 0.0718763 0.00514965 -0.0234239 -0.0117472 -0.018926 -0.0446971 0.0290271 0.0113726 -0.0326535 -0.000600762 -0.0262634 -0.0151789 0.0496433 -0.0131228 -0.0297106 -0.010158 0.0632273 0.0770807 -0.0195117 -0.0111054 0.0349428 -0.0242193 -0.0256649 0.0739067 0.0184229 -0.0113049 -0.0369897 0.0169163 -0.0209665 0.0562358 -0.00563924 -0.0373486 0.0415775 -0.047826 0.0695483 0.00594433 0.0565766 0.0422032 0.0262867 0.0831643 0.0162015 0.00387495 -0.0251542 -0.0269815 0.00839574 0.075519 -0.0130126 0.0268911 0.0204805 0.00448006 -0.0142757 0.00569794 -0.0147793 0.060975
internal_weight=134568 100384 34184.1 49206.6 51177.2 32340.7 13024.7 32900.3 21159.4 21835.5 18276.9 10505.2 16865.9 20690.9 6471.11 10486.9 12209.4 11348.6 15054.5 8613.15 6553.55 8045.45 9966.11 3222.38 7949.19 13210.2 5088.43 6115.76 4347.51 8820.42 6417.04 8681.01 4542.34 7381.27 7605.99 2123.6 6268.71 3474.67 6305.12 6178.99 2383.5 14511.9 3978.41 5944.55 3970.78 3078.87 1011.36 4529.19 4017.67 1892.05 2497.39 2367.41 1112.24 7791.35 2721.02 1964.02 2553.05 909.915 4882.21 5043.52 4899.01 2332.47
internal_count=1006565 838940 167625 377106 461834 239490 71417 306454 96208 156874 155380 82616 137616 197541 37541 73104 108913 83770 129767 68673 33876 63658 86631 25613 37520 58688 43136 47747 24624 73958 54610 38826 31020 57952 69175 12917 51937 17522 47204 57162 13241 140379 18581 42084 18939 16354 5827 19862 27526 13943 20926 20765 7090 34642 22371 11383 17415 6918 38401 36566 38459 11641
cat_boundaries=0 1 2 3 4 5 6 7 8 9
cat_threshold=2 12600956 12602492 28129696 32796 21997120 14829086 8537622 20329730
is_linear=0
shrinkage=0.05


Tree=9
num_leaves=63
num_cat=2
split_feature=27 34 6 21 1 21 14 1 14 33 26 21 26 1 24 24 17 26 26 14 21 21 6 24 23 23 26 26 1 6 14 27 32 1 0 23 27 13 7 28 23 1 1 1 27 27 1 15 7 23 26 27 28 1 1 15 34 8 7 3 24 0
split_gain=58426.2 7185.01 2951.4 1591.76 1153.36 1135.23 592.67 523.623 567.013 498.374 440.186 377.097 333.884 257.288 301.106 235.833 182.372 158.162 156.541 130.55 128.277 128.156 121.171 121.129 116.249 112.92 110.504 96.4291 89.0733 85.0684 79.7297 79.3115 89.8716 78.6304 115.829 78.2449 77.4203 75.4818 75.0883 74.5347 73.0286 72.496 69.1288 67.9763 80.8926 67.3523 66.3953 66.335 63.6069 60.6606 59.9854 59.722 59.5541 58.0977 56.1731 54.3758 54.2949 53.2033 52.7959 51.5614 51.068 50.2721
threshold=0.52041666666666686 24.050000000000004 5.1950000000000012 0.13840996168582378 10.500000000000002 0.050252525252525264 0.38794545035174727 9.5000000000000018 0.32612591553685527 5.9750000000000005 0.069729238763651266 0.35067567567567576 0.099762436800288928 9.5000000000000018 3.3541666666666674 2.5634920634920637 0.18127053669222346 0.11245253055582696 0.11508888802676526 0.22898979810230438 0.5147186147186148 0.13840996168582378 4.955000000000001 3.3166666666666669 0.028991596638655467 1.0000000180025095e-35 0.54558174159722539 0.11394595233605982 8.5000000000000018 6.2350000000000012 0.2477270848830482 0.26247530169630467 53.500000000000007 7.5000000000000009 0 0.28345771144278614 0.17588040362066748 0.12633479004370132 12.375000000000002 0.79532704890529327 0.09699820788530468 1.5000000000000002 11.500000000000002 8.5000000000000018 0.34211628317023718 0.14200931852030754 1.5000000000000002 0.10661202185792351 26.750000000000004 0.23117408906882594 0.083354135463471465 0.16524288071249399 0.81603479307640658 3.5000000000000004 2.5000000000000004 0.10661202185792351 68.800000000000026 6.6750000000000007 59.625000000000007 49.500000000000007 3.8819444444444451 1
decision_type=10 10 2 8 2 10 8 2 10 10 10 10 10 2 10 10 8 8 8 10 10 10 2 10 10 10 10 10 2 2 10 8 10 2 1 10 10 10 2 10 8 2 2 2 10 8 2 8 2 10 10 10 10 2 2 10 8 2 2 2 10 1
left_child=1 5 11 7 6 10 22 8 17 20 16 24 35 14 21 43 45 -3 50 47 55 36 -5 57 38 -13 40 48 -18 -6 -19 -9 -33 49 -35 51 -7 53 -2 -27 -11 -22 -31 44 -8 -1 -42 -12 -16 -20 -17 -10 -43 -29 -26 -4 -40 -14 -23 -28 -56 -32
right_child=2 3 9 4 29 13 15 31 12 26 19 25 23 -15 27 18 28 30 33 -21 41 58 -24 -25 54 39 59 37 -30 42 61 32 -34 34 -36 -37 -38 -39 56 -41 46 52 -44 -45 -46 -47 -48 -49 -50 -51 -52 -53 -54 -55 60 -57 -58 -59 -60 -61 -62 -63
leaf_value=-0.049422510818786194 -0.0034426731278489327 -0.029942592506771018 -0.025389056700924437 -0.016130977486937158 -0.025011620209679421 -0.022674745919652087 0.021802764825181065 -0.034176950439913555 -0.029104900767365573 0.055412921614190251 -0.047578426744251119 0.032910951740236671 0.007803889447963887 -0.034815831321208211 -0.036787095672408253 -0.0085939947656337688 -0.029576003850932144 -0.022141006543826836 0.012759350827935795 -0.0232225982261412 0.078877159648989004 0.00025649743105883512 -0.00067153508998189098 -0.0036282981169074033 0.042406857204229022 0.040095846502957874 0.076862225644807325 -0.014493007879269505 -0.043212212183624983 -0.0043013805740836882 -0.0040278077036313611 -0.027512392733433408 -0.011180799343109119 -0.0069222239273280433 0.016780529536781143 -0.0032057238668028107 -0.0079376287795734288 -0.006421028381550762 0.017101107830794226 0.053613712629376031 0.087493580171903063 0.055109221589099568 -0.018490222098416664 0.012605288264593596 0.03998586013112785 -0.042758780922019186 0.067490571712130076 -0.033233913678079784 -0.025479764789482828 0.024787046764347679 0.0055353264393876115 -0.013570647842189526 0.06702820018467652 -0.030338417302539573 0.034963027563717226 0.048548321541648988 0.041393079520452215 0.023368110293149419 0.033596473557064327 0.062624500044470871 0.017775701322889616 -0.016363475329229646
leaf_weight=9172.1415283381939 402.32131268084049 2974.7976910546422 25.057590693235397 1805.4640209078789 2322.2634644135833 1708.7507431656122 1545.9451331272721 2672.3746820986271 842.84809908270836 1198.5918428227305 945.90715992450714 2075.6880225092173 2498.2082859650254 4010.9694179818034 2197.2233019173145 1042.1561661660671 2720.683144852519 2796.0594086050987 2214.8104081004858 3393.5551085546613 487.61366558074951 1035.865957275033 4254.0107884407043 2402.6783841475844 808.46531372517347 1932.5061202943325 6250.3539159744978 979.11697047203779 2139.1710331588984 1449.0130308642983 1556.2678592652082 3217.7158871293068 1141.1089355945587 901.86223036050797 1183.6188496127725 1318.0374353528023 1862.6374012753367 838.3979589343071 1845.0499559268355 2158.9154563546181 444.00153176486492 3499.3000934720039 2106.1884043812752 840.22516505420208 1012.1155392751098 6464.3787441551685 6317.5541820898652 5447.3179457262158 2866.0094937607646 1990.3371673449874 2690.3946095705032 2326.7263296544552 1496.110962241888 1413.7766624689102 871.56911342591047 3263.5078802406788 262.78599482029676 703.73465328663588 134.11772198230028 707.91282131522894 857.29972664266825 1805.8555802404881
leaf_count=92664 2647 26113 171 14833 19089 15012 10197 23762 7221 5358 9282 11090 17770 36482 20297 8203 25075 23821 15015 29862 2165 7849 31913 17681 4440 9986 26953 8484 20663 11025 12488 27573 9154 6387 8098 10380 15223 6693 10964 10831 1923 16214 17008 5891 6314 63692 27751 50418 25165 12858 19032 18457 6762 12316 4835 15863 1484 4741 954 3101 5071 14595
internal_value=-0.000371974 -0.0199925 0.0552467 -0.00709014 0.00184452 -0.0340629 0.0077016 -0.0157192 -0.0114491 0.0652502 -0.0398727 0.0341151 -0.00328058 -0.0237419 -0.0203345 0.0135615 -0.0440383 -0.0204756 0.00970226 -0.0311489 0.0557925 -0.0102837 -0.00527779 0.00485725 0.0239805 0.0424098 0.0708111 -0.0260799 -0.0355783 -0.0175688 -0.0159024 -0.0273949 -0.0232369 0.0145155 0.00657759 -0.013444 -0.0149887 -0.0193314 0.0163515 0.0472288 0.0667877 0.0604752 -0.0127072 0.0249442 0.028997 -0.0466676 0.0688041 -0.0353563 -0.0303867 0.0184522 0.00159031 -0.0177015 0.0586789 -0.0238548 0.0315277 0.0479849 0.0201296 0.0112247 0.00407833 0.0754137 0.0264403 -0.0107142
internal_weight=133849 98944.8 34904.6 51614.8 25358.4 47330 19480.9 26256.4 19225.2 23690 30283.2 11214.6 10092.2 17046.9 13035.9 13421.5 20496.4 9132.98 10023.2 9786.78 8771.59 4741.37 6059.47 5604.62 5047.49 6167.11 14918.4 8294.52 4859.85 5877.46 6158.18 7031.2 4358.82 6290.63 2085.48 4487.61 3571.39 3231.29 2510.16 4091.42 7960.15 5483.02 3555.2 3398.29 2558.06 15636.5 6761.56 6393.23 5063.23 4205.15 3732.55 3169.57 4995.41 2392.89 2537.33 3288.57 2107.84 3201.94 1169.98 6958.27 1728.87 3362.12
internal_count=1007359 839750 167609 399619 185863 440131 138741 213756 153267 106261 291656 61348 76250 148475 111993 91995 202094 77017 69593 89562 41175 39038 46746 40192 29441 31907 65086 72955 45738 47122 50904 60489 36727 42358 14485 36058 30235 27493 15095 20817 35032 25141 28033 22402 16511 156356 29674 59700 45462 27873 27235 25678 22976 20800 14346 16034 12448 22511 8803 30054 9906 27083
cat_boundaries=0 1 2
cat_threshold=22712738 22073404
is_linear=0
shrinkage=0.05


Tree=10
num_leaves=63
num_cat=7
split_feature=2 34 33 21 21 1 14 1 14 21 6 26 26 1 24 24 13 27 14 26 24 21 6 26 13 6 26 0 1 24 24 1 24 27 1 1 3 17 6 24 0 27 24 13 0 24 0 26 1 1 6 27 14 21 28 1 26 13 1 0 1 0
split_gain=52403 6889.33 2557.59 1456.04 1138.29 1060.64 556.87 505.206 530.936 422.894 397.746 378.307 290.497 267.994 334.686 221.39 154.702 143.26 141.616 129.757 129.707 124.041 123.761 120.048 118.021 112.436 108.258 106.244 99.3235 87.2754 87.12 86.9314 85.762 85.0667 81.9664 81.6393 80.9767 75.7389 72.6466 72.3998 68.6885 67.0296 66.0851 64.7169 62.4426 61.3061 59.375 58.6319 57.6262 57.5482 58.9986 56.231 55.9825 52.7951 52.7808 51.2595 49.558 49.0169 48.9892 76.6962 48.6911 48.2874
threshold=0 24.050000000000004 5.3850000000000007 0.13840996168582378 0.041960093896713617 10.500000000000002 0.38474190283400816 8.5000000000000018 0.32943456452348385 0.39173060528559256 6.1450000000000005 0.067971860828384134 0.099762436800288928 9.5000000000000018 3.2111111111111117 2.8452380952380958 0.11091269841269842 0.22427521918594351 0.1967542300348937 0.10054890561258729 3.3875000000000006 0.12613636363636366 4.8150000000000004 0.11245253055582696 0.070730893844101403 4.955000000000001 0.13004770681168329 1 8.5000000000000018 3.3541666666666674 3.8660714285714293 1.5000000000000002 3.4142857142857146 0.17339127095438459 8.5000000000000018 9.5000000000000018 48.500000000000007 0.26705426356589151 6.1850000000000014 3.0500000000000003 2 0.34456156916265307 3.683333333333334 0.13097837388230404 3 5.6833333333333345 4 0.1567363449418939 4.5000000000000009 10.500000000000002 5.8150000000000004 0.14354649064599126 0.36068501170960193 0.71132478632478646 0.74863629150632771 11.500000000000002 0.048922867722704162 0.16232066362956418 3.5000000000000004 5 1.5000000000000002 6
decision_type=1 10 10 8 10 2 10 2 10 10 2 8 10 2 10 10 10 8 10 10 8 10 2 8 10 2 8 1 2 10 10 2 10 10 2 2 2 10 2 10 1 8 10 10 1 10 1 8 2 2 2 10 10 8 10 2 10 10 2 1 2 1
left_child=2 4 9 7 11 6 25 8 23 18 20 16 39 14 21 28 -2 -17 40 43 60 33 -21 -3 -13 -5 49 -12 41 -14 54 -22 -25 -6 42 38 61 -7 51 -10 -1 -8 -19 -16 -30 -33 -36 -27 -26 50 -9 -18 -28 -29 -11 -39 -15 -35 59 -34 -4 -20
right_child=1 3 10 5 13 37 15 26 12 30 27 24 29 56 19 17 35 34 36 22 31 -23 -24 32 48 47 52 53 44 -31 -32 45 58 57 46 -37 -38 55 -40 -41 -42 -43 -44 -45 -46 -47 -48 -49 -50 -51 -52 -53 -54 -55 -56 -57 -58 -59 -60 -61 -62 -63
leaf_value=0.029341696429411243 -0.048294602748131632 -0.027722742102370065 0.076188587936841815 -0.015744622748985453 -0.022415443650359055 -0.021926126872432273 0.019113102887763179 -0.028710789385205271 -0.0039353755982081094 0.032655703317869093 0.058532279290046542 -0.037151795243701838 0.012867301697055224 -0.041927238661069489 -0.03705093109266349 -0.016178205614072086 -0.042337941225653576 0.015846873804343558 0.027202337317015865 -0.025047460601719598 0.069157158537624316 0.0042092193892992492 -0.0075744246421957182 -0.0035345195636062054 -0.018673825382487359 -0.0029603391621630965 -0.022325852827672604 0.066794320516242206 -0.0027803252645089618 -0.00085655506911338553 0.035319795403804886 0.046169871958398438 -0.02413474620913492 -0.014289889100784601 0.0089422208492864474 -0.045875835052628898 0.019641079296440989 -0.0016912206697182548 -0.024318658659889487 -0.017712502964031276 0.010086633769187933 0.031860482305960093 0.0037722443197589512 -0.025773145124816623 0.018089277342825172 -0.048048000397424871 -0.0093921416268538723 0.015674295454136671 -0.030248832987542936 -0.032146919581418236 -0.015112345918372492 -0.030780334873891976 -0.0073809745168287536 0.074163051316523829 0.04997559756024772 -0.01635518552637923 -0.030764407196677303 0.0031224227408135109 -0.022965712287436435 -0.0034822559216324865 0.058060477075221398 0.04144454887189658
leaf_weight=632.98072514683008 9588.9263459965587 2624.2132451012731 403.08607663214207 1812.1564250662923 1630.3193871229887 3296.7360040470958 2511.563254095614 1862.5505441725254 1771.9630391672254 507.43000335991383 3534.3164971470833 4401.2900530472398 2774.4529959857464 1517.1223947927356 2457.9878448471427 587.18596806377172 3104.8394461423159 4016.1789671480656 1331.1377010494471 3348.0013053268194 438.73085600137711 1245.3253387957811 1453.3247623741627 1305.1891941726208 1790.4884779527783 3626.3007069826126 1375.0479804351926 5104.2545937821269 626.30731816589832 1988.9141482263803 2283.6634690314531 4266.5032322853804 766.7277800142765 875.72358972579241 898.9484740421176 2958.6765487343073 1217.3285228013992 1010.8283610194921 1133.7380431815982 2064.7196373268962 1816.4471897408366 1749.6669128388166 1578.5665962919593 2636.5410107821226 831.21646171063185 17.335557579994202 848.80339674651623 477.72566957771778 2691.8502454981208 3460.3838003352284 1395.0666677057743 1592.0190995410085 1151.2734433934093 4640.9455359876156 3303.866748675704 1452.0163046419621 2885.0172603875399 750.61294706165791 2369.040884360671 1096.4739373251796 4569.5024250298738 1523.2190509736538
leaf_count=3733 100212 23514 1753 15053 14711 27195 16565 16255 14072 2545 15338 42675 19319 14880 23552 4743 31506 27072 7206 29989 1950 9380 11885 10577 16141 27385 11826 21847 4472 14629 11690 19830 6484 7454 6394 30101 6654 7733 10597 17001 11017 10799 10847 23827 5782 139 6214 3487 24652 30855 11442 15561 9000 19445 15960 11882 26466 5991 19946 9242 20538 8102
internal_value=-0.000266023 -0.0192402 0.0516465 -0.00664475 -0.0332804 0.00188898 0.00744094 -0.0149547 -0.00977932 0.0335735 0.0615934 -0.0398076 -0.00111029 -0.0238153 -0.0205144 0.0129947 -0.0439026 0.00758681 0.0247234 -0.0256562 0.053894 -0.00921211 -0.0197585 -0.018914 -0.0313359 -0.0053715 -0.0243388 0.0672147 0.0204934 0.00713699 0.0430424 0.0479596 -0.0147395 -0.0143443 0.00948732 -0.0391111 0.0304383 -0.0169704 -0.0356784 -0.0113496 0.0152235 0.0243472 0.01244 -0.0312144 0.00922651 0.0457886 3.54826e-05 -0.000791191 -0.0256251 -0.0276568 -0.0228873 -0.0384204 -0.0155153 0.0702315 0.0476697 -0.0103366 -0.0346115 -0.00625348 -0.018195 -0.0121292 0.05953 0.0350432
internal_weight=132983 97392 35590.7 51330.2 46061.8 25324.2 19564.6 26006 16761.7 12616.1 22974.7 27261.8 8600.05 18800 14397.8 13648.4 18378.2 7929.68 6521.11 9895.85 9695.16 4501.98 4801.33 8161.65 8883.63 5916.18 9244.32 13279.5 5718.75 4763.37 6094.96 4722.57 5537.43 3256.66 7342.5 8789.27 4071.69 5759.58 5830.6 3836.68 2449.43 4261.23 5594.75 5094.53 1457.52 4283.84 1747.75 4104.03 4482.34 6718 3257.62 4696.86 2526.32 9745.2 3811.3 2462.84 4402.14 1626.34 4232.24 1863.2 4972.59 2854.36
internal_count=1007112 839365 167747 399785 439580 185623 138813 214162 134784 66907 100840 271445 65021 168135 126789 92888 187977 55270 36712 89253 44210 37536 41874 69763 83468 45925 79378 56630 37618 33948 30195 21919 46249 28156 50527 87765 21962 46810 57664 31073 14750 27364 37919 47379 10254 19969 12608 30872 40793 58552 27697 47067 20826 41292 18505 19615 41346 13445 35672 15726 22291 15308
cat_boundaries=0 1 2 3 4 5 6 7
cat_threshold=2 1098780 18653440 19574930 6647380 14970146 11684894
is_linear=0
shrinkage=0.05


Tree=11
num_leaves=63
num_cat=10
split_feature=2 21 7 34 1 14 26 32 27 21 24 34 27 7 1 1 7 0 26 23 23 17 23 1 0 1 21 21 13 13 14 23 17 1 17 7 27 26 0 17 24 24 13 26 0 1 26 0 0 10 1 28 1 0 1 26 21 7 23 0 0 10
split_gain=46477.8 6551.76 2421.69 1488.76 1178.17 1241.98 556.317 401.181 354.143 326.58 324.379 308.422 289.505 323.389 224.825 192.79 181.062 152.229 147.828 146.436 142.704 141.145 124.299 120.783 106.962 101.936 97.4533 95.0183 93.9631 90.8007 86.4544 82.0034 74.4253 70.2834 75.3048 66.7691 66.2289 66.1908 66.0969 65.7417 65.5063 65.2148 63.2029 61.2304 60.5902 60.0619 59.8198 59.8147 56.0828 52.4668 52.0899 52.0789 51.952 51.7547 51.0356 49.251 46.965 46.2903 45.8315 44.0656 42.913 42.8115
threshold=0 0.084039548022598873 32.420000000000009 16.650000000000002 8.5000000000000018 0.32943456452348385 0.092153342468402344 52.500000000000007 0.18237481188021851 0.39173060528559256 3.3541666666666674 34.750000000000007 0.17730296222433137 37.315000000000005 10.500000000000002 9.5000000000000018 29.755000000000006 1 0.11943850533840071 0.30044247787610628 0.28647416413373866 0.075614636935391666 0.028991596638655467 4.5000000000000009 2 9.5000000000000018 0.71132478632478646 0.54616477272727282 0.22986188357434187 0.10736359155196604 0.38794545035174727 0.10367218987908645 0.26705426356589151 10.500000000000002 0.22068372803666922 47.32500000000001 0.34211628317023718 0.12023338828827516 3 0.23562458691341706 5.4722222222222232 2.5857142857142863 0.39751526167775569 0.11344171176323935 4 3.5000000000000004 0.064619719897039976 5 6 41.355000000000011 10.500000000000002 0.53155550620920733 1.5000000000000002 7 2.5000000000000004 0.55452995346027134 0.25962962962962971 44.265000000000008 0.36425061425061428 8 9 36.715000000000011
decision_type=1 10 2 10 2 10 10 8 8 10 10 8 8 2 2 2 2 1 10 10 10 10 10 2 1 2 8 8 10 10 10 10 10 2 8 2 8 8 1 10 10 10 10 8 1 2 10 1 1 2 2 10 2 1 2 10 10 2 10 1 1 2
left_child=2 3 9 8 5 18 20 27 16 22 19 33 28 23 17 37 -2 30 -3 35 46 43 38 24 -14 39 55 40 -5 -20 -13 -11 60 34 -6 59 -26 -15 -1 -18 54 -21 -22 -10 -24 -23 -7 -25 -12 -31 -30 -32 -29 -33 -4 -9 -19 -47 -28 -8 -16 -43
right_child=1 4 7 12 11 6 10 26 21 31 48 14 13 15 32 -17 25 56 29 41 42 45 44 47 36 -27 58 52 50 49 51 53 -34 -35 -36 -37 -38 -39 -40 -41 -42 61 -44 -45 -46 57 -48 -49 -50 -51 -52 -53 -54 -55 -56 -57 -58 -59 -60 -61 -62 -63
leaf_value=0.0060212135550471455 -0.047520139016981773 -0.022493662273172395 0.055810864187562904 -0.03726898324935659 -0.024394497327644524 -0.018171506695974157 0.015882765467161244 0.055511310751096145 -0.041787171364619451 0.032039348926678368 0.0093986026205762942 -0.0077470236422486809 -0.02553729903574093 -0.0048910697241977032 -0.013769022921541516 -0.021265657102640216 -0.03654310516351255 -0.014455284399909585 -0.017918942067938468 0.036889208133063289 0.0029120265541932601 -0.018096514395740528 0.019316277084456372 -0.020123757407177228 -0.016465149317885213 -0.045253875054523218 0.064234339434049478 0.068767075425134702 -0.017294124067535683 -0.0067122978231244626 0.0031932703123594254 0.034294198391113639 -0.0098244650576197103 -0.029354942861599127 -0.008347659221545305 0.020698601713790288 -0.0011698631551233317 0.010655830210056873 0.02103139431008769 -0.023533361720276938 -0.055700811839458741 0.016094954823473541 0.047115685541322103 -0.030812879331919958 0.033706042837029694 -0.030627069440073942 -0.0045703995427903241 -0.029998941262353238 -0.0010135595364738599 0.011372309252750278 -0.038463117381712791 0.020306939363953516 0.051956405107706709 0.050117866590659491 0.041404444989961348 0.063626912215159523 0.0037354648439673109 -0.0032011815208664177 0.073638927103377466 0.0053968416413328483 -0.025293251241619571 0.032357811629351189
leaf_weight=1360.2631131857634 10004.301133617759 3568.9452443495393 746.66534884274006 3115.8404038175941 2116.056529738009 1897.9015769511461 1902.8777726367116 4943.7134477645159 3175.5082317218184 2629.0697019547224 2126.0479883402586 778.48116898536682 1922.7385999858379 2040.2954792827368 1385.9279262423515 1558.657097324729 3549.8961403518915 2036.1813345849514 1867.6736510694027 1163.5684767216444 1779.9728754684329 1688.6902329698205 1308.5884286910295 2598.9711259976029 1752.6657865718007 2590.1123652607203 4654.4083456546068 504.22526496648788 1215.6206840276718 2680.2717582210898 842.4957374855876 1085.8315955549479 2412.831790164113 3137.481992714107 1117.0650142803788 2508.9586311653256 1187.0930455178022 1030.3566025793552 1654.555478900671 1336.7010485678911 16.556284241378307 1176.3784715980291 84.713529296219349 2119.2872974574566 2079.7525619119406 3590.6081534102559 1408.2833074405789 4688.8157816901803 3279.1649561747909 471.62802374362946 381.89090763777494 941.13833136111498 5192.0687529742718 1730.9509958326817 3479.732141032815 3006.2524690330029 429.70430144667625 160.74141140282154 1795.0878024995327 2180.9148819223046 2331.1302515417337 616.88366267085075
leaf_count=7976 108497 31713 3421 30511 18377 15987 13031 21207 31957 13292 14813 6246 17071 16210 11511 13965 36522 15690 16142 7006 13717 15675 7189 23206 15627 27278 19384 2140 10885 21572 6178 5297 19410 28293 9112 16069 10209 7365 9477 12562 138 7553 602 20790 11122 33991 10829 42376 23507 3783 3744 6427 22809 8157 16206 12673 3069 1450 7424 15070 19820 3921
internal_value=-0.00036468 -0.0185757 0.0479137 -0.0311793 -0.00503145 0.00120413 0.00799716 0.0569518 -0.0387314 0.0293892 0.0128853 -0.0152462 -0.021265 -0.0181894 -0.0102347 -0.00694397 -0.0431211 -0.00239805 -0.0147141 0.0184255 -0.00614006 -0.0315832 0.021734 -0.022474 -0.0163709 -0.0372348 0.0622851 0.0492252 -0.032214 -0.00918286 0.00613155 0.0383902 -0.0166626 -0.0240237 -0.0188502 0.014279 -0.0102539 0.000325689 0.0143486 -0.0329844 0.0435607 0.0276708 0.00492022 -0.0373946 0.0283052 -0.025927 -0.0123781 -0.026546 0.0030974 -0.00400624 -0.0223546 0.0122233 0.0534445 0.0443177 0.0439496 0.0585802 -0.0112398 -0.0294519 0.0668519 0.010335 -0.0211015 0.0216894
internal_weight=132139 95951.5 36187.7 49708.8 46242.7 28714.2 20125.7 24338.7 28215.8 11849 14954.8 17528.5 21492.9 16779.6 11157.9 4629.31 17481 5028 8588.52 9549.58 5170.87 10734.8 6403.16 12150.3 4862.5 7476.71 14399.5 9939.25 4713.35 5019.57 2562.12 5445.85 6129.89 6370.6 3233.12 6592.75 2939.76 3070.65 3014.82 4886.6 4242.95 2956.83 1864.69 5294.8 3388.34 5440.04 3306.18 7287.79 5405.21 3151.9 1597.51 1783.63 5696.29 2816.78 4226.4 7949.97 2465.89 3751.35 6449.5 4083.79 3717.06 1793.26
internal_count=1007251 839339 167912 479891 359448 215315 142105 105402 288722 62510 100970 144133 191169 146029 88351 37540 184859 37610 73210 62650 41135 103863 35764 108489 42907 76362 60688 44714 45140 41497 18851 26746 50741 55782 27489 44170 25836 23575 17453 49084 19765 18480 14319 52747 18311 51116 26816 65582 38320 25355 14629 12605 24949 13454 19627 33880 18759 35441 26808 28101 31331 11474
cat_boundaries=0 1 2 3 4 5 6 7 8 9 10
cat_threshold=2 15027740 15492384 10700438 3162174 12862492 20989148 9454686 4342590 12862556
is_linear=0
shrinkage=0.05


Tree=12
num_leaves=63
num_cat=9
split_feature=2 34 13 13 1 21 26 6 28 1 7 1 24 26 26 24 6 17 14 0 26 6 1 0 24 24 26 23 23 18 7 26 0 1 0 6 21 24 0 13 35 27 23 1 26 10 10 23 26 1 1 0 27 1 10 0 24 6 27 0 18 23
split_gain=42137.2 6155.89 2166.4 1222.51 1119.88 1103.77 493.464 453.153 397.574 396.425 359.176 244.524 298.695 212.141 202.165 194.518 171.026 159.851 142.817 137.207 129.516 130.777 118.282 113.565 102.007 95.3262 94.475 94.2312 89.5431 87.0963 84.0694 82.5712 82.3974 80.2864 75.8275 68.3238 65.6777 65.6107 65.0276 64.413 64.0358 63.512 62.9769 62.4156 62.208 58.1384 56.2588 55.8269 54.8406 54.0748 53.3105 53.1882 52.0778 51.8439 51.0726 50.4576 50.3909 49.9907 49.8985 48.3053 47.2038 45.9588
threshold=0 24.050000000000004 0.1746856421318462 0.19925505646033906 9.5000000000000018 0.046693313953488379 0.082057087540898729 4.6550000000000011 0.35417646597679531 9.5000000000000018 30.395000000000003 9.5000000000000018 3.0500000000000003 0.096677633111495784 0.10148455606690397 3.3166666666666669 6.4650000000000007 0.18127053669222346 0.067994187966448724 1 0.10054890561258729 4.9750000000000005 11.500000000000002 2 3.4722222222222228 3.0500000000000003 0.11508888802676526 0.30044247787610628 0.053101503759398504 0.17097744360902276 34.660000000000004 0.05782777591911082 3 1.5000000000000002 4 6.1150000000000011 0.25962962962962971 3.5277777777777781 5 0.10124019884179779 2.1500000000000008 0.68265120985328254 0.09699820788530468 8.5000000000000018 0.13004770681168329 38.775000000000013 36.005000000000003 0.17416582406471184 0.11293788078676863 3.5000000000000004 11.500000000000002 6 0.15951693982709023 2.5000000000000004 37.295000000000009 7 2.4142857142857146 3.1350000000000002 0.18652596745466324 8 1.0000000180025095e-35 0.44519519519519524
decision_type=1 10 10 8 2 10 8 2 8 2 2 2 10 8 8 8 2 10 8 1 10 2 2 1 10 8 10 10 10 8 2 10 1 2 1 2 10 10 1 10 8 8 10 2 10 2 2 8 10 2 2 1 10 2 2 1 8 2 10 1 10 10
left_child=2 5 7 9 6 8 25 19 17 10 26 12 31 -12 50 27 32 57 -10 36 30 53 34 -9 46 52 -3 38 -21 -20 -14 40 54 -25 61 -33 -1 -35 -8 -28 -7 -18 -34 -19 -11 -29 -15 -17 -31 55 56 -49 -5 -22 -4 -26 -6 -2 -13 -48 -39 -16
right_child=1 3 16 4 14 11 15 23 18 44 13 58 20 24 22 47 41 43 29 28 21 -23 -24 33 49 -27 39 45 -30 48 -32 35 42 37 -36 -37 -38 60 -40 -41 -42 -43 -44 -45 -46 -47 59 51 -50 -51 -52 -53 -54 -55 -56 -57 -58 -59 -60 -61 -62 -63
leaf_value=0.019894976231838789 -0.051900877294543152 -0.02568746761178797 0.042171128787640066 -0.011346736134066155 0.0013111467964536635 0.021396355845092422 0.0066894186014214005 0.026061300094124606 -0.044435455497847637 -0.030162363201032757 -0.018758700993455859 -0.038603072406322825 -0.033206515927325465 0.00052937003995650147 0.0033585326868702152 -0.0032339506720677272 0.052372536507386984 -0.028390117790119348 -0.022482380780042849 0.010480262974260215 -0.012770794063136677 -0.0033245331132818624 -0.016112269481863877 0.056705864830772439 -0.015205537434351235 -0.017279563189214416 -0.020150812088089248 0.01971716121312346 0.024035128454301165 -0.036333409169822514 -0.020314716095881057 -0.0041316261977359338 0.046885237508491627 0.044072247212765786 -0.0081717708360181922 0.0187145809758325 0.039699646506263175 -0.05412016219173376 0.017334667677461859 -0.0095716397106805646 -0.015432701868737471 0.062805732327797667 0.058490033435018574 -0.04134881408233404 -0.019010101490342587 0.03455715517849324 0.02223705363020078 0.015383696043247533 -0.026071791966912679 -0.010930150037081334 -0.030663550387197164 0.0015204104312408861 0.0055381240591010827 -0.025809509713897949 0.053958966641808374 0.0071100614242100308 -0.02125489932702003 -0.044188760535932847 -0.027358848961381674 0.0038877918300996555 0.034818833546108451 0.031255120033235946
leaf_weight=618.82699917256832 2717.2452035173774 2857.0867694243789 3024.5249243080616 723.87861610949039 297.67772294580936 127.98959375917912 2396.6052648499608 1647.7495179176331 1609.5215509608388 3483.0604648962617 2016.2340192273259 1878.3886909857392 3188.084988951683 2630.5805932432413 1466.8258681073785 1598.9587006941438 1791.1817528158426 2098.5196137577295 3797.8884543627501 2467.9983535259962 1104.7522862702608 1315.8281000182033 2435.4113996326923 759.26026246696711 327.30939079076052 1552.2753734514117 2727.8610497936606 2558.5180347561836 2406.2914192527533 3342.5702027827501 2095.9953599870205 939.39281357079744 1535.1086976081133 3793.0636458396912 2122.2903985157609 502.20406749099493 1293.9522368907928 14.987317286431788 3736.291085883975 3044.8774552941322 1516.2954687848687 7857.9686020463705 4903.1542538553476 1667.5957535430789 1950.7633371204138 889.41921693831682 691.47954215109348 1384.8137070909142 2132.7477815821767 2440.6873025968671 1344.1151012703776 1392.4908932596445 1237.1024738326669 2459.9477101191878 1319.8733269870281 1008.7734333500266 1464.398920789361 9269.3125896081328 2078.3709923923016 765.15388306230307 3260.3727933764458 164.16439238935709
leaf_count=3591 30904 26536 13106 5972 2503 974 15934 8021 17294 32183 17274 19384 31500 19366 11004 11307 7573 20829 36858 14146 10055 10645 20368 3426 2571 13012 24153 15911 12702 33388 19088 7697 6620 17556 16663 3646 6632 134 24261 25400 13442 32286 20711 17854 17152 5476 5012 9334 20766 18875 12287 9690 9488 22653 5712 7769 12887 103439 19547 5637 15792 1184
internal_value=-0.000287991 -0.0179372 0.0451822 -0.00607638 0.00126649 -0.0316598 0.00872654 0.0315769 -0.0380364 -0.0142845 -0.0107987 -0.0217894 -0.0185323 -0.00428932 -0.0127552 0.0129426 0.0560332 -0.0431138 -0.0306869 0.0217151 -0.0226686 -0.016796 -0.00753103 0.0386407 -0.000579539 -0.00802249 -0.0182512 0.0169319 0.0171367 -0.0283006 -0.0280928 -0.00490774 0.0517058 0.0412028 -0.00196288 0.00382723 0.0331192 0.0395958 0.0132139 -0.0145707 -0.012566 0.060869 0.0556366 -0.0341281 -0.0261587 0.0235452 0.00489454 0.0042088 -0.0323363 -0.00650357 -0.0231636 0.00849376 -0.000694771 -0.0217686 0.0456473 0.00158266 -0.0174427 -0.045937 -0.0326968 0.0127777 0.0344119 0.00612884
internal_weight=131246 94551.8 36694.3 50709.1 26765.2 43842.7 17470.4 16262.5 26635.4 23943.9 18510 17207.3 13250.5 9880.22 9294.88 13957.1 20431.8 15752.7 10882.7 6787.07 10164.6 4880.53 6188.69 9475.43 7863.98 3513.26 8629.83 9580.83 4874.29 9273.21 5284.08 3085.88 10782.7 7827.68 3753.28 1441.6 1912.78 7068.42 6132.9 5772.74 1644.29 9649.15 6438.26 3766.12 5433.82 3447.94 4087.21 4376.26 5475.32 3776.77 3106.19 2777.3 1960.98 3564.7 4344.4 1336.08 1762.08 11986.6 3956.76 1456.63 3275.36 1630.99
internal_count=1007180 839172 168008 399209 197281 439963 120385 82000 281332 201928 152593 158631 119700 76504 76896 91913 86008 173026 108306 37071 93941 43353 49219 44929 59230 28472 76089 61582 26848 91012 50588 25759 46149 36908 28851 11343 10223 33482 40195 49553 14416 39859 27331 38683 49335 21387 30015 30331 54154 29215 27677 19024 15460 32708 18818 10340 15390 134343 38931 10649 15926 12188
cat_boundaries=0 1 2 3 4 5 6 7 8 9
cat_threshold=2 17601280 16406 7390238 10831388 28807296 8538076 10766080 4350174
is_linear=0
shrinkage=0.05


Tree=13
num_leaves=63
num_cat=9
split_feature=2 21 33 34 6 26 14 27 27 7 6 26 21 17 17 6 24 14 0 26 0 24 23 24 26 0 7 26 0 32 17 7 0 26 23 18 3 23 14 10 17 10 3 26 23 23 24 0 22 0 26 23 24 23 33 3 23 0 16 10 10 27
split_gain=37779.8 5825.02 2031.94 1380.34 952.124 619.285 319.684 302.959 300.602 323.484 280.946 213 207.122 195.511 150.432 141.034 105.324 102.747 98.2957 96.6226 93.188 92.6235 90.9301 89.8247 87.618 85.6819 80.5569 79.4089 74.7236 74.4315 68.6329 66.254 61.3393 60.6544 58.6804 58.2776 58.0026 56.6847 56.5165 52.8698 48.2156 47.0306 45.4501 45.2853 44.9249 44.0492 43.9397 43.1811 41.6562 40.2323 39.4482 39.3647 38.8622 38.8115 38.6472 37.5694 37.2283 36.6931 36.2059 36.1537 35.8485 34.9733
threshold=0 0.084039548022598873 5.4650000000000007 15.750000000000002 5.5250000000000012 0.10695304850493335 0.252451215995386 0.17091341758737907 0.18799502316203365 29.435000000000006 5.9850000000000012 0.11394595233605982 0.20169491525423733 0.21767001114827203 0.24683341350008017 2.8850000000000002 4.2928571428571436 0.45469208211143702 1 0.11245253055582696 2 3.8452380952380958 0.10557275541795667 2.683333333333334 0.064619719897039976 3 27.475000000000005 0.060532165932583211 4 55.500000000000007 0.31158186076218869 11.160000000000002 5 0.11508888802676526 0.13367697594501721 0.14019607843137263 44.500000000000007 0.46211251435132039 0.24173220144784127 40.665000000000006 0.17792998477929986 40.435000000000009 48.500000000000007 0.12562929272681614 0.2251760563380282 0.21081871345029243 3.6125000000000003 6 37.500000000000007 7 0.043889682290048804 0.27315608919382511 4.1055555555555561 0.4770979020979022 6.495000000000001 41.500000000000007 0.39415279556124633 8 47.500000000000007 40.205000000000005 42.755000000000003 0.64823345957212386
decision_type=1 10 8 10 2 8 10 8 8 2 2 10 10 10 10 2 10 10 1 8 1 10 10 10 10 1 2 10 1 10 8 2 1 10 10 10 2 10 10 2 10 2 2 10 10 10 8 1 2 1 10 8 8 10 8 2 10 1 2 2 2 10
left_child=2 3 6 7 11 12 16 13 17 43 28 27 23 38 25 -9 32 50 51 40 37 34 47 44 -25 41 33 -3 -4 52 -14 -18 58 -17 -13 -20 61 -16 -2 -29 -11 -7 -33 -10 -6 -37 -30 -8 -34 -38 -5 -12 -21 59 -15 -27 -56 -31 -1 -22 -57 -24
right_child=1 4 10 8 5 14 22 15 9 19 18 21 30 54 20 26 31 -19 35 29 53 -23 36 24 -26 55 -28 39 46 57 -32 42 48 -35 -36 45 49 -39 -40 -41 -42 -43 -44 -45 -46 -47 -48 -49 -50 -51 -52 -53 -54 -55 56 60 -58 -59 -60 -61 -62 -63
leaf_value=0.0098525088589292605 -0.048403486227222695 -0.03621693081908587 0.036836544272991815 -0.039495058292501155 -0.013615478798530084 0.0037237557701769899 0.021305483627736072 -0.044394132072911152 -0.027461681815524105 -0.020889195649757407 0.042221544148007432 -0.011879971554005372 -0.003312970697064749 -0.033136257316631494 0.013997101059861978 -0.035433181923784078 -0.0081034278258103574 -0.018698606543147433 0.062424715036466231 -0.0051946396065909572 0.0024613460964381302 -0.016772948830853094 0.030667018165181054 -0.022525630770625971 -0.010676205582635019 0.00040855875905962988 -0.021563320081994738 -0.022864342297965037 0.051511469102177222 -0.0015347351681808336 0.012813752346465543 0.019510380511541109 0.027247906533303473 -0.025374106182858652 -0.0015372811553582806 0.050886612622917618 0.040402555487607746 0.032636346083505595 -0.041532398069154222 -0.0078843635938692699 -0.010033530910470023 0.016044632578274886 0.0033355830208117092 -0.019870511949799011 0.00019667497510863797 0.05837842056021697 0.040522727256018042 0.033474922199365112 0.049035175993331966 0.020920609284013555 -0.029970479913699694 0.052862899833926974 -0.020928482666424362 0.018075109300887522 -0.024706090528785765 -0.010946640916276132 0.005620990862328 0.025040993747159658 0.024390414548158178 0.013418598819721451 0.0089666572218314363 0.046091094807447525
leaf_weight=915.64325170218945 6086.8912290856242 972.74848621338606 3102.8743671625853 1862.0369928181171 909.6160281598568 4366.5458518266678 1442.2342225164175 1754.9976888746023 4529.5022683367133 2046.6010130122304 1899.5807682201266 2670.360628798604 1648.8076246231794 1694.3560491278768 3414.8033824488521 4260.9297082871199 378.26127029955387 1470.2030735462904 4145.9910930022597 3123.7532794997096 3942.7859541773796 3737.6186883971095 436.73734386265278 2722.4863931909204 3653.7184835374355 2911.5151520743966 2646.1070518419147 3560.0767434835434 2942.2611410319805 243.20451615005732 1099.8392213657498 1447.1213544756174 2251.1603668779135 2311.6140088662505 2819.3005468174815 3474.1545919179916 584.86778199672699 463.22825537621975 5887.2742617726326 705.78603194653988 2044.8246461227536 941.53654184937477 620.54467200487852 3469.479538589716 1668.7487537264824 4507.8033985197544 1316.8624163791537 1970.966478407383 243.0776204764843 653.32690097391605 2612.2028479501605 1601.9786883443594 448.85585305094719 595.54439982771873 508.75098370760679 1788.7942220419645 126.319072522223 277.08897660672665 804.59684605896473 930.47702699899673 258.69311503320932 2318.8247498571873
leaf_count=4977 71675 9586 13822 19458 7421 31241 7027 19604 43570 18555 8016 22299 12451 17582 22872 44644 2405 13855 16915 25569 27463 32085 2081 24725 29362 21550 25952 32189 12608 1796 8006 8010 11836 23053 22878 14371 2671 2953 66414 6358 17379 6692 3510 31919 13216 18444 5850 9424 1245 3040 26438 6683 3784 4031 5114 13434 1244 2027 4298 6472 1930 10478
