tree
version=v4
num_class=1
num_tree_per_iteration=1
label_index=0
max_feature_idx=44
objective=binary sigmoid:1
feature_names=venue race_no lane age weight class_i nat_win nat_in2 loc_win loc_in2 motor_in2 boat_in2 r_n365 r_win365 r_top2_365 r_top3_365 r_n90 r_win90 r_avg_st180 r_f365 r_lane_n365 r_lane_win365 r_venue_n365 r_venue_win365 r_avgpos10 r_makuri365 v_lane_win365 v_lane_top2_365 v_lane_top3_365 v_makuri365 v_water v_tide f_noryoku f_win f_lane_in2 f_lane_strank ex_time ex_rank ex_diff wind wave rt_class rel_nat_win rel_nat_rank rel_motor
feature_infos=-1:6:2:12:8:23:18:1:13:5:9:16:10:3:14:11:4:17:22:15:20:7:24:19:21 [1:12] -1:3:1:6:4:5:2 [16:77] [40:67] -1:2:4:3:1 [0:9.3800000000000008] [0:87.5] [0:9.8800000000000008] [0:94.120000000000005] [0:91.670000000000002] [0:100] [0:355] [0:1] [0:1] [0:1] [0:101] [0:1] [0.02:0.63] [0:4] [0:147] [0:1] [0:137] [0:1] [1:6] [0:1] [0:0.91666666666666663] [0:1] [0:1] [0.0625:0.5] -1:2:0:1 [0:1] [0:76] [0:9.3300000000000001] [0:100] [0:6] [6.25:8.5399999999999991] [1:6] [0:1.0199999999999996] [0:18] [0:40] [0:4] [-5.375:4.0716666666666672] [1:6] [-48.248333333333335:72.916666666666671]
tree_sizes=7076 7091 7033 7073 7090 7095 7115 7143 7076 7081 7097 7074 7104 7145 7103 7081 7118 7148 7131 7167 7136 7152 7149 7159 7152 7153 7193 7151 7163 7159 7133 7127 7138 7184 7103 7172 7179 7118 7145 7188 7143 7070 7142 7157 7129 7141 7064 7155 7115 7123 7121 7125 7173 7118 7119 7116 7094 7152 7103 7121 7081 7066 7109 7110 7083 7093 7075 7169 7099 7121 7122 7070 7067 7071 7055 7026 7108 7067 7117 7088 7071 7089 7091 7102 7188 7086 7070 7109 7071 7052 7099 7049 7035 7087 7061 7104 7056 7034 7098 7047 7047 7118 7159 7076 7052 7102 7063 7060 7021 7113 7072 7041 7076 7064 7084 7159 7045 7050 7092 7047 7007 7052 7084 7058 7064 7090 7084 7029 7065 7058 7096 6998 7053 7098 7047 7021 7042 7075 7067 7023 7035 7058 7075 7067 7061 7033 7026 6989 7057 7031 7012 7048 7010 7012 7063 7128 7052 7151 7038 7044 7047 7062 7129 7020 7012 7030 7054 7000 7009 7062 6989 7175 7049 7024 7015 7060 7011 7052 6982 7075 7028 6977 7006 6910 7001 7027 7050 7003 6994 7016 6981 6995 6997 7033 6962 7008 7095 6973 7023 6959 6984 6964 7040 6966 7037 7029 7016 7053 7059 6983 6962 6971 6928 7004 6915 6975 6946 7019 6984 7059 7011 6896 6983 6972 7039 6917 6960 6989 7012 6941 6984 6928 6944 7015 6987 7012 6982 6953 7004 6917 6933 7101 6994 7037 7004 6952 6936 6931 6969 6974 6951 6930 6932 6961 6949 6944 6927 7005 7042 7008 6996 6985 7024 6895 6948 6915 6946 7000 7081 6906 6983 6965 6957 6914 6936 6966 7045 6904 6975 6904 6957 6923 6955 6957 6945 7012 7021 6912 6913 6944 6865 6979 6922 7013 6974 7009 6903 6897 6949 6881 6977 6946 6873 6950 6960 6949 6943 6932 6942 6939 6941 6985 6968 6945 6997 6948 6976 7007 6948 6968 6931 6983 6972 6923 6944 6950 6882 6965 6979 6887 6929 6937 7015 6903 6998 6969 6955 6899 6971 6971 6876 6882 6845 6968 6853 6934 7013 6957 6889 7021 6946 6966 6908 6902 6949 6962 6892 6935 6958 6936 6970 6982 6918 6875 6940 6867 6917 6932 6948 6964 6946 6943 6895 7000 6942 6939 6978 6920 6896 6924 6957 6969 6912 6950 6977 6983 6978 7025 6896 6976 6951 6941 6938 6910 7007 6861 6863 6930 6858 6952 6921 6968 6985 6894 6897 6986 6887 6962 6872 6925 6939 6905 6879 6927 6958 6966 6965 6936 7000

Tree=0
num_leaves=63
num_cat=7
split_feature=34 42 2 2 42 36 2 42 42 36 42 42 36 38 42 42 42 37 38 36 2 36 2 28 42 42 27 42 15 37 42 37 42 42 2 27 26 42 37 2 37 42 37 42 28 36 37 33 42 42 42 27 42 42 37 27 15 37 33 37 28 28
split_gain=92931 28169.1 18296.5 10894.3 10624.7 7151.3 5782.56 5182.13 4071.13 4017.82 3271.37 2661.01 2565.91 2200.25 1872.56 1830.4 1499.66 1403.58 1067.18 1022.97 996.256 848.47 837.029 722.889 681.17 674.361 659.605 652.432 549.043 515.417 459.735 416.728 412.102 408.336 404.106 401.525 395.749 349.816 321.657 319.533 306.215 303.959 297.103 261.529 214.243 209.282 200.451 200.315 193.608 193.24 188.772 187.044 181.71 180.547 179.375 173.304 159.355 145.837 141.379 140.4 140.181 138.23
threshold=33.600000000000001 -0.084166666666666487 0 1 0.40500000000000075 1.0000000180025095e-35 2 0.95000000000000073 -0.11916666666666663 1.0000000180025095e-35 -1.0825000000000002 -1.2249999999999992 6.3750000000000009 0.6000000000000002 1.2516666666666676 0.63500000000000012 -0.26166666666666644 3.5000000000000004 0.6000000000000002 1.0000000180025095e-35 3 1.0000000180025095e-35 4 0.30595525649873484 1.6083333333333341 -2.0674999999999986 0.21267164718451484 0.54000000000000037 0.42526050059082615 3.5000000000000004 0.51666666666666694 3.5000000000000004 1.2316666666666671 -2.1808333333333323 5 0.45674603174603179 0.4025250455373407 0.32500000000000068 2.5000000000000004 6 4.5000000000000009 -0.74166666666666681 4.5000000000000009 -0.46999999999999925 0.37619948357653282 7.5150000000000006 2.5000000000000004 5.285000000000001 -0.52749999999999975 -0.50499999999999956 0.80833333333333413 0.3055730699173323 -0.44833333333333297 -0.77166666666666617 3.5000000000000004 0.33131865391930387 0.42136598120274188 3.5000000000000004 6.0950000000000006 4.5000000000000009 0.52283751882293894 0.74194269721276485
decision_type=10 2 1 1 2 10 1 2 2 10 2 2 10 8 2 2 2 8 8 10 1 10 1 10 2 2 8 2 8 10 2 10 2 2 1 10 10 2 10 1 8 2 8 2 10 8 10 10 2 2 2 8 2 2 10 8 10 10 10 10 8 10
left_child=1 3 5 11 13 -2 7 19 28 -6 25 33 -8 16 26 29 34 35 39 -3 38 -9 37 48 54 56 -11 47 53 55 -24 50 -17 -1 41 43 42 -21 -18 -19 49 -4 -27 60 -22 -42 -16 -10 -13 -25 -28 -31 61 -7 -23 -14 -5 -43 -29 -46 -12 -41
right_child=2 6 4 10 9 8 12 21 27 14 17 23 15 -15 46 32 20 18 -20 22 44 24 30 40 -26 36 31 58 -30 51 -32 -33 -34 -35 -36 -37 -38 -39 -40 52 45 57 -44 -45 59 -47 -48 -49 -50 -51 -52 -53 -54 -55 -56 -57 -58 -59 -60 -61 -62 -63
leaf_value=-0.11902664670764607 -0.12859195097775883 -0.12859195097775883 -0.050292782108248238 -0.10215654622170277 -0.12859195097775883 -0.0099458051292563576 -0.12838115516499982 -0.12859195097775883 0.027025837500261173 -0.027559008397804643 -0.050607319981020138 -0.096979965688969758 -0.018843382069388043 -0.12859195097775883 0.035775434862443709 -0.00042168655351791651 -0.0034018590960302603 -0.064154437709498441 -0.12859195097775883 -0.053484038117597686 -0.056286447492827761 -0.013178655169795959 -0.06964314270937258 -0.076444081269145203 0.0070849708845638522 -0.067493261153868361 0.0060006114607120652 0.046730503498637749 0.021576936059703591 -0.037813257758243055 -0.049726194707363162 -0.002982157714401832 0.022040728558802843 -0.10188336099028687 -0.058613949724998032 0.0010328124143535768 -0.033077736422096195 -0.036441618295861601 -0.019130975053787639 -0.056398986191320458 -0.082413824789640655 -0.023424307087495922 -0.085948989165218898 -0.02970047734845593 -0.026649309392901468 -0.12859195097775883 0.022418434225202597 0.041254615908231332 -0.085365953463046665 -0.061529982135760289 0.01915341990003205 -0.02280420289531352 -0.039660878647958669 0.0078781986899689425 -0.029243200169153535 -0.0050770290366886663 -0.01572239668453845 -0.039141122914986365 0.056030531110419557 -0.046677216287719578 -0.037179400079160346 -0.014245111742268456
leaf_weight=6596.7582648843527 673.09779135882854 471.14345960319042 3060.0580243617296 2500.4345728754997 514.88356858491898 2773.3728529214859 474.39272484183311 158.21422277390957 3695.914237216115 1608.3862931281328 3771.8970551043749 7418.0725398212671 4976.3746847212315 564.37237760424614 5174.0799773186445 6665.742665335536 5175.3296947181225 5878.420703664422 512.88402074575424 5840.9291816800833 1306.9544563740492 3714.90994168818 8720.2780700773001 4768.1717659682035 3227.5201558917761 6086.8735658973455 5885.169177621603 7025.9112198650837 5279.0562388747931 3824.1352424025536 4339.0188109874725 7867.2209731936455 2943.5843627303839 7336.5909653753042 3029.3149763345718 704.34072634577751 626.60830409824848 6214.8446276038885 8738.2740006297827 4935.3839540183544 5556.7434450387955 3109.7967768609524 3397.9816091805696 5856.9255643934011 2760.3757919669151 256.69195385277271 6144.6105097532272 7478.8088054358959 6950.6782324165106 3988.8479956537485 5085.1000984758139 4540.2233123034239 3270.5104344338179 2913.0912581831217 3264.7617343962193 4229.0436798334122 54.487678617238998 2809.3647140264511 9768.0411377996206 1281.2102779448032 4009.8432479649782 202.45421871542931
leaf_count=26393 2693 1885 12243 10004 2060 11096 1898 633 14787 6435 15091 29679 19910 2258 20701 26669 20706 23519 2052 23369 5229 14863 34889 19077 12913 24353 23546 28110 21121 15300 17360 31476 11777 29353 12120 2818 2507 24865 34961 19746 22232 12442 13595 23433 11044 1027 24584 29922 27809 15959 20345 18165 13085 11655 13062 16920 218 11240 39081 5126 16043 810
internal_value=-0.0300423 -0.055436 0.00626206 -0.0743228 -0.0102544 0.0329773 -0.0302909 -0.0435114 0.0357867 0.00996214 -0.0561409 -0.0920331 -0.0131046 -0.030747 0.012208 -0.0110862 -0.0289811 -0.0469264 -0.0577288 -0.0555976 -0.0203356 -0.0136905 -0.0542282 -0.0834041 -0.0119095 -0.0773619 0.00317545 0.0459104 0.00996509 -0.0206822 -0.0630004 0.00579962 0.00645913 -0.11 -0.0428488 -0.0357802 -0.0715626 -0.0446864 -0.0132924 -0.0551849 -0.0755565 -0.03749 -0.0741051 -0.0376813 -0.0386728 -0.0844528 0.0285243 0.0365486 -0.0913619 -0.0696507 0.0120974 -0.0296663 -0.0488512 -0.000814832 -0.0206929 -0.012519 -0.100313 -0.0308839 0.0521398 -0.0329983 -0.0436881 -0.0547379
internal_weight=252009 148287 103722 84681.6 64114.5 39607.3 63605.1 35951.6 38934.2 32279.5 41809 42872.6 27653.5 31835.1 31764.6 27179.1 31270.7 29142.7 14799.7 25586.2 19262.1 10365.4 25115.1 28939.2 10207.2 12666.4 20445.9 27968.7 10965.5 17569.8 13059.3 18837.5 9609.33 13933.3 12008.5 14343 10111.5 12055.8 13913.6 14286.8 14570.5 8979.22 9484.86 13638.7 5348.54 5813.44 11318.7 11174.7 14368.8 8757.02 10970.3 8364.36 8408.35 5686.46 6979.67 9205.42 2554.92 5919.16 16794 4041.59 7781.74 5137.84
internal_count=1008262 593281 414981 338803 256516 158465 254478 143839 155772 129147 167274 171529 110639 127369 127087 108741 125111 116597 59212 102368 77066 41471 100483 115783 40838 50677 81802 111900 43872 70295 52249 75367 38446 55746 48045 57385 40455 48234 55667 57160 58295 35925 37948 54567 21399 23259 45285 44709 57488 35036 43891 33465 33641 22751 27925 36830 10222 23682 67191 16170 31134 20556
cat_boundaries=0 1 2 3 4 5 6 7
cat_threshold=2 96 96 12 32 12 16
is_linear=0
shrinkage=1


Tree=1
num_leaves=63
num_cat=5
split_feature=34 42 21 2 42 36 2 42 36 42 42 38 2 38 42 36 42 42 42 2 38 36 36 42 2 28 27 42 42 42 38 42 38 27 27 38 27 36 27 42 42 27 42 27 42 42 42 36 28 42 27 33 42 27 38 42 27 27 15 38 27 36
split_gain=83804.2 25175.9 17912 10840 8087.88 5346.71 4477.34 3999.5 3786.13 3542.04 2936.69 2830 2248.44 2053.26 1481.67 1455.88 1395.61 1287.72 1267.43 994.789 942.104 862.809 743.811 738.687 683.45 671.47 623.44 556.836 545.66 485.536 397.044 391.544 372.598 369.408 359.099 322.295 318.497 313.498 279.797 274.146 273.525 269.798 273.535 260.271 242.372 233.114 225.145 222.146 216.995 216.616 214.503 210.719 199.455 196.173 194.831 194.185 172.439 165.267 160.287 152.194 151.923 147.957
threshold=33.600000000000001 0.057500000000000114 0.38529014844804327 0 0.44749999999999984 1.0000000180025095e-35 1 1.0166666666666671 1.0000000180025095e-35 -1.0008333333333332 -1.0199999999999996 0.52500000000000047 2 0.53500000000000025 0.19333333333333272 6.3750000000000009 -0.42666666666666647 1.2516666666666676 0.8224999999999999 3 0.044999999999999936 1.0000000180025095e-35 7.745000000000001 -1.8683333333333327 4 0.30595525649873484 0.28997207847636858 1.7600000000000002 -2.1808333333333323 -0.63499999999999945 0.044999999999999936 0.51666666666666694 0.06000000000000006 0.3494940618387824 0.45674603174603179 0.039999999999999598 0.45674603174603179 7.5650000000000004 0.27085819411296747 -0.43666666666666626 -0.56249999999999989 0.45674603174603179 -0.37166666666666676 0.45674603174603179 -0.33000000000000046 1.3383333333333334 0.47000000000000003 7.6350000000000007 0.38227680664389529 -0.52749999999999975 0.23582049584894652 5.9250000000000007 0.15416666666666681 0.21267164718451484 0.034999999999999705 -0.91083333333333349 0.42971813780900625 0.33291770315091218 0.089335594573024757 0.044999999999999936 0.32417696743539443 7.6650000000000009
decision_type=10 2 10 1 2 10 1 2 10 2 2 8 1 8 2 10 2 2 2 1 10 10 8 2 1 10 8 2 2 2 8 2 10 10 8 10 10 8 8 2 2 8 2 10 2 2 2 8 10 2 8 10 2 10 10 2 10 10 8 10 10 8
left_child=1 3 4 10 11 -4 7 21 -6 23 28 12 29 18 41 -11 38 26 32 35 36 -3 27 58 46 49 53 -9 -1 -2 56 -26 57 40 -16 -18 39 44 -14 -17 -22 -7 -43 54 -27 -20 -23 60 -21 -12 -19 -36 -37 -10 -28 -40 -25 -8 -5 -52 -32 -51
right_child=2 6 5 9 8 14 13 22 17 15 25 -13 16 -15 34 20 19 50 45 48 33 24 -24 30 31 37 43 -29 -30 -31 47 -33 -34 -35 51 52 -38 -39 55 -41 -42 42 -44 -45 -46 -47 -48 -49 -50 61 59 -53 -54 -55 -56 -57 -58 -59 -60 -61 -62 -63
leaf_value=-0.084513026150570089 0.017548298631228306 -0.093966638835770777 -0.093966638835770777 -0.075737113112978788 -0.093966638835770777 -0.0027294048683473111 0.01486918020812002 0.012410524998273081 0.0036000345828797555 -0.093973675834296722 -0.06241281514091588 -0.093904583651321566 -0.034559002398244935 -0.093865748147212741 0.04186691447451843 -0.010585104025571127 0.02323019495756358 0.037659767121198361 0.032913392352241944 -0.02423659795621036 -0.032957139230512293 -0.017400128932389923 -0.093985357817986434 -0.027876572992340622 -0.036383316900096503 -0.044104892931369308 0.044538737166434625 0.040554870815995091 -0.066188090921958126 0.044955580860496981 -0.050513445199933928 -0.017562435071569901 0.0056296730710289466 -0.0084853571448439604 0.069587895910495232 0.003886441543272882 0.034533906956499917 -0.093969538661408836 -0.023943762492967979 0.0046151170818848081 -0.017941099856748178 0.042259128305623152 0.05944047148140557 0.063457362709298026 -0.031046144471476703 0.052442337212955319 -0.0025985954893359064 -0.095646622635895073 -0.0033362517907807167 -0.049145479576890458 0.063798619105152929 0.079998731588852026 0.01802176346053308 0.025164121375778472 0.032435646266795758 -0.0057722449919977844 0.0078288906036233716 0.028893186019184142 -0.053939177942628563 0.051218627853139159 -0.035313497875031435 -0.09545609575113892
leaf_weight=6576.4298985302448 2753.9000768810511 399.09786209464073 519.59902569651604 1492.0303599834442 524.08047392964363 220.20155881345272 4866.2308832108974 6972.4988739937544 1507.7137200832367 548.9812338501215 5737.7484314143658 705.0850800126791 1591.1347183436155 392.38594889640808 786.39846076071262 5926.1740434467793 6332.2515079081059 1516.6838105022907 4473.1713507473469 1670.4924568831921 4905.8468091189861 5468.7570738941431 146.64494968950748 3804.2045761048794 6436.1925551891327 8850.0894799679518 5538.483348429203 2349.7204481810331 10626.471009805799 3910.7272949665785 3200.1822561472654 4842.5183111876249 7445.0242367982864 5814.3602176010609 7565.1865563690662 6871.0794998556376 594.24005462229252 262.66345451772213 2114.8762651979923 5939.21815097332 7942.6195883303881 3631.2222031056881 6398.3568925112486 1018.7567885220051 5936.7187375575304 2320.9681662172079 4845.4773123562336 204.29980731010437 4840.2757589668036 9015.7213749140501 5116.0551821291447 13594.334405198693 3918.9754606932402 3509.8992242515087 8320.3405416160822 4822.8839331418276 371.13813748955727 3696.6610687375069 1939.7822715342045 4535.7934287935495 3380.4243661761284 175.83444671332836
leaf_count=26399 11016 1603 2087 5983 2105 881 19467 27893 6032 2205 23005 2832 6370 1576 3146 23717 25330 6068 17893 6687 19640 21888 589 15233 25776 35452 22155 9399 42608 15645 12819 19381 29785 23268 30275 27488 2377 1055 8465 23762 31789 14526 25600 4077 23772 9285 19388 819 19368 36123 20470 54415 15677 14040 33282 19299 1485 14787 7775 18146 13539 705
internal_value=9.57943e-05 -0.0240765 0.0345264 -0.0398701 0.0204415 0.0651453 0.00286827 -0.009419 0.0393043 -0.0225997 -0.0567143 0.00536922 0.00717202 0.0195304 0.0677131 -0.0132582 0.00168873 0.0415528 0.0214903 0.00794627 -0.0118344 -0.0211198 0.0177468 -0.0431726 -0.0197734 -0.0472769 0.0339254 0.0195045 -0.0731935 0.0335802 -0.036834 -0.0282775 0.0138106 -0.0189424 0.0750435 0.0142672 -0.00118764 -0.0398238 -0.0156486 -0.00297664 -0.0236746 0.052018 0.0532199 0.0390655 -0.038862 0.0395847 -0.0104365 -0.0442994 -0.00868539 -0.0547899 0.05514 0.0762765 0.00902043 0.0186845 0.0372725 -0.0113116 -0.0247028 0.0209234 -0.0634161 0.0578868 -0.0427053 -0.0500314
internal_weight=251735 147901 103835 93245.2 71119.5 32715.3 54655.3 31460.9 31587.8 46063.5 47181.7 39531.7 38826.6 23194.4 32195.7 31671.4 32162 31063.7 22802.1 23633.1 31122.5 21992 9468.86 14392.1 21592.9 29978.8 19895.2 9322.22 17202.9 6664.63 10960.2 11278.7 16007.9 18662.8 21945.9 17122.3 12459.6 15049.5 8528.89 11865.4 12848.5 10249.8 10029.6 14877.6 14786.8 6794.14 10314.2 6784.91 6510.77 14929.3 11168.5 21159.5 10790.1 5017.61 13858.8 6937.76 4175.34 8562.89 3431.81 9651.85 6580.61 9191.56
internal_count=1007722 592240 415482 373530 284552 130930 218710 125917 126375 184411 189119 158177 155345 92793 128843 126758 128684 124270 91217 94550 124553 88036 37881 57653 86433 120112 79586 37292 69007 26661 43895 45157 64039 74697 87836 68495 49856 60279 34134 47479 51429 41007 40126 59514 59224 27178 41276 27177 26055 59833 44684 84690 43165 20072 55437 27764 16718 34254 13758 38616 26358 36828
cat_boundaries=0 1 2 3 4 5
cat_threshold=96 96 2 12 32
is_linear=0
shrinkage=0.05


Tree=2
num_leaves=63
num_cat=8
split_feature=34 42 21 42 2 42 2 37 38 37 2 42 42 37 42 42 42 26 38 42 37 2 27 2 38 37 37 28 42 37 42 42 28 37 28 37 26 33 38 37 2 24 27 2 27 37 28 42 42 2 33 42 37 27 28 42 42 37 26 37 27 37
split_gain=76278 21075.6 17987.8 8551.28 6994.74 5372.7 5038.18 4970.5 3850.8 2713.61 2132.61 2051.04 1697.75 1638.89 1523.05 1447.44 1399.17 1344.82 1187.57 1036.88 1008.56 879.128 799.86 745.815 663.456 580.195 464.563 453.332 413.262 410.091 363.089 358.811 342.284 314.584 311.842 284.833 281.487 286.474 268.088 251.576 249.392 235.077 227.945 224.245 217.66 215.909 214.98 210.288 207.727 206.331 201.199 200.456 196.026 180.099 174.889 163.414 153.515 150.955 149.859 149.819 147.257 141.495
threshold=31.550000000000004 -0.26166666666666644 0.37617924528301894 0.39666666666666589 0 0.63500000000000012 1 1.0000000180025095e-35 0.6000000000000002 1.0000000180025095e-35 2 -1.2816666666666654 -1.4208333333333332 1.0000000180025095e-35 1.2516666666666676 0.20333333333333273 -0.24166666666666689 0.062187348579462093 0.74000000000000032 1.2516666666666676 3.5000000000000004 3 0.28195231740134091 4 0.6000000000000002 2.5000000000000004 3.5000000000000004 0.30837221414465837 -0.68833333333333313 1.0000000180025095e-35 1.2941666666666667 -2.1808333333333323 0.65138888888888902 3.5000000000000004 0.52168407432111763 2.5000000000000004 0.18344316630922211 5.2250000000000005 0.44 3.5000000000000004 5 5.1833333333333345 0.23865051863930789 6 0.32314322301024434 3.5000000000000004 0.38986621876473365 0.27333333333333393 -0.86249999999999993 7 5.9250000000000007 1.8041666666666669 3.5000000000000004 0.45674603174603179 0.47066943836837977 1.8041666666666669 -0.82999999999999974 3.5000000000000004 0.41678208679593726 3.5000000000000004 0.27647718697462942 3.5000000000000004
decision_type=10 2 10 2 1 2 1 10 8 10 1 2 2 10 2 2 2 10 8 2 8 1 8 1 8 10 10 8 2 10 2 2 8 10 8 10 8 10 8 10 1 8 8 1 10 8 8 2 2 1 10 2 8 10 10 2 2 10 10 8 8 10
left_child=1 4 3 9 12 6 23 -4 14 -2 28 31 41 -7 22 36 26 19 25 57 34 35 43 29 44 -8 48 59 -11 -3 54 -6 -17 58 -13 -18 -9 -38 47 -31 -27 -1 -16 -5 -22 -29 -23 -25 -12 56 -34 -21 -33 -36 -19 -44 -28 -15 -24 -14 -50 -47
right_child=2 5 7 8 11 13 18 15 -10 10 16 20 27 17 42 32 21 30 -20 51 24 46 33 38 -26 40 49 45 -30 39 -32 52 50 -35 53 -37 37 -39 -40 -41 -42 -43 55 -45 -46 61 -48 -49 60 -51 -52 -53 -54 -55 -56 -57 -58 -59 -60 -61 -62 -63
leaf_value=-0.068080200974132296 -0.090056564244464773 -0.090054223917267806 -0.090023478844013599 0.0014566034818379349 -0.066342842371690261 -0.09002720610755427 0.016466089201369341 -0.0021045936928204946 -0.089953961816741368 0.015131438002733175 -0.017994481013732327 -0.018461456673652576 -0.052384403287927532 0.0010400723924733849 0.036361532831096749 0.041203570379646719 0.023693802671536771 0.015620449057653966 -0.090037901847342339 0.016044076086160493 -0.034433535696982938 -0.022262940298677279 0.039696749326710766 -0.0423755070659061 -0.090287473873825116 -0.0090293877494504442 -0.029119485050399487 -0.037486297715910707 0.040817619301021978 -0.011918526456594487 0.045915673793156718 -0.033700731782422576 0.066123794038878067 0.027693021259578638 -0.0049423818231933495 0.0092558536690873459 0.041115696350894237 0.05774090424552112 -0.090436120381035268 -0.026731319300506595 0.0047734217390352756 -0.082414580438606749 0.050615872034388922 0.021688314937461178 -0.021126744883984347 -0.090366503530799253 -0.0018421323087407357 -0.028979347788265209 -0.014199066402804252 -0.034307587222385409 0.076290725887156727 0.036632147456581603 -0.050926671045759833 0.024240992958502679 0.031491828223162578 0.06402626446838032 -0.01026986359720905 -0.012609553427443141 0.063968530540850457 -0.063320225156568252 0.0053236484325591337 -0.049565436925936582
leaf_weight=5779.4375642091036 775.4194940328598 212.12849639356136 532.62725776433945 2115.4552203863859 2109.594070956111 370.6452399790287 6915.8178357332945 263.92584966123104 600.78964787721634 2598.1855214238167 1861.6884230226278 5574.9153402894735 5535.5006765276194 4210.6153212338686 1902.8947973549366 905.19696766138077 5432.7895125448704 3205.7962040305138 336.08338634669781 3590.4770033210516 6200.9890263080597 1828.5422905683517 9733.2809328436852 8269.7266411781311 440.55445003509521 5915.6434784084558 1516.1267461925745 5281.8293497115374 3941.3055027127266 5321.23494361341 2660.8891157209873 3174.6629247069359 7634.8383390307426 7204.9832945019007 5858.7911373227835 9202.0105162858963 4752.4685232192278 5697.5643423050642 244.94982093572617 6213.3323400914669 7300.2919658124447 5662.4691883474588 6599.3874291777611 3925.0858085900545 6092.2555195838213 219.21068586409092 4366.4204048812389 4536.5384150147438 1224.4169748425484 2102.2391270250082 13418.794716998935 1762.7474338263273 3442.3183684945107 581.09837153553963 3784.940500959754 3464.1166875213385 3756.2791332304478 3903.2893391996622 680.40253388881683 7212.6691396981478 4574.9214119017124 6930.2611007243395
leaf_count=23305 3140 859 2157 8464 8498 1501 27666 1056 2433 10394 7459 22326 22271 16851 7619 3624 21733 12826 1361 14363 24861 7326 38958 33196 1783 23675 6074 21208 15781 21314 10655 12734 30636 28829 23454 36810 19031 22835 991 24892 29208 22873 26447 15704 24405 887 17472 18188 4906 8426 53911 7055 13825 2325 15143 13883 15033 15622 2729 29021 18305 27839
internal_value=7.81178e-06 -0.024792 0.0305862 0.0176639 -0.0440845 -0.00512313 -0.0151916 0.0614885 0.0355776 0.00263498 0.00432995 -0.0275361 -0.0591876 0.0142796 0.0376946 0.0639584 -0.000462096 0.0159518 0.00317448 0.00574285 -0.020195 0.00792825 0.0303422 -0.0303398 -0.0299995 0.00473216 -0.012086 -0.0519466 0.0305656 -0.0211467 0.0301967 -0.0483868 0.0713094 0.0357253 -0.00980382 0.0146056 0.0488921 0.0501801 -0.0385915 -0.0198977 -0.00140814 -0.0751741 0.0522313 0.0146413 -0.027839 -0.0451527 -0.00785698 -0.03763 -0.00346304 -0.0210439 0.0726038 0.0228235 -0.0426621 -0.00230904 0.0242136 0.0552321 -0.0156605 -0.00552624 0.0412826 -0.0585717 0.00120181 -0.0508164
internal_weight=251464 138852 112612 79406.7 70096.6 68755.1 45265.7 33205.4 36226.4 43180.3 42404.9 33475.2 36621.4 23489.4 35625.6 32672.8 35865.4 23118.8 20467.8 13467.1 24748.6 20829.8 23659.2 24797.9 12733.8 20131.8 15035.7 25179.5 6539.49 11746.7 9651.63 8726.58 21958.8 17618.7 12014.8 14634.8 10714 10450 13051.2 11534.6 13215.9 11441.9 11966.4 6040.54 12293.2 12431.3 6194.96 12806.3 7661.03 7374.65 21053.6 5353.22 6616.98 6439.89 6990.74 10063.5 5272.41 8113.9 10413.7 12748.2 5799.34 7149.47
internal_count=1008156 556981 451175 317925 281615 275366 181350 133250 145066 172859 169719 134211 147404 94016 142633 131093 143544 92515 81910 53891 99154 83341 94684 99440 51049 80549 60203 101226 26175 47065 38624 35057 88171 70516 48105 58543 42922 41866 52375 46206 52883 46178 47949 24168 49266 49934 24798 51384 30670 29533 84547 21418 26559 25779 27969 40330 21107 32473 41687 51292 23211 28726
cat_boundaries=0 1 2 3 4 5 6 7 8
cat_threshold=96 96 2 12 32 16 96 12
is_linear=0
shrinkage=0.05


Tree=3
num_leaves=63
num_cat=6
split_feature=34 42 21 2 42 42 2 36 36 36 42 27 42 36 36 42 42 26 37 42 42 36 2 36 37 27 27 28 15 2 42 42 42 42 26 27 42 42 37 27 42 27 27 15 37 28 37 42 37 28 2 27 37 37 42 2 37 42 28 36 37 27
split_gain=68854.8 20813.7 14546.5 7031.47 6713.75 5248.38 5418.83 4386.12 2903.9 2594.11 1907.57 1783.78 1614.61 1488.11 1483.32 1294.66 1282.13 1048.84 944.593 905.541 801.66 718.141 685.281 654.153 591.638 574.787 454.869 431.275 418.214 393.703 390.557 353.376 336.11 306.814 297.321 285.803 281.882 278.25 273.7 271.077 256.078 254.41 248.015 243.654 225.03 214.41 212.506 197.976 185.232 184.931 177.389 176.208 168.871 166.267 160.333 159.276 157.562 155.473 144.135 143.751 139.107 139.085
threshold=33.600000000000001 -0.26166666666666644 0.38529014844804327 0 0.54000000000000037 0.75666666666666671 1 1.0000000180025095e-35 1.0000000180025095e-35 7.6450000000000005 -1.1983333333333328 0.40197348369399583 -1.4208333333333332 1.0000000180025095e-35 6.3750000000000009 -0.10166666666666611 0.30499999999999999 0.063839636958164761 3.5000000000000004 1.3158333333333332 1.3833333333333335 1.0000000180025095e-35 2 6.4050000000000011 4.5000000000000009 0.27999118165784836 0.29253390175383326 0.2983485159651979 0.10653312639441266 3 -0.35166666666666629 0.28333333333333371 -0.39333333333333326 0.25416666666666649 0.4025250455373407 0.45674603174603179 -0.77166666666666617 0.25416666666666649 3.5000000000000004 0.60451797770450633 1.3600000000000001 0.42971813780900625 0.37411583587465225 0.055728088336783992 2.5000000000000004 0.65138888888888902 3.5000000000000004 0.22333333333333297 4.5000000000000009 0.65138888888888902 4 0.21267164718451484 3.5000000000000004 3.5000000000000004 1.2516666666666676 5 3.5000000000000004 1.9525000000000003 0.4348443747276533 6.5450000000000008 4.5000000000000009 0.30009235382002014
decision_type=10 2 10 1 2 2 1 10 10 8 2 8 2 10 10 2 2 10 8 2 2 10 1 10 8 10 8 10 8 1 2 2 2 2 10 10 2 2 10 10 2 8 10 10 10 10 8 2 8 8 1 10 10 10 2 1 10 2 8 10 10 10
left_child=1 3 4 12 9 6 21 -4 -6 11 28 15 43 -7 -8 29 32 20 35 26 52 -3 33 -20 31 51 -10 -14 -5 36 55 49 -9 56 48 50 -2 -24 -28 -32 60 -18 -25 -1 -27 -34 -29 -26 -30 61 -12 -17 -15 -38 -43 -13 -23 -22 -21 -48 -19 -16
right_child=2 5 7 10 8 13 14 16 19 -11 18 30 27 17 24 25 41 40 23 58 57 22 37 42 47 44 38 46 34 -31 39 -33 45 -35 -36 -37 53 -39 -40 -41 -42 54 -44 -45 -46 -47 59 -49 -50 -51 -52 -53 -54 -55 -56 -57 -58 -59 -60 -61 -62 -63
leaf_value=-0.080275598004018678 -0.018869633999772029 -0.086752767147475554 -0.086577780128390278 -0.063233968945398872 -0.086580300584588099 -0.086581810432810991 -0.08639171805675934 0.035451218171330588 0.01927360546961196 -0.086495539530266619 -0.018009290382561802 0.019935124811378643 -0.05645871947852027 0.0066744556333660447 -0.0022522370278910448 -0.0187838700156636 0.039721874693165196 0.031209407222454973 -0.086696947547031444 0.037243254012214976 0.020116243719952603 -0.016495407848572154 -0.039924213512411572 -0.028724056115625257 -0.011953747960105636 0.025218469647715264 0.043199940244300863 -0.036191280980636745 -0.03506752624061299 -0.022426298921918067 0.023387791678986095 0.020807534042492484 0.0050656580371957549 -0.0089709456681639384 -0.0028582113956758556 0.023727082452691929 0.0074895857572785541 -0.025722275932384988 0.028575325473405935 0.045824240949286242 0.044860125879389055 0.067146283938016513 -0.01108416537650319 -0.065529561873512596 0.011350776740098344 0.05515427226761746 -0.086732525749437961 0.0043551523529467987 -0.051238201284528322 0.042630369956222679 -0.0053092153213123022 0.0024791344341517133 -0.0082269149415435377 -0.0071387315864641842 0.077014866604835641 -0.0025705277035111885 -0.030998051218377412 0.040377294915283947 0.053971283594010391 -0.047556267262582975 0.014830274755164727 0.0094829853081408177
leaf_weight=5036.2325833588839 2459.7933366447687 496.6126864105463 508.96597710251808 2109.2125596553087 465.0525224506855 338.66579656302929 438.26211409270763 3530.6779721826315 4675.2662537544966 745.21781381964684 4334.6976211518049 3959.3777398020029 11678.820352852345 3990.4395679980516 4156.9412693977356 1438.6635581552982 709.48274005949497 4482.1153995394707 448.65669363737106 1517.3446871191263 3213.3727645128965 3429.2947568744421 7983.3759965151548 10144.254261136055 4477.5618038326502 4668.0243346095085 8057.7073803693056 5870.8564237207174 4971.2680705487728 4108.8401793837547 2613.5148184746504 6428.326119363308 219.39611987769604 5597.9578117132187 552.45620274543762 665.07197971642017 4092.1079433560371 6072.0910516828299 5305.881698474288 2776.3970209658146 2705.9227003902197 13256.154259905219 2479.712927877903 6312.5870196074247 7835.7066375762224 8161.17195931077 241.55894164741039 3184.0712995827198 2750.8730152845383 334.59369213879108 7570.2285036444664 3019.0498770922422 3631.5086481273174 3697.7928951084614 5969.084287956357 985.0145085901022 4126.2897821813822 1342.3534068465233 8509.1307410895824 7640.3012222498655 1823.7770726829767 6430.8609958142042
leaf_count=20544 9859 2034 2086 8540 1906 1388 1796 14159 18716 3054 17369 15853 47242 15967 16634 5766 2845 17945 1838 6087 12860 13749 32142 40716 17923 18685 32320 23641 19996 16474 10459 25720 878 22417 2217 2662 16371 24372 21249 11142 10859 53539 9937 25649 31350 32831 988 12739 11097 1339 30311 12081 14535 14798 24130 3944 16561 5379 34211 30815 7301 25728
internal_value=-4.81535e-05 -0.0219726 0.0312601 -0.0409961 0.0185869 -0.0034274 -0.0118626 0.0590429 0.0373396 0.00596829 -0.0252719 0.00762252 -0.0563759 0.0174003 0.00479659 0.00167904 0.0613702 0.0190622 -0.0179575 0.039393 0.00949274 -0.0271578 -0.02608 -0.0273676 0.00639629 0.0110322 0.0326971 -0.049393 -0.0433591 -0.0093697 0.0256353 0.0115063 0.0483914 -0.0178291 -0.038293 -0.00817102 -0.00410975 -0.0337648 0.0373934 0.034945 0.0319935 0.0691252 -0.0252591 -0.0720734 0.016528 0.053843 -0.0433928 -0.00517599 -0.040828 0.00603212 -0.00995302 -0.0043832 -0.000425364 0.000545661 0.0702103 0.0154867 -0.0244157 0.0260862 0.0514398 -0.0487569 0.0264723 0.00487555
internal_weight=250776 147491 103285 72806.8 70929.9 74684.4 53156.2 32354.9 28530.4 42399.5 36026.4 41654.3 36780.4 21528.2 25450.6 31320 31846 21189.5 25642.6 28065.3 12177.7 27705.6 27209 13072.6 25012.4 16961.4 18038.9 25431.5 10383.8 14358.5 10334.3 17350.7 11911.2 13153.5 8274.6 12570 10249.7 14055.5 13363.6 5389.91 9011.82 19934.7 12624 11348.8 12503.7 8380.57 13752.7 7661.63 7722.14 10922.4 11904.9 4457.71 7621.95 7789.9 19225.2 4944.39 7555.58 4555.73 10026.5 7881.86 6305.89 10587.8
internal_count=1007743 592950 414793 293562 284325 299388 213154 130468 114489 169836 144683 166782 148879 86234 101879 125384 128382 84846 102833 112583 48741 111275 109241 52491 100083 67882 72285 102686 41850 57502 41398 69421 47868 52727 33310 50342 41028 56514 53569 21601 36105 80514 50653 46193 50035 33709 55444 30662 31093 43701 47680 17847 30502 31169 77669 19797 30310 18239 40298 31803 25246 42362
cat_boundaries=0 1 2 3 4 5 6
cat_threshold=96 96 32 12 16 2
is_linear=0
shrinkage=0.05


Tree=4
num_leaves=63
num_cat=5
split_feature=34 42 21 2 42 36 42 2 36 36 42 42 27 42 42 36 36 42 37 26 38 36 27 27 27 2 42 42 42 2 42 37 28 37 42 37 2 37 37 26 37 28 38 42 27 42 37 37 27 42 42 42 36 42 42 28 42 42 28 37 28 33
split_gain=62168.4 17733.5 14981.8 7032.17 6981.23 4068.6 3283.37 3395.71 2939.66 2635.11 2233.31 1989.9 1802.98 1193.97 1151.1 1011.97 996.442 967.087 939.81 652.86 628.912 614.512 613.829 588.773 494.571 464.226 459.801 440.563 434.786 438.135 423.504 376.402 352.681 348.213 310.081 293.935 285.481 280.198 244.785 242.858 232.37 208.819 192.916 185.398 182.295 179.78 179.664 164.665 163.493 163.002 161.9 155.512 154.818 151.495 148.091 143.244 137.74 130.43 128.416 127.951 126.908 126.879
threshold=31.550000000000004 -0.049999999999999371 0.38529014844804327 0 0.52833333333333365 1.0000000180025095e-35 0.87583333333333357 1 1.0000000180025095e-35 1.0000000180025095e-35 -1.1491666666666667 -1.0199999999999996 0.38833685942642221 -0.21333333333333357 0.30499999999999999 7.8050000000000006 1.0000000180025095e-35 1.2941666666666667 4.5000000000000009 0.061313827167202788 0.6000000000000002 1.0000000180025095e-35 0.21267164718451484 0.23582049584894652 0.13314210527759268 2 1.5166666666666671 -2.1808333333333323 -0.44833333333333297 3 -1.8683333333333327 3.5000000000000004 0.52168407432111763 3.5000000000000004 -0.37166666666666676 3.5000000000000004 4 3.5000000000000004 3.5000000000000004 0.16884540897698794 4.5000000000000009 0.65138888888888902 0.050000000000000273 0.40500000000000075 0.45674603174603179 1.488333333333334 3.5000000000000004 3.5000000000000004 0.34006183773676119 -0.5741666666666666 -0.6216666666666667 0.39666666666666589 7.5150000000000006 -0.44833333333333297 1.0983333333333343 0.47574742204307729 0.31583333333333302 -0.84666666666666635 0.30087491363664748 3.5000000000000004 0.61115555555555567 5.6950000000000012
decision_type=10 2 10 1 2 10 2 1 10 10 2 2 8 2 2 8 10 2 8 10 8 10 10 8 8 1 2 2 2 1 2 10 8 10 2 10 1 10 10 8 8 8 8 2 10 2 10 8 8 2 2 2 8 2 2 10 2 2 10 10 10 10
left_child=1 3 4 11 9 -4 7 21 -6 -2 30 27 13 37 34 31 -8 23 32 26 50 -3 -15 -10 43 40 59 -1 36 -30 -5 51 53 -24 -7 60 -14 55 -26 -16 -13 -36 -32 -23 49 -21 -19 -27 56 -34 -20 -9 -42 -12 -41 -11 -33 -39 -29 -18 -25 -43
right_child=2 6 5 10 8 14 16 15 17 12 18 25 28 22 39 -17 19 46 20 45 -22 24 33 35 38 47 -28 58 29 -31 42 48 44 -35 41 -37 -38 57 -40 54 52 61 -44 -45 -46 -47 -48 -49 -50 -51 -52 -53 -54 -55 -56 -57 -58 -59 -60 -61 -62 -63
leaf_value=-0.075068725850639395 -0.083585493092243113 -0.083528422743885486 -0.083544195338487295 -0.05640410950774382 -0.083547271181916433 0.034357781045130646 -0.083546559339778323 0.011271943515659959 0.0051202738664036015 -0.017493518315106541 -0.020652448797716324 -0.030353806230632632 0.017381470598177726 -0.018169319117229205 0.037194928174543972 -0.083565427116079657 0.010416877333077796 0.052876146860593311 -0.031929580150526993 0.027131505024378832 -0.083607111648553029 -0.033953728738027524 0.016417099275520625 0.036578887800182328 -0.0055486575342699896 -0.043055810852229315 0.02685729394179099 -0.064092752115118348 0.041096519327624786 0.018310324736646438 -0.025700139314599635 -0.010606908245590255 -0.010476230308394978 0.0023173576292496545 0.003057789366785215 0.024980905804328123 -0.005963896864892646 -0.032552725989040014 -0.020041138263306776 0.06353609725445597 -0.042178491193020293 0.047033200035568004 -0.041937821934865005 -0.020443911993715848 0.022016064440842437 0.046028561795313401 0.039759690336440584 -0.054351800894588242 0.012494650746427038 0.0029950624758050808 -0.018589727068411197 0.024638426004738173 -0.083787220545030905 -0.007537183300664059 0.072518848453329662 -0.00082218714027710866 0.0050645690439039687 -0.016132439860422936 -0.052975811796315823 -0.0038942565694001898 0.058666135787545919 0.059675077529768306
leaf_weight=6390.8795205950737 842.18816365301609 389.97165486216545 510.87904711067677 3283.5675266385078 520.50046142935753 3698.5909465998411 236.45905311405659 5309.5377919971943 2177.0701948106289 1790.9265045970678 5347.3949635326862 7769.4653111994267 3762.8870716840029 2200.7600897699594 703.08840915560722 295.84342575073242 3321.3819371014833 7056.190287604928 4051.8241756558418 4550.3137274384499 472.10078513622284 5921.3038779497147 9386.9679466336966 9748.3106389939785 5549.9659173190594 5760.8754372447729 3251.7372653633356 5061.6875343769789 3388.7114501297474 5748.5406851172447 3248.2920341938734 2831.420261323452 4363.5958661586046 8207.5822014212608 213.8973603695631 7310.933033272624 2003.1037275195122 1624.743005335331 6133.8707490861416 11513.607454761863 4864.583445802331 4121.6111991107464 4187.0045030862093 4446.460924372077 756.26269620656967 1739.8563876748085 4144.0625943243504 7332.663771957159 2515.6066836714745 4626.090431958437 5185.2531914412975 3687.2097341865301 234.32834011316299 3743.0533751100302 7628.1510183960199 4592.6220680475235 2777.5008425712585 4730.3569997996092 5336.359304189682 2948.1770485043526 696.83616545796394 3828.2332157790661
leaf_count=26391 3504 1623 2126 13372 2166 14864 984 21244 8712 7190 21468 31341 15072 8831 2826 1231 13288 28488 16295 18243 1964 23884 37578 39154 22250 23386 13036 20684 13634 23009 13076 11332 17486 32841 856 29301 8026 6533 24615 46853 19679 16644 16929 17850 3029 7001 16703 29814 10065 18517 20806 14761 974 14991 31113 18389 11114 18969 21752 11799 2817 15495
internal_value=3.66894e-06 -0.0224769 0.0276499 -0.0372794 0.0160478 0.0564347 -0.00076158 -0.00845016 0.0342968 0.00408303 -0.0219832 -0.051311 0.00563948 -0.000957991 0.0586901 0.00811605 0.0183348 0.036267 -0.0146816 0.0198584 -0.0273181 -0.0213015 0.00672585 0.0296613 -0.0202107 -0.0426482 0.0116003 -0.0647374 0.0200418 0.026826 -0.0414486 0.00970498 -0.0081681 0.00983979 0.046368 0.0326703 0.0092911 -0.0128984 -0.013157 0.0660557 -0.0357691 0.0518092 -0.034844 -0.0281597 -0.00156051 0.0323584 0.0480231 -0.0493441 0.0019036 -0.00354391 -0.0244412 0.01675 -0.0440907 -0.0152521 0.0671158 -0.00549939 -0.0028465 -0.0203304 -0.0583875 0.00368726 0.0380524 0.0531209
internal_weight=250073 137922 112151 82015.3 79933.3 32218.1 55906.6 39858.7 31653.9 48279.4 39264.4 42750.8 47437.2 32534 31707.2 17417.1 16047.9 31133.4 28545.6 15811.5 9709.18 22441.6 19795.3 19933.2 22051.6 25961.9 9521.3 16788.9 14903.2 9137.25 10718.9 17121.3 18836.4 17594.6 11862.3 17756.1 5765.99 12738.6 11683.8 19844.8 12868.4 8163.74 7435.3 10367.8 9745.95 6290.17 11200.3 13093.5 8124.53 8989.69 9237.08 8996.75 5098.91 9090.45 19141.8 6383.55 5608.92 6355.1 10398 6269.56 10445.1 7949.84
internal_count=1007968 556274 451694 331954 320917 130777 224320 159969 127341 193576 157933 174021 190072 130331 128651 69747 64351 125175 114556 63367 39065 90222 79250 79984 88599 105194 38123 68827 59741 36643 43377 68516 75491 70419 47859 71272 23098 51081 46865 80792 51994 32995 30005 41734 39032 25244 45191 53200 32511 36003 37101 36005 20653 36459 77966 25579 22446 25502 42436 25087 41971 32139
cat_boundaries=0 1 2 3 4 5
cat_threshold=96 96 32 2 2
is_linear=0
shrinkage=0.05


Tree=5
num_leaves=63
num_cat=3
split_feature=34 2 43 43 36 2 26 38 43 43 36 43 38 43 6 15 2 27 37 38 37 15 43 37 36 38 27 28 15 28 37 37 43 28 27 33 37 37 43 37 27 38 43 43 28 38 37 28 43 6 43 33 28 15 43 8 37 37 15 37 38 43
split_gain=56371.6 14695.2 13579.7 7185.44 4357.92 4208.75 3254.59 2955.59 2870.02 2737.6 1920.96 1492.65 1386.3 1270.37 1060.55 938.171 862.957 834.081 723.868 694.093 618.382 561.4 560.039 481.124 408.414 390.434 368.726 354.849 337.628 329.754 287.848 279.651 276.664 234.137 219.596 218.828 202.847 201 197.68 192.178 189.965 189.113 182.867 178.725 174.13 156.217 154.561 141.825 141.34 134.277 133.31 132.425 127.015 123.476 122.685 120.076 118.921 109.909 107.651 105.903 103.71 103.227
threshold=28.550000000000004 0 4.5000000000000009 2.5000000000000004 1.0000000180025095e-35 1 0.067983322931835524 0.6000000000000002 2.5000000000000004 3.5000000000000004 1.0000000180025095e-35 4.5000000000000009 0.45500000000000013 2.5000000000000004 2.2750000000000004 0.14438717067583048 2 0.23582049584894652 3.5000000000000004 0.52500000000000047 2.5000000000000004 0.42136598120274188 1.5000000000000002 2.5000000000000004 7.5450000000000008 0.6000000000000002 0.2970822519704342 0.30087491363664748 0.56584497873448492 0.29111799142305583 3.5000000000000004 2.5000000000000004 1.5000000000000002 0.53839036898575154 0.37275571206689401 6.455000000000001 2.5000000000000004 3.5000000000000004 1.5000000000000002 3.5000000000000004 0.34006183773676119 0.069999999999999854 1.5000000000000002 3.5000000000000004 0.31493688601711539 0.074999999999999747 4.5000000000000009 0.50010615711252659 3.5000000000000004 1.7750000000000001 3.5000000000000004 4.6350000000000007 0.50899066355497902 0.41385625868384496 3.5000000000000004 5.1050000000000013 3.5000000000000004 3.5000000000000004 0.41581552892131324 2.5000000000000004 0.064999999999999961 2.5000000000000004
decision_type=10 1 2 2 10 1 8 8 2 2 10 2 8 2 2 8 1 8 8 8 10 8 2 10 8 8 8 10 8 10 10 10 2 8 10 10 10 10 2 10 10 10 2 2 10 10 8 10 2 2 2 8 10 8 2 2 8 10 10 10 10 2
left_child=2 4 6 7 -2 14 8 17 19 28 -5 16 13 36 -4 49 30 42 33 22 38 41 35 47 29 40 -13 56 61 48 54 -28 -22 51 43 -1 -8 -18 -19 -31 58 -11 -3 -25 57 55 -29 -15 -10 -7 -32 -17 -34 -33 -12 -23 -16 -24 -20 -37 -30 -6
right_child=1 3 5 10 9 15 12 -9 24 21 11 26 -14 23 27 18 37 20 25 -21 32 45 44 34 -26 -27 31 46 60 39 50 53 52 -35 -36 59 -38 -39 -40 -41 -42 -43 -44 -45 -46 -47 -48 -49 -50 -51 -52 -53 -54 -55 -56 -57 -58 -59 -60 -61 -62 -63
leaf_value=3.030576521057248e-05 -0.080874761466343828 0.019791712625213925 -0.071871773922556142 -0.08095821260393149 0.058978507152844965 -0.069880951308705572 0.030809257831995895 -0.08087422671370062 -0.02965409067177462 0.029129698358405978 0.023007955081399519 -0.024192343082369019 -0.080724533259012909 0.0013330748996048711 -0.049368598353545262 -0.02367423225975308 0.0012892148616499256 0.047242944663322406 -0.03822669514753213 -0.080724412279396821 0.033575676941117724 0.038519643611910862 -0.0086421339607035842 -0.0025145342195386534 -0.081477212503297619 -0.082577313413696535 0.0036438617348254158 -0.038707084409689063 0.068224658260005192 -0.016182474180649418 0.011760638216461488 -0.022107081128616646 0.012478956531262929 -0.0047717550257396317 0.0074008196957884229 0.026417422488926225 0.015346982790532693 -0.014343175332217975 0.034945594976800332 -0.029224388402751385 -0.021079171041097414 0.011029845612537718 0.0016231345173078286 -0.015242529980408934 -0.001279434342052991 0.030798879998000978 -0.0497514562287849 0.015957318283440273 -0.041625030296656512 -0.046044849862484555 -0.00056815240678927809 -0.0080641967658767032 0.025138623751444978 -0.0084454227129343584 0.012191220509202778 0.053464227932753329 -0.059270666997243295 -0.022317326145299653 -0.024975481834138124 0.009645250531618214 0.058936839286661602 0.048209115058290189
leaf_weight=4445.1388344466686 631.32353019714355 3487.1044033318758 6217.3880103379488 745.96069434285164 4559.579909786582 795.85431785881519 3334.5047971010208 610.54555132985115 4840.6439397931099 4344.7788211107254 5953.5468639582396 4612.0008315145969 473.31568764150143 2982.4612576961517 5387.5000223070383 5104.041826158762 4065.136189609766 7021.6170270740986 5455.182622179389 282.51402850449085 9034.7065338343382 2257.4630535542965 2976.8602704405785 4843.6963063329458 378.25595737993717 361.89129972457886 3794.154068723321 7892.4346816986799 11904.116182550788 5203.0892227292061 4714.0614323914051 2495.1377473473549 2834.5049468129873 4390.2807783037424 2233.8491330295801 1544.9527368545532 5828.9240015000105 4161.1478832811117 6113.1369991004467 6179.1059649288654 4037.676216930151 2160.9145710021257 2297.3834552168846 6405.3766456991434 3479.8340360224247 1894.1298060417175 5291.7618198394775 3732.7618075013161 5025.7985111027956 2293.6331231743097 4099.263847887516 1851.4688502699137 6582.2570302933455 4905.6841709315777 4683.7844232469797 3322.007005751133 6935.3853490054607 2901.2475311458111 2131.5234536528587 2408.3004361242056 4020.7909226417542 4345.9315625578165
leaf_count=17813 2675 14011 26025 3159 18661 3284 13387 2587 19582 17465 23876 18575 2005 11948 22118 20537 16294 28422 22073 1197 36436 9126 11961 19402 1594 1518 15199 32152 48980 20943 18874 10028 11371 17627 8945 6197 23383 16693 24602 24952 16276 8684 9210 25712 13946 7667 21657 14945 20472 9373 16410 7432 26431 19664 18752 13470 28543 11665 8594 9660 16535 17682
internal_value=-1.72553e-05 0.0243376 -0.0232283 0.0122951 0.0494233 -0.0410581 -0.00831154 0.0282482 -0.0176953 0.0515556 -0.00140141 -3.66207e-05 0.00416429 0.00553272 -0.0533382 -0.0262831 0.00696421 0.030031 -0.0228646 -0.0029689 0.0332277 0.0338571 -0.00173176 -0.00147245 -0.0299785 -0.031433 -0.0122946 -0.0488415 0.0615196 -0.0290618 0.0127021 -0.00739309 0.027325 -0.0138125 -0.00691849 0.00764159 0.0209736 -0.00661017 0.0415195 -0.0232626 -0.0298408 0.0231177 0.0125758 -0.00976203 -0.010144 0.0432057 -0.04314 0.00946219 -0.0357519 -0.052185 0.00602626 -0.019519 0.021328 -0.0130514 0.0182452 0.0474176 -0.0549415 -0.0153918 -0.0345037 0.0161999 0.0658796 0.053723
internal_weight=249299 121652 127647 82211.1 39441 58146 69500.6 37981.3 39665.7 38809.7 44229.9 43483.9 29834.9 29361.6 31724.5 26421.6 27676.9 37370.7 23332.1 18038.8 31586.2 13979.3 17756.3 20198.1 21626.9 11986.3 15807 25507.1 24830.4 21248.6 19450.7 11195 18451.5 11345.8 13482.9 8398.39 9163.43 8226.28 13134.8 11382.2 11624.4 6505.69 5784.49 11249.1 9357.94 7473.6 13184.2 6715.22 9866.44 3089.49 8813.33 6955.51 9416.76 7400.82 10637.3 5579.47 12322.9 5878.11 7586.71 3953.25 15924.9 8905.51
internal_count=1008457 491539 516918 330594 160945 237209 279709 153070 159982 158270 177524 174365 119727 117722 130495 106714 110899 150483 94057 72439 127262 56412 71242 80952 87543 48461 63466 104470 101858 85949 77912 44891 74238 45596 54059 33670 36770 32987 53024 45895 46943 26149 23221 45114 37572 30263 53809 26893 40054 12657 35284 27969 37802 29692 42628 22596 50661 23626 30667 15857 65515 36343
cat_boundaries=0 1 2 3
cat_threshold=2 96 12
is_linear=0
shrinkage=0.05


Tree=6
num_leaves=63
num_cat=4
split_feature=34 42 21 2 42 42 2 38 38 36 42 2 42 42 36 36 42 37 36 26 42 36 28 28 42 42 42 37 28 42 2 37 15 27 26 42 26 42 37 42 37 27 37 42 28 37 38 26 28 37 27 36 15 37 38 42 27 27 42 27 42 42
split_gain=51508.4 16162 11192.3 6261.11 5037.78 3409.76 3522.76 3172.69 2288.56 2057.95 1933.98 1672.96 1648.55 1328.04 1113.96 972.874 904.419 834.857 683.559 646.753 611.795 594.277 535.176 506.025 436.457 434.217 417.089 415.042 406.251 366.064 340.717 319.085 314.6 292.354 217.328 217.309 215.755 213.6 209.61 200.312 199.318 196.741 194.927 179.24 177.257 175.585 165.319 146.066 144.505 142.124 136.738 135.21 135.057 133.633 132.748 131.652 129.894 129.248 123.218 120.74 114.989 108.401
threshold=33.600000000000001 -0.11916666666666663 0.41763565891472876 0 0.64666666666666683 0.87583333333333357 1 0.52500000000000047 0.6000000000000002 6.3550000000000013 -1.1983333333333328 2 -1.1491666666666667 0.019166666666666558 6.3750000000000009 1.0000000180025095e-35 0.30499999999999999 2.5000000000000004 6.3550000000000013 0.061313827167202788 1.488333333333334 1.0000000180025095e-35 0.30350404949115728 0.48849934720835581 1.6083333333333341 -0.71416666666666695 -0.74166666666666681 4.5000000000000009 0.30595525649873484 -2.1808333333333323 3 3.5000000000000004 0.055728088336783992 0.31896201004461161 0.18344316630922211 0.30499999999999999 0.47885053622066076 0.38583333333333331 2.5000000000000004 1.488333333333334 4.5000000000000009 0.27477247421067652 4.5000000000000009 -0.71416666666666695 0.52898895134181967 4.5000000000000009 0.069999999999999854 0.46819742312600343 0.5576595704607753 3.5000000000000004 0.21267164718451484 7.5450000000000008 0.40281068983675622 3.5000000000000004 0.034999999999999705 -0.11916666666666663 0.30009235382002014 0.45674603174603179 -0.74166666666666681 0.33211773825220298 0.23333333333333386 0.32500000000000068
decision_type=10 2 10 1 2 2 1 8 8 10 2 1 2 2 10 10 2 8 10 10 2 10 10 10 2 2 2 10 8 2 1 10 10 10 10 2 8 2 10 2 10 8 8 2 8 10 10 8 8 10 8 8 10 8 8 2 8 10 2 10 2 2
left_child=1 3 4 12 8 6 21 16 11 -6 29 25 32 26 -8 -7 36 44 -19 24 31 -3 37 50 49 -2 -13 35 53 52 45 48 -1 58 54 56 -4 -23 -25 -21 61 -33 -30 -35 -12 -28 -38 -18 -11 -17 -15 -44 -5 -14 -31 -27 -16 -45 -20 -37 -29 -24
right_child=2 5 7 10 9 15 14 -9 -10 20 17 13 28 23 27 19 47 18 33 39 -22 22 40 38 -26 55 30 60 42 34 -32 41 -34 43 -36 59 46 -39 -40 -41 -42 -43 51 57 -46 -47 -48 -49 -50 -51 -52 -53 -54 -55 -56 -57 -58 -59 -60 -61 -62 -63
leaf_value=-0.071939669126543315 0.012127900220957437 -0.078536697204796793 0.027831365443055658 -0.059606971073789886 -0.078460020974946171 -0.078463946747210134 -0.078282823566133877 -0.078324223606714108 -0.078413130205933254 0.032526094705820643 -0.0082766747989685262 -0.019621683214953292 -0.041060846575124585 -0.013334450613164612 -0.00068265954297427401 0.011155953118603484 0.050856904682153536 -0.078586724472945554 -0.032468950179740851 0.025413766673843863 0.048347445357258968 -0.032225324201288021 -0.012887486740970427 0.026503714586240564 0.027752295539602415 0.029295820421437024 0.0070196465626044049 -0.0090121845405456112 -0.02940786895981444 -0.026343385481088555 -0.013877642101273867 0.0086341710588911137 -0.056286160828971303 -0.020504705530098276 -0.0052869639425864442 0.013668001896710542 0.050932279440813168 -0.018932551117247856 0.013649230139476635 0.043456264155632987 -0.020534667716840944 0.027846313553917687 -0.040089791598343326 -0.0088108423350501744 0.0052644132176791897 -0.0066375490222069901 0.035389500032407734 0.06355679306376609 0.044794695221086492 -0.0029993734811966052 0.005071527280064405 -0.079236778320687873 0.02399885461802833 -0.051377663635170816 -0.040730980193775752 0.044568162824177894 0.0122633674246093 0.023862765932920194 -0.020313909422338853 0.026806698962091837 0.0041019560350384439 -0.0012120520786564081
leaf_weight=4869.2487178444862 2699.3938957601786 431.62755544483662 1831.2229748517275 2019.1657818108797 396.89779141545296 257.05710951983929 377.65661159157753 451.95594027638435 772.35784277319908 6928.4780521988869 4883.4379698485136 4005.592105820775 5595.3834538608789 1403.9703491777182 3146.4373931884766 3791.2922003418207 2635.6126708984375 476.69677144289017 3194.7582484185696 5440.8403529673815 7420.6407322585583 7250.0025595724583 4135.2456201463938 5115.020970672369 2827.9997793138027 2992.7674617767334 7944.0213725268841 3148.8511128723621 7968.4809379726648 2300.1116801649332 4075.9159102588892 1765.2045843303204 9418.2487033754587 4151.385789424181 607.26985229551792 4145.0316919833422 6314.5463373810053 5182.3216984122992 8345.7122976332903 2144.7574354559183 4399.3683305233717 5436.678891569376 5037.1179164201021 6224.5820809453726 4784.6676845252514 3344.1729353815317 2346.5916384905577 16060.427153468132 3672.2329998165369 3331.3656327724457 3587.2051257640123 230.67455804347992 49.487829267978668 7149.2003862559795 5291.3697858303785 2670.0104348361492 5043.0199368745089 318.13939666748047 6002.1406220197678 3024.4540550112724 3562.8611128479242 3828.7289763242006
leaf_count=20744 10828 1866 7459 8399 1717 1112 1633 1955 3341 28010 19596 16104 23032 5634 12592 15172 10913 2060 12928 21880 30254 29460 16634 20558 11369 12087 31800 12611 32386 9318 16374 7088 39310 16713 2448 16606 25794 20857 33445 8691 17705 21906 20611 24978 19164 13388 9565 66859 14925 13336 14366 991 201 29585 21600 10880 20188 1275 24171 12133 14259 15342
internal_value=2.50792e-05 -0.0190288 0.027248 -0.0340224 0.0166746 -0.000576278 -0.00754728 0.0531375 0.00694407 0.0345086 -0.0200733 0.00837155 -0.0479667 0.00389142 0.00686156 0.0181019 0.055173 -0.0136745 -0.0194177 0.0195174 0.0362862 -0.0203635 -0.0193591 0.0134919 0.0111336 0.028596 -0.00525213 0.0083216 -0.0404764 -0.0388116 -0.00150583 0.0312587 -0.061621 -0.0179997 -0.0340693 0.0128542 0.0434244 -0.0266843 0.0185339 0.0305151 -0.011993 0.0231374 -0.0343413 -0.0123783 -0.0015753 0.00297102 0.0467212 0.0617665 0.0367761 0.00453531 -0.0001059 -0.041804 -0.0576069 -0.0468482 -0.0363717 0.0364968 0.00728943 -0.00722209 -0.0245362 0.0192106 -0.00205064 -0.00727445
internal_weight=248257 146040 102217 80571.6 72576.3 65468.9 47675.6 29640.4 46956.1 25620.1 40303.2 46183.8 40268.4 37821.6 22448.3 17793.3 29188.4 30035.8 20367.7 17536.3 25223.2 25227.3 24795.7 18451.9 9950.66 8362.17 19369.7 22070.7 25980.9 10267.4 15364.1 17802.6 14287.5 19891 8198.75 15358.9 10492.4 12432.3 13460.7 7585.6 12363.3 7201.88 13236.3 10694.1 9668.11 11288.2 8661.14 18696 10600.7 7122.66 4991.18 5267.79 2068.65 12744.6 7591.48 5662.78 8189.46 6542.72 9196.9 7169.49 6711.71 7963.97
internal_count=1008206 592956 415250 329510 292705 263446 191886 122545 188805 103900 162851 185464 166659 151669 90022 71560 120590 120885 82125 70448 102183 101864 99998 74003 39877 33795 77666 88389 106605 41966 61562 71929 60054 80065 33366 61519 42818 50317 54003 30571 49681 28994 53988 42966 38760 45188 35359 77772 42935 28508 20000 21602 8600 52617 30918 22967 32780 26253 37099 28739 26870 31976
cat_boundaries=0 1 2 3 4
cat_threshold=96 96 2 12
is_linear=0
shrinkage=0.05


Tree=7
num_leaves=63
num_cat=0
split_feature=34 21 42 42 27 38 42 38 36 27 28 42 42 42 42 42 36 26 27 36 26 42 37 26 42 37 27 28 36 42 28 28 37 38 28 27 33 28 37 24 37 28 42 33 37 24 37 38 36 38 42 37 42 37 26 42 42 28 28 42 38 38
split_gain=46560.9 13743.9 11127.7 6982.07 3679.91 3148.75 2756.82 2563.53 2369.9 2332.76 1839.15 1267.9 1086.18 1056.94 1019.13 971.637 793.459 729.141 702.784 634.361 619.775 613.461 541.586 518.112 420.366 381.868 370.732 345.041 340.265 316.432 277.335 271.982 261.382 256.574 244.988 239.346 235.264 222.016 218.751 213.408 211.587 197.331 189.149 187.633 180.21 177.437 170.473 151.597 147.879 146.782 139.046 138.199 136.555 132.424 132.318 131.691 124.197 122.512 115.803 111.543 107.826 107.381
threshold=26.650000000000002 0.37617924528301894 -0.27166666666666622 0.50500000000000023 0.23582049584894652 0.6000000000000002 0.63500000000000012 0.6000000000000002 1.0000000180025095e-35 0.18653589997530343 0.49139848964371891 -1.4208333333333332 0.19333333333333272 -1.5066666666666659 1.2516666666666676 -0.22250000000000011 6.3550000000000013 0.4025250455373407 0.27477247421067652 6.3950000000000005 0.069794896867211201 1.4600000000000004 4.5000000000000009 0.4025250455373407 -0.36166666666666608 4.5000000000000009 0.14508334909482348 0.50253914560920154 6.5050000000000008 -0.86249999999999993 0.37937223917886903 0.65138888888888902 2.5000000000000004 0.015000000000000126 0.44112978982466816 0.45674603174603179 5.285000000000001 0.65138888888888902 3.5000000000000004 5.354166666666667 3.5000000000000004 0.30350404949115728 -0.80000000000000038 5.9350000000000014 4.5000000000000009 4.9500000000000011 2.5000000000000004 0.034999999999999705 6.3950000000000005 0.024999999999999915 1.2116666666666664 3.5000000000000004 -0.63499999999999945 3.5000000000000004 0.42538290224271319 1.8491666666666668 -0.86249999999999993 0.57795767187098968 0.52168407432111763 2.1850000000000005 0.050000000000000273 0.044999999999999936
decision_type=10 10 2 2 8 8 2 8 10 8 8 2 2 2 2 2 10 10 8 10 10 2 8 10 2 8 10 10 10 2 10 8 10 10 8 8 10 10 10 8 10 10 2 10 10 8 10 10 10 10 2 8 2 8 10 2 2 10 10 2 10 10
left_child=2 3 4 8 11 12 9 14 -2 25 24 39 35 45 18 17 -8 29 47 -11 21 53 37 32 -10 41 51 46 -24 -12 -26 -14 -17 -27 -16 -3 60 42 -20 -1 -31 -4 -15 -33 -32 57 -21 -5 -28 -19 -22 -13 -50 -18 61 -36 -30 -6 -44 -23 -37 -29
right_child=1 5 6 7 13 -7 16 -9 10 19 15 26 31 22 34 23 20 49 38 27 50 59 28 -25 30 33 48 54 56 40 44 43 -34 -35 55 36 -38 -39 -40 -41 -42 -43 58 -45 -46 -47 -48 -49 52 -51 -52 -53 -54 -55 -56 -57 -58 -59 -60 -61 -62 -63
leaf_value=-0.056474773308380612 -0.076478539129711628 -0.0065125115815422175 -0.025849938415287918 0.019860449284356839 -0.040522707707893992 -0.076253741872115977 -0.076227335646968652 -0.076258860966820663 -0.024044309772395689 -0.075988908527136689 -0.01784652223481396 -0.041461104778884053 0.031498960367713033 -0.02024044852054515 0.028507284723108706 0.019804988348677471 0.0033916156840442073 0.028032799936876115 0.033886381291942824 0.0033889389627665776 0.018932466292704481 0.018235983893782663 -0.077469743313537995 0.037630824376613164 -0.018076694039679785 -0.076810071814457148 -0.077586962144079868 0.013415256829776352 -0.034810624441575677 0.0052086686523926005 0.0038763630308808815 0.052693291669585141 0.0078567461512173749 -0.032954878705022582 0.040980328797393814 0.037518444711924552 0.046588962355193816 0.017622219699210875 0.022283117021164357 -0.070759009033724757 -0.0087331150456312432 -0.013163160197485899 -0.014682540672268679 0.062668187360326616 -0.012334109401475963 -0.055688262162042645 -0.010701754662108699 0.0040457828060672654 -0.038927870028495105 0.0098801536362709899 0.036106452563102819 -0.052041389841413078 -0.027773870131791584 -0.0083907640703853193 0.042398662255014596 0.053283499715120392 -0.021273772040361304 -0.013484638789552595 -0.0019533802944916184 0.042011468932674691 0.022330714172855273 0.0013322033626926688
leaf_weight=6733.1937330365181 977.41889998316765 293.87849693000317 7678.1017911583185 2383.3869238495827 2813.499659255147 492.08572871983051 269.3864561766386 576.40385459363461 5077.4171083569527 279.99985986948013 4017.3729591667652 5434.1250338852406 944.58087901771069 6264.1692136228085 3025.7618424892426 7282.3642513900995 4939.0850056111813 1766.3904800713062 9894.2791236937046 3125.2648999989033 3899.6408636868 2812.0684814602137 350.20075805485249 2249.3974773138762 3680.2467352300882 349.84767909348011 200.74654115736485 3229.3287785202265 2921.181494101882 5713.1366222351789 5245.2439362406731 7515.9661254733801 12322.480420812964 7141.9886439889669 7226.5671052187681 2855.7006071507931 5252.3917820006609 582.94862695038319 6890.781114846468 4274.937042042613 5196.8794652074575 5101.4592477977276 3585.1383209973574 12648.182014778256 2546.9671470969915 1894.5991616100073 6853.8903264552355 4160.6368086785078 6604.1712056100368 3013.3463868051767 1689.0512591600418 7143.8363858014345 4694.5861696600914 4611.1324830055237 266.32668821513653 3111.5015796422958 4034.6672121882439 492.25405609607697 3561.8675073385239 598.2696103900671 1978.1462175101042 4269.9116110503674
leaf_count=28636 4320 1177 31312 9571 11591 2178 1192 2551 20583 1238 16211 22580 3837 25315 12260 29242 19782 7112 40140 12523 15665 11303 1534 9172 14844 1541 877 12936 11924 22867 21007 31446 49339 29066 29599 11642 21630 2338 27735 18530 20851 20547 14431 53469 10213 7928 27520 16685 27200 12123 6854 29923 19205 18488 1068 12805 16299 2013 14277 2416 8042 17095
internal_value=-2.9033e-05 0.0208468 -0.0226 0.0114204 -0.0373427 0.0492485 -0.006703 0.0283675 0.000731291 -0.0144035 0.00202994 -0.0479648 0.0512098 -0.0232795 0.030011 0.00764302 0.00896752 -0.000407672 0.0237042 -0.00131662 0.0102048 0.00420318 -0.0183456 0.0149028 -0.0120661 -0.0260399 -0.0415379 -0.000138337 -0.0293799 -0.00584987 -0.00676479 0.0577218 0.012295 -0.0350028 0.0410208 0.0379672 0.0392632 -0.0125848 0.0291229 -0.062022 -0.00143236 -0.0207855 -0.0138978 0.0589502 -0.0014222 -0.0434885 -0.00628884 0.00980561 -0.0350492 0.0165886 0.0241229 -0.0474703 -0.0342934 -0.00229727 0.00776538 0.0446833 -0.0269587 -0.0364965 -0.00833868 0.0224069 0.0313032 0.00653542
internal_weight=247040 128339 118701 96358 61586.1 31980.9 57114.8 37269.3 59088.7 38296.1 58111.2 35085.6 31488.8 26500.5 36692.9 41561.4 18818.6 19707.1 23329.1 18024.7 18549.2 12960.6 21300.2 21854.2 16549.9 20271.4 24077.5 17744.7 7306.05 14927.4 11472.5 21108.7 19604.8 7491.84 13363.8 10380.1 10086.2 13994.1 16785.1 11008.1 10910 12779.6 13411.2 20164.1 7792.21 5200.35 9979.16 6544.02 11499.5 4779.74 5588.69 12578 11298.8 9550.22 7765.57 10338.1 6955.85 3305.75 7147.01 3410.34 4833.85 7499.24
internal_count=1007798 522651 485147 389230 254601 133421 230546 151346 237884 154846 233564 146951 131243 107650 148795 166917 75700 79164 94131 72380 74508 51989 86118 87753 66647 82466 99785 71142 29757 59929 46064 88752 78581 30607 54664 42491 41314 56361 67875 47166 43718 51859 54023 84915 31220 21532 40043 26256 47282 19235 22519 52503 46405 38270 31099 42404 28223 13604 28708 13719 19684 30031
is_linear=0
shrinkage=0.05


Tree=8
num_leaves=63
num_cat=5
split_feature=34 21 42 42 2 36 42 36 28 36 27 42 42 42 42 38 36 2 37 28 42 2 36 42 36 27 42 2 38 42 2 28 37 26 21 42 42 26 27 24 24 37 26 37 38 37 42 38 42 28 42 28 42 26 42 37 27 42 38 37 37 36
split_gain=42362.7 11610 11362.6 5705.19 3849.58 2862.03 2686.74 2647.56 2565.43 1612.91 1277.35 1258.99 1207.12 1174.95 1017.72 775.845 688.366 638.378 612.424 538.187 511.422 460.353 444.296 439.374 426.211 394.728 376.642 365.459 341.93 326.598 302.039 282.189 275.341 275.262 262.491 247.751 219.353 213.354 210.335 206.58 192.189 191.787 184.401 162.549 160.914 152.473 151.849 147.988 138.848 135.957 127.887 126.378 126.199 121.253 120.502 117.709 117.258 106.181 105.916 105.816 103.057 101.922
threshold=29.150000000000002 0.37617924528301894 -0.26166666666666644 0.29500000000000043 0 6.3750000000000009 0.7191666666666664 7.7200000000000015 0.37619948357653282 1.0000000180025095e-35 0.36140776099322608 0.96666666666666712 -1.4633333333333325 -1.4208333333333332 0.30499999999999999 0.74000000000000032 1.0000000180025095e-35 1 2.5000000000000004 0.34009700536625437 -0.68833333333333313 2 6.3550000000000013 1.5166666666666671 7.5450000000000008 0.21267164718451484 -0.51666666666666627 3 0.06000000000000006 1.7600000000000002 4 0.4945784224556139 4.5000000000000009 0.4025250455373407 0.52041666666666686 -0.63499999999999945 1.2116666666666664 0.16884540897698794 0.32314322301024434 4.9500000000000011 5.1833333333333345 2.5000000000000004 0.063839636958164761 4.5000000000000009 0.024999999999999915 2.5000000000000004 0.24416666666666667 0.069999999999999854 1.2941666666666667 0.65138888888888902 -0.86249999999999993 0.47574742204307729 -0.70166666666666566 0.41678208679593726 0.12666666666666629 2.5000000000000004 0.39648979533357692 1.0658333333333332 0.069999999999999854 3.5000000000000004 3.5000000000000004 6.5450000000000008
decision_type=10 10 2 2 1 10 2 8 8 10 8 2 2 2 2 8 10 1 8 10 2 1 10 2 8 10 2 1 10 2 1 8 10 10 10 2 2 10 10 10 8 10 8 8 10 10 2 10 2 10 2 10 2 10 2 10 10 2 10 8 10 10
left_child=2 3 4 9 13 -3 8 11 24 -2 20 17 39 40 34 19 -10 33 52 23 -11 35 -20 57 27 -22 -23 44 46 31 43 60 -27 45 49 -12 51 -16 50 56 -1 -29 -19 -15 -4 -5 -18 -28 -39 -7 -24 -21 -14 -40 -30 -33 -6 -8 -36 -32 -13 -45
right_child=1 5 6 7 12 14 15 -9 16 10 21 29 18 30 37 -17 28 42 22 36 25 26 38 -25 -26 32 47 41 54 -31 59 55 -34 -35 58 -37 -38 48 53 -41 -42 -43 -44 61 -46 -47 -48 -49 -50 -51 -52 -53 -54 -55 -56 -57 -58 -59 -60 -61 -62 -63
leaf_value=-0.053658633129422852 -0.074476342659432995 -0.074328512469336652 -0.0036964520626433352 0.028839557469561745 -0.038653551879895567 -0.0046196224366803164 -0.0078613316240280211 -0.074351129900905907 -0.074406371213965358 -0.022064049969725122 0.01042317422935133 0.029039746775552256 -0.011067598033568471 -0.029646801018789578 0.031044202494830808 -0.074401565001014219 0.0042020515987518893 -0.0070020307941777568 -0.075270786828791292 0.0087990750965414449 -0.020021001170881084 -0.0082339033984084303 -0.034603449630317112 0.021557503010318533 -0.074474476412478105 0.003891408913937331 0.015223076280417254 -0.018675713312312596 -0.009771795345786094 0.04737326558469121 -0.040566434256594383 0.043896604025828428 -0.0099280026901580089 0.048758229852648619 0.04835912170896503 0.030155513386540156 0.031808705252666367 0.054699528922436694 -0.016664235404554872 -0.05466891512378879 -0.067160407279108811 -0.031595360904432788 0.011103079582984425 -0.075772172330751356 -0.018337196892355068 0.018424587487610458 0.016766028211341651 0.0023321053310827 0.064350826190680499 0.031391737917269624 -0.021692040827763916 0.024751384167430591 0.0018065615976457609 0.011698506396566185 0.0015072804002027643 0.032506507740277794 -0.013865008664942703 0.0044486818339889 0.03421613630216748 -0.050055378697753332 0.014885143215072684 -0.040016880231384604
leaf_weight=5403.440460935235 725.47632874548435 476.20734596252441 2483.6334012597799 5765.7954862266779 3391.5755496025085 276.31509268283844 3822.8194840550423 660.28561291098595 293.81891436874866 4565.0636058449745 2920.4508131742477 3028.2039863914251 4157.7801651507616 7114.2646664828062 799.00273665785789 261.58665502071381 6184.9344428479671 1923.9341852813959 386.29238975048065 3091.5267490446568 3054.0350112318993 3899.780360430479 3131.9152552187443 2680.9157910346985 392.2805515229702 11421.540516406298 5771.3694231063128 4231.7393433451653 4734.7608434259892 4750.1338582634926 5195.0838588327169 4068.6308289915323 5266.3244136720896 1069.7059702277184 4762.5829470902681 3493.7247474044561 3234.8869532346725 13131.615446805954 7597.6511990576982 2070.1025859564543 5145.4483699947596 8942.840893894434 5227.9146625250578 208.43061645328999 7680.6551216542721 8998.5302954018116 3934.9259334951639 3624.5573917478323 5203.1563812345266 5093.8841612040997 4947.6205755770206 2074.7741143703461 3510.8641410470009 396.48642796278 4737.3981388509274 5126.0723782479763 555.1596557945013 3233.3688036799431 1833.4029581695795 6762.5350158959627 2235.0748338252306 4554.741644397378
leaf_count=23278 3289 2161 9991 23393 14058 1107 15329 2996 1333 18477 11728 12323 16758 29324 3261 1187 24777 7713 1736 12405 12357 15679 12826 10809 1771 45786 23139 17280 19003 19650 21779 16754 21128 4419 19807 14237 13134 56018 30704 8761 22733 36614 20997 930 31039 36252 15783 14513 22381 20931 20041 8360 14080 1592 18972 20916 2272 12942 7579 28667 9043 18964
internal_value=-6.59374e-05 0.0213274 -0.0202127 0.0119575 -0.0349007 0.0473207 -0.00492978 0.0249959 -0.0116892 -0.000530634 0.000688124 0.0265506 -0.021833 -0.0463376 0.0491834 0.0110934 0.00155759 0.0186553 -0.0168439 0.0123264 -0.00698182 0.010147 -0.0222811 0.0043263 -0.0227895 -0.00349425 0.00482503 -0.0219207 0.00269681 0.0359987 -0.0402022 0.0322616 -0.000469694 0.024251 0.037746 0.0211382 0.0215986 0.0563362 -0.0210076 -0.0418765 -0.0602444 -0.0274247 0.00622388 -0.034404 -0.0147452 0.0224919 0.00908733 0.0102503 0.0574384 0.0295388 -0.026697 0.0152055 -0.00517354 -0.0152575 -0.00413069 0.0375466 -0.0351667 -0.00222049 0.044428 -0.0458944 0.0230289 -0.0415815
internal_weight=245719 119173 126546 87596.6 64529.4 31576.2 62016.9 42854.3 43617 44742.3 44016.8 42194 30145.4 34383.9 31100 18399.9 19885.8 22985.9 24128.6 18138.3 24307 19709.9 16460 9737.1 23731.1 19741.9 13295.7 23338.9 19592 19208.1 23835.1 14458 16687.9 15834 11966.2 6414.18 8401.19 19133.8 16073.7 6016.84 10548.9 13174.6 7151.85 11877.4 10164.3 14764.3 10119.9 9395.93 18334.8 5370.2 8079.54 5166.3 7668.64 7994.14 9472.16 9194.7 3946.74 7056.19 6595.99 11957.6 5263.28 4763.17
internal_count=1007266 488034 519232 354789 268503 133245 250729 174456 176563 180333 177044 171460 122828 145675 131084 74166 79868 92774 97737 72979 97748 79296 66899 39080 96695 79271 53331 94924 78535 78686 99664 59036 66914 64064 49424 25965 33899 81660 65163 25091 46011 53894 28710 49218 41030 59645 40560 37652 78399 22038 32867 20765 30838 32296 37975 37670 16330 28271 27386 50446 21366 19894
cat_boundaries=0 1 2 3 4 5
cat_threshold=96 14 2 48 32
is_linear=0
shrinkage=0.05


Tree=9
num_leaves=63
num_cat=6
split_feature=34 42 21 2 42 36 27 42 42 36 42 36 36 27 42 36 43 42 37 42 42 42 2 42 36 2 2 36 37 42 27 42 27 42 37 28 27 36 2 37 36 37 37 42 36 28 37 28 37 15 28 2 28 37 27 34 42 42 37 42 28 20
split_gain=38555.4 12891.6 8192.93 5714.23 3393.39 2435.75 2224.71 1810.94 1787.83 1714.18 1641.4 1500.41 1372.28 1217.39 1017.66 774.317 739.198 647.006 545.714 466.852 455.96 439.421 433.994 375.671 371.263 357.441 331.079 290.756 265.23 263.182 260.673 247.766 240.376 237.626 227.259 222.72 204.278 203.458 190.956 163.364 160.046 154.286 153.423 147.196 140.701 136.27 134.077 133.452 132.578 130.927 130.233 125.501 118.575 116.402 115.682 114.141 113.36 109.315 107.167 103.499 100.16 98.4168
threshold=35.850000000000009 0.038333333333333337 0.41763565891472876 0 0.64666666666666683 1.0000000180025095e-35 0.17854609594505871 -0.92833333333333334 -0.94666666666666599 7.6450000000000005 1.0316666666666667 6.3550000000000013 1.0000000180025095e-35 0.38043961352657013 1.0000000000000004 1.0000000180025095e-35 2.5000000000000004 -0.01666666666666616 3.5000000000000004 -1.7866666666666666 1.488333333333334 -2.1808333333333323 1 -0.67499999999999927 6.3950000000000005 2 3 1.0000000180025095e-35 3.5000000000000004 1.8041666666666669 0.32540673821369065 0.39666666666666589 0.21267164718451484 -0.43666666666666626 4.5000000000000009 0.47771480212480572 0.45674603174603179 6.4150000000000009 4 2.5000000000000004 6.4650000000000007 4.5000000000000009 2.5000000000000004 -0.75666666666666649 7.6650000000000009 0.61115555555555567 2.5000000000000004 0.73232239358697904 2.5000000000000004 0.089335594573024757 0.30087491363664748 5 0.71741789402403933 3.5000000000000004 0.667799556469311 76.050000000000011 0.20333333333333273 -0.10166666666666611 3.5000000000000004 -0.53833333333333366 0.70915362758396927 64.500000000000014
decision_type=10 2 10 1 2 10 10 2 2 8 2 10 10 8 2 10 2 2 10 2 2 2 1 2 10 1 1 10 8 2 8 2 10 2 10 10 10 10 1 10 10 10 10 2 8 10 10 10 10 8 10 1 8 10 10 10 2 2 10 2 10 2
left_child=1 3 4 7 9 -4 10 21 19 13 24 -6 -8 17 22 -10 55 35 36 49 30 -1 41 47 -3 37 57 -12 45 -29 53 58 -19 -18 -24 -2 51 -9 -20 -39 -30 -14 -34 -37 61 -21 -33 -15 -16 -5 -23 -17 -32 -13 -35 -7 -28 -25 -26 -40 -42 -27
right_child=2 6 5 8 11 16 12 25 15 -11 27 20 14 23 48 18 33 32 38 28 -22 50 34 26 31 44 56 29 40 -31 52 46 42 54 -36 43 -38 39 59 -41 60 -43 -44 -45 -46 -47 -48 -49 -50 -51 -52 -53 -54 -55 -56 -57 -58 -59 -60 -61 -62 -63
leaf_value=-0.06410603305499496 -0.017738906596664727 -0.072647271858388082 -0.072635906998994887 -0.056650313101333422 -0.072633529287886106 0.048920415554850841 -0.072643595538122385 -0.073191151722024284 -0.072606696442063454 -0.072561851721810122 -0.072633828902829545 0.025398250745254064 0.018347618233238761 -0.0074605616271520535 0.037673777662572787 -0.0081884401645527377 0.026361419208772136 -0.012241027247704567 -0.020942762888984522 -0.019048173704185749 0.042901167946439812 -0.052866979221388027 0.0061183348594194345 0.025564327370009066 -0.016093003745147338 -0.03798092903931282 0.011032567926593351 0.0069367506948824209 -0.075924770030538283 0.028767698129411323 0.030747425024669314 -0.0022407016138843469 0.018523195920492234 0.03172937388010276 -0.0078768876709881704 -0.015580068157568515 0.025359078353882097 -0.016906865178546556 -0.016215928057829534 -0.029176457486627089 -0.031501186722985956 0.0055962171913189664 0.0067708961226740395 0.00057251511820550485 -0.076758705449651521 0.0086076855542144629 -0.014466201902903209 0.011846513969723868 0.02371594168337355 -0.037284969172622827 -0.042263203130489008 0.001350392250182355 0.050518382781869611 0.011330271853811955 0.046080206211076363 0.058623284075102922 0.02354125706798002 0.03990130171112255 -0.027644770954116354 -0.005279705367353827 0.0017733033336412131 0.0014311100001623326
leaf_weight=5865.0955705791712 3499.0545107871294 289.54703161120415 416.59529936313629 1421.1082961559296 347.29203376173973 4054.3943860828876 479.93890197575092 229.3898234218359 463.77084445953369 667.61526988446712 102.53640052676201 3342.0826681554317 8393.2778493463993 1380.9501103460789 2781.8266881257296 5445.3098330795765 2589.9545648097992 1220.0142028778791 6244.2251188457012 5314.5437176972628 6852.7576985806227 5530.321114897728 8747.5207585990429 2815.0864574760199 3853.0965170711279 12845.706028044224 4603.5382243841887 5806.061246111989 197.56181609630585 1811.2134217470884 9660.7711213380098 3389.3527980744839 4369.968067407608 1717.5336588174105 4339.7732690870762 1778.9336122721434 706.51153741776943 3785.7321368008852 3552.3679301142693 9573.3283998966217 5682.1574779599905 3306.7879449725151 7618.5864028930664 6808.8220041245222 232.24206739664078 486.16072182357311 6628.6909191906452 2543.5151069313288 4379.9047424346209 2262.1904549151659 6077.9072952121496 9369.9733774214983 822.96711035072803 2625.549231633544 7699.4129963219166 12007.6452793926 2986.1165884435177 2519.5024927556515 4192.1026676446199 5533.1733333468437 235.53254196047783 160.37625695765018
leaf_count=26431 14124 1350 1942 6160 1619 17448 2237 1061 2163 3111 478 13612 33778 5554 11377 21888 10635 4909 25316 21601 28586 23935 35093 11491 15687 54139 18451 23279 883 7353 39548 13631 17625 7194 17422 7179 2846 15486 14369 39513 23429 13254 30563 27276 1026 1953 26733 10236 17824 9484 25886 37545 3465 10601 32531 52264 12048 10476 17140 22221 949 679
internal_value=1.86495e-05 -0.0157879 0.0249426 -0.027538 0.0153272 0.0473775 0.00253262 -0.0404158 -0.0153658 0.00692983 -0.00834159 0.0305274 0.0112754 0.00818908 0.012536 -0.00848017 0.0491587 0.00125355 -0.0075162 -0.0291986 0.0320648 -0.0529511 0.00773937 0.0186016 -0.0164781 -0.0322662 0.0227157 0.0110018 -0.0243895 0.0121276 0.0275509 -0.0155777 0.00890302 0.0397739 0.00147636 -0.00710586 -0.000907585 -0.0264817 -0.0142076 -0.0256995 -0.0316548 0.0147311 0.0110547 -0.00277345 -0.0381549 -0.0167303 -0.01033 0.00505269 0.0291376 -0.0447566 -0.047315 -0.00216019 0.0322994 0.0192088 0.0434628 0.0561741 0.0159331 0.0322751 -0.0221123 -0.00954517 -0.0301768 -0.0374949
internal_weight=244665 149716 94948.7 91214.7 66463.1 28485.5 58501.6 44300.1 46914.6 42811.7 26072.6 23651.4 32429 42144.1 31949.1 31315.3 28068.9 25295.4 30851.6 15599.3 23304.1 17473.3 24787.4 16848.7 18352.8 26826.8 12924.2 7719.81 11916 7617.27 16451.4 18063.2 13208.6 12006.9 13087.3 12086.8 15521.8 13588.5 15329.8 13359.1 6115.25 11700.1 11988.6 8587.76 13238.3 5800.7 10018 3924.47 7161.73 3683.3 11608.2 14815.3 10483.7 5967.63 9416.95 16062 7589.65 5334.59 8045.2 9085.54 5917.69 13006.1
internal_count=1008087 615599 392488 378963 270474 122014 236636 188156 190807 173043 105651 97431 130985 169932 128748 126348 120072 101676 124185 64459 95812 76252 99547 68256 74541 111904 52466 31110 48815 30632 67226 73191 53097 50360 52515 48579 62279 56060 61906 54999 25261 47032 48188 34455 55844 23554 40364 15790 29201 15644 49821 59433 43013 24213 39725 69712 30499 21967 32827 36590 24378 54818
cat_boundaries=0 1 2 3 4 5 6
cat_threshold=96 14 32 2 16 16
is_linear=0
shrinkage=0.05


Tree=10
num_leaves=63
num_cat=6
split_feature=34 21 42 42 42 2 38 38 2 36 2 42 42 42 2 42 42 2 36 42 36 2 36 38 28 28 42 36 42 28 42 38 38 26 27 38 26 26 38 38 38 42 27 42 28 42 28 24 38 38 38 32 28 27 42 27 42 27 32 24 38 42
split_gain=35196.8 11048.6 8492.24 5500.5 2472.06 2430.93 2377.91 2342.69 2014.1 1686.52 1437.58 1222.8 898.035 829.755 778.139 721.676 715.78 678.428 596.929 503.599 480.235 427.926 423.019 370.21 362.719 308.179 297.025 273.557 270.613 245.043 244.112 240.188 239.273 224.716 212.047 187.151 180.118 172.451 158.198 156.96 156.411 155.549 153.424 141.9 136.732 136.635 126.438 124.828 124.765 123.935 117.233 106.888 106.803 102.164 99.2455 98.1348 97.9844 97.5916 97.1525 93.9455 93.1939 92.9339
threshold=25.300000000000004 0.38529014844804327 -0.43666666666666626 0.33500000000000024 0.62333333333333363 0 0.52500000000000047 0.6000000000000002 1 1.0000000180025095e-35 2 1.0658333333333332 0.42833333333333307 -2.0674999999999986 3 -1.655833333333333 -0.43666666666666626 4 1.0000000180025095e-35 1.1916666666666669 6.3950000000000005 5 7.7200000000000015 0.044999999999999936 0.2983485159651979 0.47369593770522567 -0.46999999999999925 6.4050000000000011 -0.58666666666666656 0.30595525649873484 -0.67499999999999927 0.069999999999999854 0.064999999999999961 0.4025250455373407 0.45674603174603179 0.064999999999999961 0.063839636958164761 0.4577882902092239 0.074999999999999747 0.034999999999999705 0.079999999999999641 0.010000000000000011 0.37275571206689401 1.9525000000000003 0.52983763724908817 1.7600000000000002 0.34825763562728768 5.2678571428571432 0.079999999999999641 0.039999999999999598 0.034999999999999705 51.500000000000007 0.49139848964371891 0.15465856141796322 -0.82999999999999974 0.38833685942642221 0.038333333333333337 0.11715228508479374 53.500000000000007 4.0500000000000007 0.024999999999999915 -1.0825000000000002
decision_type=10 10 2 2 2 1 8 8 1 10 1 2 2 2 1 2 2 1 10 2 10 1 8 8 10 8 2 10 2 10 2 10 10 10 8 10 8 8 10 10 10 2 10 2 8 2 8 10 10 8 10 10 8 8 2 8 2 8 10 10 10 2
left_child=2 3 5 9 8 13 12 11 22 -2 14 17 28 -1 30 47 38 33 -6 21 -10 57 24 44 41 45 -12 -25 -3 -15 60 -18 52 50 -30 53 -19 -14 59 -26 51 -4 54 46 -17 -13 -21 -7 -27 -31 -5 -36 -22 -28 -29 -34 -41 -20 -39 -16 -11 -40
right_child=1 6 4 7 18 15 -8 -9 20 10 26 25 37 29 16 23 31 36 19 43 32 -23 -24 27 39 48 35 42 34 49 -32 -33 55 -35 40 -37 -38 58 61 56 -42 -43 -44 -45 -46 -47 -48 -49 -50 -51 -52 -53 -54 -55 -56 -57 -58 -59 -60 -61 -62 -63
leaf_value=-0.061591928079752514 -0.071229384573969642 0.020056355365914165 -0.03412804880619795 0.026704313875764708 -0.071048866665855026 -0.037209395128360481 -0.070926819833508334 -0.070947196404963039 -0.071043601878562346 0.021312829905270433 -0.023510796264771219 0.020350898193630521 0.040833864525204787 -0.046126198772474286 0.00037048632144928375 -0.016730315090109232 0.011883455973952753 -0.0043304807784620338 -0.011664125763381057 0.010305372244929374 -0.0010052016034759394 0.017145032126826974 -0.071814890014956154 -0.072439668623667297 -0.0079210524258371273 0.042001525644670863 -0.020124797766335547 -0.031115377652057588 -8.6625633210694292e-05 -0.026724315933598572 0.028314956820686861 0.00075345380680788749 -0.0086848125322104477 0.044474897750776073 0.038929715645031282 -0.01528916307344763 0.010757211106120768 0.051408158514546436 -0.029939847129545106 -0.0250173406236395 0.029795602069260942 -0.02317568143776633 -0.011593282369515592 0.033995765354035139 -0.002940899342970905 0.035935052551207207 0.026164444413119461 -0.057004354053332484 0.030450587552248699 -0.038799538188255558 0.018042251675933742 0.05051054362082074 0.0098177116105248735 0.00013147418218434703 -0.02054840488002628 0.0091585397537209869 -0.01467384345552545 -6.6170997239664244e-05 0.059636552094401378 -0.012249007560523167 0.0027807589515620691 -0.012101906210784531
leaf_weight=6228.1086728274822 842.89871087670326 2191.7385116964579 5933.8447027057409 6371.0946206599474 238.30360616743565 3079.1130304038525 442.56768845021725 661.58813509345055 242.19426301121712 1056.8530070334673 4527.876466140151 4518.1809551864862 2296.8367218822241 11031.039396077394 4498.8696611523628 3943.9400675594807 12154.028109967709 2837.437209635973 2945.6893728971481 3686.5980940312147 3950.2687198072672 3233.503708332777 437.90759465098381 294.61685509979725 3873.55632391572 8340.5317488014698 706.33492058515549 5068.355578571558 331.62522761523724 2919.6974416077137 4059.3171111494303 8063.0600682944059 6821.5513233393431 1126.6620355695486 4626.6996726542711 5155.4467148929834 6531.5722005069256 7058.5398379266262 950.74951061606407 4652.265622228384 2584.5713278055191 7145.8337680846453 2140.4675321429968 1309.6231961101294 3303.4935701489449 2042.217188835144 1906.8504639267921 1074.2937404662371 3248.1786874085665 7806.1741865128279 10096.091164827347 3499.5192894786596 5389.4061530977488 5242.5285400301218 3956.6893381029367 868.69482187926769 4508.4463306069374 4720.3337915092707 7294.4021307528019 2194.0330357700586 1894.3971692919731 3147.2275669574738
leaf_count=28624 4032 9009 25050 26030 1143 13064 2122 3172 1160 4255 18558 18435 9907 47945 18089 15994 48777 11386 11837 14805 15840 13041 2075 1384 15700 34893 2886 20947 1335 12292 16682 32297 27409 4744 19528 20831 26283 31013 3890 19189 10894 29355 8687 5355 13317 8494 7784 4714 13454 33199 40878 15043 21615 21074 16081 3481 18244 18933 32437 8848 7612 12680
internal_value=1.1488e-05 0.0176787 -0.0204588 0.00968047 -0.00801643 -0.0355977 0.044123 0.0224583 -0.0144293 -0.00105266 4.98789e-05 0.0238281 0.0458268 -0.0454839 0.00529808 -0.0234653 0.00189394 0.0170744 0.0075613 0.00861356 -0.00113143 0.00192107 -0.0230705 -0.0192897 -0.0222619 0.0338617 -0.0127094 -0.0248832 0.0361048 -0.0408938 0.0203305 0.00744454 -0.000137822 0.0228586 0.0392902 -0.00831642 0.00618125 0.0535544 -0.00850354 -0.0163589 0.0405094 -0.0281444 -0.0236283 0.0191806 -0.0104449 0.0252022 0.0157119 -0.0423294 0.0387639 -0.0355125 0.0213936 0.0439169 0.0052401 -0.00227364 -0.0264827 -0.00666922 -0.0199268 -0.00451682 0.05559 -0.00376637 0.00941716 -0.0162404
internal_weight=243305 130594 112711 100267 61864.9 50846 30326.5 45773.6 43824 54493.6 53650.7 45112 29883.9 27985 38018.5 22861 31008 26962.9 18040.9 17802.6 17272.1 10899.5 26551.9 18707.6 26113.9 18149.1 15632.2 11460.1 13234.2 21756.9 7010.57 20217.1 17029.9 17593.8 11042.4 11104.3 9369.01 16649.8 10790.9 13034.3 10710.8 13079.7 11165.5 6903.07 7247.43 6560.4 5593.45 4153.41 11588.7 10725.9 16467.2 8126.22 9339.67 5948.86 9025.04 7690.25 9160.71 7666.02 14352.9 6692.9 2951.25 4097.98
internal_count=1007832 539568 468264 408280 252016 216248 131288 187769 179118 220511 216479 184597 129166 122060 153130 94188 124581 109321 72898 71755 69505 43811 109613 76410 107538 75276 63349 47099 55809 93436 28549 81074 68345 71652 46800 44791 37669 73357 43507 53133 45465 54405 45715 27944 29311 26929 22589 17778 48347 45491 66908 34571 37455 23960 37028 30890 37433 30770 63450 26937 11867 16570
cat_boundaries=0 1 2 3 4 5 6
cat_threshold=96 96 14 2 14 96
is_linear=0
shrinkage=0.05


Tree=11
num_leaves=63
num_cat=4
split_feature=34 21 42 42 2 36 36 42 2 36 21 42 2 42 42 27 37 36 42 2 36 37 42 36 42 42 27 42 28 37 28 37 36 37 28 42 28 42 37 15 28 42 37 44 27 27 42 37 42 15 28 27 42 27 28 28 28 27 24 44 28 27
split_gain=31957.9 10277 7798.11 4958.52 2392.82 2387.2 2099.18 1955.41 1664.28 1390.77 1200.08 1174.4 1061.63 945.308 741.426 590.5 556.11 548.931 415.085 407.738 396.719 391.184 380.133 360.222 328.497 305.432 289.688 272.16 262.342 260.471 251.885 229.044 224.827 220.885 211.276 206.078 187.911 175.967 174.355 156.915 152.955 151.536 131.082 123.449 121.561 119.107 118.348 117.303 116.692 111.694 108.266 105.973 100.692 96.6994 95.7734 94.7657 94.3322 94.0978 93.6325 91.6536 91.3047 88.5664
threshold=25.300000000000004 0.32037735849056609 -0.35166666666666629 0.29500000000000043 0 6.3750000000000009 1.0000000180025095e-35 0.62333333333333363 1 1.0000000180025095e-35 0.52041666666666686 1.0658333333333332 2 -1.8683333333333327 -1.4633333333333325 0.23582049584894652 3.5000000000000004 inf 1.4075 3 6.3950000000000005 4.5000000000000009 0.49333333333333346 7.7200000000000015 -0.12833333333333272 -0.5741666666666666 0.14508334909482348 -0.74166666666666681 0.31290874630876014 3.5000000000000004 0.4348443747276533 3.5000000000000004 6.5050000000000008 2.5000000000000004 0.72543297345928937 -0.68833333333333313 0.61115555555555567 1.6816666666666673 3.5000000000000004 0.072118510262840177 0.52168407432111763 0.96666666666666712 4.5000000000000009 1.8050000000000053 0.38522300550602445 0.41620725663221958 0.048333333333333124 4.5000000000000009 -0.87833333333333352 0.52515976045978874 0.6024233663107913 0.38371311977419192 2.0958333333333341 0.42433615674056929 0.61115555555555567 0.37354123718961901 0.34452083401091699 0.37411583587465225 5.0500000000000007 3.8974999999999977 0.75818974460803246 0.60986848809953964
decision_type=10 10 2 2 1 10 10 2 1 10 10 2 1 2 2 8 10 8 2 1 10 8 2 8 2 2 10 2 10 10 8 10 10 10 10 2 8 2 10 8 8 2 10 2 8 8 2 8 2 10 10 10 2 8 10 8 10 10 8 2 8 10
left_child=2 3 4 9 13 -3 -5 8 23 -2 24 15 16 58 39 -8 35 18 19 43 -10 40 49 26 54 60 38 -14 48 51 -13 55 -23 -22 41 45 59 42 -4 -6 -16 -26 -32 -9 -35 -11 -28 -30 -15 -12 -41 -17 -20 -27 -7 -29 -33 -34 -1 -37 -18 -42
right_child=1 5 7 6 14 10 11 17 20 12 22 30 27 28 21 29 25 -19 52 -21 33 32 -24 -25 34 53 46 31 47 -31 37 56 57 44 -36 36 -38 -39 -40 50 61 -43 -44 -45 -46 -47 -48 -49 -50 -51 -52 -53 -54 -55 -56 -57 -58 -59 -60 -61 -62 -63
leaf_value=-0.050143926305010245 -0.069776128057619263 -0.069634666719728275 -0.019226574380277858 -0.06960716557605956 -0.053420770251066646 -0.0039987042354649232 -0.0021191492251891055 -0.006353052904606209 -0.069568452901647801 -0.0058610793013321979 0.031854846413101691 0.020479605086614935 -0.027994624004572435 -0.047954869707846563 -0.017219513604685984 0.020260182376539877 -0.01680354545100347 -0.069605101909735526 0.017309204674224983 0.017421047187224422 0.0091841472861459699 -0.070385825982236971 0.054485728730764696 -0.07010331624297253 0.015640213167053354 -0.00043126649353482583 -0.019785324298778079 -0.012064084846983654 -0.027629960933378207 0.012257795872512522 0.034604765419685247 -0.028279845543731877 -0.027557133196796754 -0.0055963087015241005 0.041768563115125674 0.0072886543408307251 0.027550606291691204 0.043614281180830515 -0.030529776058792524 -0.035578768911305993 -0.0078639641108750602 0.03803322023916797 0.020547043683602391 0.0054580717697894051 0.010976249757660844 0.011450001945506534 -0.0089713885961239664 -0.038387091008294266 -0.038214621624673692 0.04449402338442833 -0.00786220656956854 0.030460342621043357 0.036120118309183886 0.015651904575609121 0.021825176589967247 0.0015129182544287255 -0.013218909923811426 -0.010878917216095622 -0.062614112565154478 0.016927582778290273 0.0019965173870858063 0.014302313834962452
leaf_weight=2190.3099304288626 758.76722609996796 489.90174017846584 6518.2118380665779 639.9942564368248 1217.6651963591576 389.02810300886631 4175.9857060611248 6064.1860112547874 203.11191041767597 3002.1305868476629 2480.9653805196285 3760.0567966252565 2434.8586729466915 5658.4767574369907 6174.4933683872223 9718.7063998579979 4186.4396177083254 231.46373490989208 3623.2216708660126 3736.6914233416319 5166.230767250061 283.02943558990955 12632.391670763493 370.05339942872524 1732.6635348647833 9552.8476380705833 4729.2160360068083 1862.8453498482704 6331.230367526412 10094.788254454732 6909.4704828858376 1304.8355080187321 5129.0528844147921 8848.3046767860651 5509.512301415205 8782.9838974028826 1741.7033622264862 4191.3314957916737 7158.6269392073154 3960.8868800550699 5806.6182685792446 1339.6025462001562 2181.9109548330307 3482.9166080504656 1264.653378918767 1485.2099487483501 5440.9152182042599 4225.8350798934698 6734.8775942921638 5916.3265715241432 386.7335842102766 3450.4098047167063 885.206837490201 1035.9384344816208 4657.5929573178291 4145.0265773236752 5116.0852999389172 1012.6849594563246 4813.0954013168812 3429.0930971205235 763.62618416547775 488.54806646704674
leaf_count=10002 3739 2421 27017 3163 5441 1563 16763 24339 1002 12105 10503 15380 10058 25069 25143 39592 16995 1144 14716 15126 20718 1380 56909 1812 7110 38275 19430 7596 26764 40758 28875 5368 21153 35518 23896 35246 7166 17859 29915 16822 23435 5638 9000 13977 5068 5979 21983 18217 29265 25679 1606 14217 3641 4236 19196 16643 20696 4121 22736 13763 3072 1961
internal_value=-7.67055e-06 0.0168756 -0.0195614 0.00830799 -0.0331418 0.0399657 0.0203021 -0.0067596 -0.0129604 -0.00260289 0.0415149 0.0215957 -0.00155938 -0.0426204 -0.0215078 0.015193 0.00331655 0.00689831 0.00789356 0.00344444 -0.000149716 -0.0167921 0.0490049 -0.0211416 0.0299573 -0.00365071 -0.0203907 -0.0127 -0.0377279 0.0183006 0.0319044 -0.0097139 -0.026815 0.000772995 0.0359102 0.0091891 0.0121865 0.0351385 -0.0251428 -0.0375565 -0.011628 0.0254043 0.0312309 -0.00204205 -0.00352386 -0.000131496 -0.014 -0.0319359 -0.0426618 0.0407598 -0.0331133 0.0229327 0.0210026 0.00114221 0.0198345 -0.00269687 -0.0162795 -0.0248071 -0.0587141 0.00999522 -0.0139033 -0.00614371
internal_weight=242010 129873 112137 94725 54413.5 35148 45122.7 57723 39699.3 49602.4 34658.1 44482.7 48843.6 29953.8 24459.7 27439.9 33980 18023.7 17792.2 13283.8 15482.3 18894.4 21029.7 24217 13628.4 15538.9 23847 14863.7 22950.4 23263.9 17042.8 12428.8 6424.77 15279.2 8581.78 18441.1 13953.8 13282.7 13676.8 5565.29 12469.7 3072.27 9091.38 9547.1 10113 4487.34 10170.1 10557.1 12393.4 8397.29 4347.62 13169.1 4508.43 10588.8 5046.62 6007.87 6420.92 6141.74 7003.41 12212.1 4950.07 6295.17
internal_count=1007980 539459 468521 386544 233115 152915 185607 235406 162463 200937 150494 182444 197198 132053 101062 111330 136837 72943 71799 53442 62306 77193 93091 100157 57403 62578 98345 60361 99315 94567 71114 50303 26654 61304 36644 74259 56175 55734 56932 23869 50539 12748 37875 38316 40586 18084 41413 44981 54334 36182 18428 53809 18357 42511 20759 24239 26064 25274 32738 49009 20067 25396
cat_boundaries=0 1 2 3 4
cat_threshold=96 96 14 96
is_linear=0
shrinkage=0.05


Tree=12
num_leaves=63
num_cat=3
split_feature=34 21 43 43 38 2 38 26 43 27 37 24 36 36 43 43 27 24 37 37 38 38 43 43 26 36 37 38 33 26 20 27 36 43 2 24 27 27 37 26 28 1 6 27 27 37 38 26 28 2 37 43 28 37 44 6 28 43 24 38 37 38
split_gain=29006.2 9177.87 7113.51 3575.86 2496.2 2376.14 1952.03 1482.85 1347.53 1100.51 982.219 816.975 770.02 716.984 683.041 681.72 645.385 553.467 491.076 374.251 363.737 330.465 304.026 303.021 300.845 269.231 255.752 253.296 233.6 231.437 214.883 213.564 208.105 205.838 178.576 169.139 162.967 151.607 151.11 142.343 131.729 131.219 130.646 129.49 125.069 123.675 120.643 118.927 118.885 114.923 111.984 109.657 105.644 105.41 104.108 103.105 96.3444 87.6712 83.3396 81.9171 80.615 77.1958
threshold=26.650000000000002 0.41763565891472876 4.5000000000000009 3.5000000000000004 0.74000000000000032 0 0.6000000000000002 0.061313827167202788 2.5000000000000004 0.60451797770450633 2.5000000000000004 4.9500000000000011 6.3950000000000005 1.0000000180025095e-35 2.5000000000000004 2.5000000000000004 0.28195231740134091 4.8166666666666673 4.5000000000000009 2.5000000000000004 0.52500000000000047 0.06000000000000006 1.5000000000000002 1.5000000000000002 0.076145778633525896 6.4050000000000011 2.5000000000000004 0.36499999999999982 6.455000000000001 0.04065577261332632 32.500000000000007 0.38043961352657013 6.4150000000000009 1.5000000000000002 1 4.0500000000000007 0.42433615674056929 0.34295628202919343 2.5000000000000004 0.4577882902092239 0.37354123718961901 9.5000000000000018 2.2750000000000004 0.12263292427245015 0.30009235382002014 4.5000000000000009 0.069999999999999854 0.11736642800762635 0.43928722116037794 2 4.5000000000000009 2.5000000000000004 0.53839036898575154 2.5000000000000004 1.1866666666666694 1.7750000000000001 0.29111799142305583 4.5000000000000009 3.9500000000000006 0.069999999999999854 2.5000000000000004 0.064999999999999961
decision_type=10 10 2 2 8 1 8 10 2 8 10 8 10 10 2 2 8 10 10 8 8 10 2 2 10 10 8 8 8 10 2 10 10 2 1 10 10 10 10 10 8 2 2 8 10 8 10 10 8 1 10 2 8 8 2 2 8 2 8 10 10 10
left_child=2 3 7 4 10 11 14 8 20 13 23 29 -9 -5 39 50 33 19 24 52 28 44 -18 40 -15 -21 -10 38 43 53 46 48 -28 -12 57 54 51 58 -11 -3 -2 -30 -19 -1 -17 -31 -16 -23 -25 -35 -14 -24 -7 -4 -26 -13 -34 -20 -27 -32 -45 -41
right_child=1 6 5 9 -6 17 -8 12 26 27 16 55 15 18 30 21 22 42 34 25 -22 47 36 31 35 37 32 -29 41 45 59 -33 56 49 -36 -37 -38 -39 -40 61 -42 -43 -44 60 -46 -47 -48 -49 -50 -51 -52 -53 -54 -55 -56 -57 -58 -59 -60 -61 -62 -63
leaf_value=-0.011873529267270935 0.019186237261690688 0.038087021913201187 -0.034209945119412888 -0.068439259106272771 -0.068289937591823544 -0.011922254451385212 -0.068225379557449881 -0.06805392228567389 -0.013779325679353031 0.024977014549881854 0.011900905222350993 -0.062619140466320777 0.018253711941595332 -0.018605697264498802 0.032233247568000854 -0.001791972043126161 0.02668587573222906 -0.050654027296158602 -0.0029376719703483357 -0.070183515360595763 -0.068348151957394923 -0.013613847760300564 0.01683327592919379 0.0068742851458394733 -5.3047343133118438e-05 -0.019177502317875624 -0.069247742490563924 -0.067128508632288864 0.011358928509487963 -0.027380048898755196 0.044418084272835626 0.0314514259216205 -0.029923344678698668 0.0032282681638340009 -0.023819556186938304 -0.0073487628558859168 0.029115798704519649 -0.012800270820683869 0.010108424310659374 0.054741169524633738 0.036659861307303726 -0.0085438747809950324 -0.030796488615985631 0.0075395686654919306 0.0095418130311048788 -0.03814011884806983 0.015788317408364533 -0.0023344897217858836 0.020794576867466653 -0.0099913171138006542 0.0058575927905817129 0.0082046258966994683 0.0010691389274857454 -0.044885466090822425 0.0084474089332299655 -0.049953647049417016 -0.021239976151159558 -0.014613707792671574 -0.02880110036228356 0.0319009724059812 -0.0051613089236428244 0.045885190968009235
leaf_weight=5139.4927962720394 1265.9091589301825 1934.1045514941216 3261.2248355299234 455.55902187526226 839.06557732820511 4027.6527171432972 394.44214424490929 389.09898084402084 5579.8029475957155 3121.8031566441059 4446.7053607106209 3533.2068739533424 5988.8780182600021 2184.4895442277193 3757.6465065330267 4706.2643169760704 7078.7483572363853 1296.4936677217484 2808.3026755303144 276.84017035365105 209.46685294806957 5689.217415034771 7526.771150290966 1893.4309089332819 8388.726303473115 4401.0600964874029 279.49988913536072 91.001056373119354 3824.0439546555281 6786.798678740859 4651.9363703131676 4328.3120685368776 6467.5409731566906 4242.9577292352915 3365.5618721842766 4644.3700230717659 1664.8317681103945 4432.3700501471758 3775.3661191910505 10161.911863520741 7289.0445006936789 1057.0733119249344 2293.6203328073025 1885.1049263030291 5041.7414681017399 4403.028988212347 1585.9741123914719 3966.1175484061241 8075.5716936886311 2671.1252885013819 2618.4888616800308 7208.3176297098398 2559.1566852331161 7946.654105052352 6312.440607085824 2947.2145033925772 6311.9710216522217 3760.5534932911396 4602.0628082901239 1817.8744084686041 3704.6052803397179 3246.9637664407492
leaf_count=20836 5180 8604 14383 2316 4279 16433 2011 1979 23098 12816 18231 17186 24310 8965 16074 18966 29543 5863 11260 1365 1068 23072 30663 7637 33739 18165 1398 458 15497 29103 20342 18018 27385 17079 13803 18738 7009 18142 15422 46605 30873 4282 9652 7583 20251 19266 6701 15943 32991 10793 10585 29004 10354 35463 25393 13614 26092 15227 19186 7844 14946 14816
internal_value=2.81726e-05 0.0167254 -0.0180213 0.00952085 0.0173303 -0.031557 0.0422055 -0.00665845 -0.0136303 -0.00222719 0.0185756 -0.04121 0.00180073 -0.00616177 0.0438095 0.00277109 0.0132918 -0.0198626 -0.00526008 -0.0166703 -0.00289781 -0.00242418 0.0180256 0.026631 -0.00101698 -0.0213757 -0.0227395 0.0157448 -0.00201957 -0.0367007 0.0347725 0.0221773 -0.026568 0.00350869 -0.0144558 0.000969133 0.0142875 -0.02037 0.0168383 0.0507676 0.0340742 0.0070487 -0.0379676 -0.00614507 0.00406995 -0.031614 0.0273524 -0.00898063 0.0181507 -0.00188865 0.0144826 0.0126122 -0.00687474 -0.0417791 0.00359691 -0.056859 -0.0256345 -0.00960737 -0.0240967 0.0409011 -0.000877994 0.0525967
internal_weight=240616 124990 115626 97439 58530.8 52767.4 27550.9 62858.4 34458.6 38908.2 57691.7 28878.1 28399.8 31920 27156.4 28010.7 34839.5 23889.3 31464.4 20299.1 15819.8 19403.3 23478.7 22852.3 21530 13712.3 18638.8 6988.17 15610.3 22397.7 11813.4 14297.3 13059 11360.8 9934.42 19345.5 16399.9 13435.5 6897.17 15343 8554.95 4881.12 3590.11 10729.2 9748.01 11189.8 5343.62 9655.33 9969 6914.08 8607.37 14735.1 6586.81 11207.9 14701.2 6480.42 12779.5 6568.86 9003.12 6469.81 5589.71 13408.9
internal_count=1007900 522434 485466 399437 241300 228175 122997 257291 142185 158137 237021 129015 115106 129441 120986 113127 142322 99160 127125 83645 64212 78232 96219 94699 86835 56858 77973 28696 63144 98215 50961 58646 54875 46103 40290 77870 66676 55493 28238 70025 36053 19779 15515 43365 39217 48369 22775 39015 40628 27872 34895 59667 26787 49846 59132 30800 53477 26487 37351 28186 22529 61421
cat_boundaries=0 1 2 3
cat_threshold=96 14 28
is_linear=0
shrinkage=0.05


Tree=13
num_leaves=63
num_cat=0
split_feature=34 42 21 27 42 42 27 38 36 42 36 27 42 36 36 42 42 28 36 38 27 42 37 37 42 42 24 26 27 33 27 38 42 24 37 42 37 27 42 37 37 26 37 26 37 36 28 38 27 26 27 44 24 37 44 38 37 37 27 42 44 38
split_gain=26252.6 9381.7 6186.39 3250.81 2583.49 2385.95 2448.51 1707.76 1411.06 972.604 941.232 895.496 885.38 806.806 665.207 660.768 532.814 504.866 449.258 420.553 389.855 358.101 352.607 336.785 314.642 275.717 245.749 226.884 225.435 211 204.178 189.073 186.034 184.162 180.758 179.375 173.155 170.087 163.659 162.735 155.384 152.196 150.141 130.917 111.81 111.138 109.399 109.202 108.701 106.744 106.1 103.02 100.703 93.404 92.7186 91.2714 90.5665 89.5475 87.8358 87.0772 86.3185 85.6606
threshold=35.850000000000009 -0.32083333333333347 0.42997198879551829 0.22427966863354459 0.76833333333333409 0.79500000000000048 0.21267164718451484 0.52500000000000047 7.6650000000000009 -1.4208333333333332 1.0000000180025095e-35 0.37888336026884573 -1.1983333333333328 6.3750000000000009 1.0000000180025095e-35 0.54000000000000037 -0.01666666666666616 0.38227680664389529 1.0000000180025095e-35 0.6000000000000002 0.15011601177882936 1.8041666666666669 2.5000000000000004 2.5000000000000004 -0.11083333333333333 1.5466666666666666 4.9500000000000011 0.41678208679593726 0.15011601177882936 5.4650000000000007 0.25803261732421418 0.079999999999999641 0.25416666666666649 5.4722222222222232 2.5000000000000004 0.23333333333333386 3.5000000000000004 0.37411583587465225 1.4341666666666668 4.5000000000000009 5.5000000000000009 0.18344316630922211 3.5000000000000004 0.18344316630922211 3.5000000000000004 6.4050000000000011 0.37354123718961901 0.074999999999999747 0.35851241430753389 0.10392253771064626 0.65602513330227274 4.9100000000000028 3.7638888888888893 2.5000000000000004 4.0733333333333333 0.034999999999999705 1.5000000000000002 3.5000000000000004 0.37580501388136495 -2.3058333333333323 2.2308333333333334 0.29499999999999998
decision_type=10 2 10 8 2 2 10 8 8 2 10 8 2 10 10 2 2 10 10 8 8 2 10 10 2 2 8 10 10 10 10 10 2 10 10 2 10 10 2 10 8 10 10 10 8 10 10 10 10 8 10 2 10 10 2 10 10 10 10 2 2 8
left_child=1 3 4 9 8 6 18 15 11 33 -6 16 26 -8 -7 29 39 21 -3 23 32 42 54 60 31 34 40 -26 44 47 -18 50 57 -1 -12 48 -22 51 55 46 43 -31 -16 -5 -11 -30 -2 -4 -24 -36 -13 -25 -48 -47 58 -19 -32 -20 -15 -28 -14 -46
right_child=2 5 7 12 10 14 13 -9 -10 28 25 24 19 22 17 -17 30 38 20 -21 36 -23 35 37 27 -27 59 -29 45 41 56 -33 -34 -35 49 -37 -38 -39 -40 -41 -42 -43 -44 -45 61 53 52 -49 -50 -51 -52 -53 -54 -55 -56 -57 -58 -59 -60 -61 -62 -63
leaf_value=-0.047194951184178997 -0.023254843863821734 -0.067398438938847852 0.030881407886527164 -0.023601561018622319 -0.067080807281494501 -0.067081532883790179 -0.067050618519747321 -0.066933761210419801 -0.066918667489287556 -0.032050187830978287 0.03170674564194402 0.0074820393358573743 -0.0062654057684757075 0.0056771847948717683 0.0091497019208009889 0.05065093611711971 -0.0034632486566088293 0.026907423591995862 -0.020710318964434638 -0.067149083563769363 -0.0034277429543901634 0.026382241273971558 -0.006630378520399301 -0.019725607901893941 0.017064110190173679 0.037857301411505069 -0.054348615793734879 0.034199395871703168 -0.069389558572296964 -0.009300964089529044 0.019898712082397085 -0.00097065573857309413 -0.015165346567922245 -0.061948508858066624 0.010209019279644765 0.0060497160956883783 -0.015172178546368287 -0.0048619918457374284 0.034722127366114984 -0.015010217317518266 -0.040686037870772199 0.040776059805990174 -0.0028393433661883499 0.0029554992731853059 -0.040694905459039227 -0.018867340884768345 0.003273638235639888 0.013666708049517737 0.0043856122990730108 0.023503394521671453 0.020232822048623735 -0.0085140878689950912 -0.0089621193587611035 -0.029744625458267834 0.019055412547197129 0.014233224546383051 0.0086312545505931107 -0.030351504864614211 0.01896800855021849 -0.034896204938646445 0.0044926663432709223 -0.071352721278839695
